# Matrix shape: (16, 40, 4)
-0.00898293     0.04080041      -0.06576551     -0.05904510    
-0.03181985     0.02612098      0.00471761      0.07031195     
-0.00211435     0.02416528      -0.02173927     -0.01303089    
-0.06437382     -0.04110434     -0.01988477     0.01804248     
0.04004167      0.05737006      -0.04411180     -0.02569133    
0.04056777      0.07284315      -0.01068618     0.06335972     
-0.01379819     0.00564938      0.07439484      -0.05827127    
-0.04907513     -0.02140333     -0.03360588     0.06423189     
-0.07144150     -0.05725805     -0.07607443     -0.09558970    
-0.05693595     0.05736770      0.02410641      0.02686030     
0.00487238      -0.05339544     -0.00256798     -0.08738625    
-0.07880172     -0.06289838     0.02739931      0.02388417     
-0.01580190     0.01909557      0.07467694      0.10051424     
0.00865795      -0.01233801     0.03243770      -0.06544086    
0.02714238      -0.05170524     -0.04694080     -0.03147548    
0.05840280      0.05477621      -0.02318903     0.04808732     
0.02104441      -0.02864350     -0.01493732     -0.00036601    
0.05112140      0.08174992      -0.04882995     -0.01756417    
0.03642190      0.06745259      0.07468597      0.08282795     
-0.00148753     -0.08395482     -0.00631991     -0.06101911    
-0.09055429     0.05365238      0.04287151      -0.10021280    
0.00161536      -0.02828081     -0.02885840     -0.05185834    
0.01099416      -0.06570162     0.01076908      0.02276360     
0.03607225      0.00825632      -0.10011906     -0.07326686    
0.02717750      0.00093548      -0.07858413     -0.05921843    
0.05454961      0.03526892      -0.05108018     -0.03660931    
-0.09750506     -0.02377941     -0.08025853     -0.08043882    
-0.02028352     -0.00495594     -0.04936348     0.02974540     
-0.06101564     0.05755289      0.03839542      -0.08507063    
-0.02998121     -0.00753532     -0.00216624     0.00159123     
0.02104503      -0.00468320     -0.04654827     0.02369972     
-0.08074959     -0.04908517     -0.02103699     -0.04338365    
-0.04414041     -0.07915410     -0.03118497     -0.00000639    
-0.06829748     -0.02012860     0.04043205      -0.02337353    
-0.01453418     -0.02405888     -0.00203859     0.03243961     
0.05880677      0.03356638      0.05725305      -0.02363906    
-0.08562528     -0.05293867     0.03728784      -0.01803303    
-0.05647059     -0.07787638     -0.09180024     -0.08563270    
-0.03109064     0.02957320      0.02957745      -0.09166034    
0.02936960      -0.08068180     -0.03486215     -0.05095601    
# New slice
-0.00767857     -0.01660654     -0.07504133     -0.07225960    
0.00384248      0.00316353      -0.04080701     0.02660009     
-0.08034306     -0.01199185     0.06408297      -0.03639849    
0.06004011      0.01707850      -0.08356950     0.03201804     
-0.01795346     -0.04966534     0.05034366      -0.07250969    
-0.00922141     -0.02904987     0.05064710      0.02000454     
0.04004174      0.03483679      -0.01230514     -0.01654325    
-0.07454190     0.04025247      0.06344698      0.05748984     
-0.03413950     0.02472751      -0.03650457     -0.02217716    
-0.03088478     0.04085360      -0.03110392     0.01503866     
-0.01839532     0.06299509      -0.04026745     -0.03547099    
-0.02392005     0.07834802      -0.00895862     0.08636735     
0.01051388      -0.01084620     -0.02404259     -0.03365417    
0.03223407      0.00459116      0.02244017      0.02982788     
-0.07762298     -0.05371695     0.05980437      -0.07182217    
-0.02785860     0.05565917      0.00530220      -0.01850270    
-0.04812944     0.05964859      -0.03964027     -0.00544450    
-0.02523949     -0.01214217     -0.01032562     0.05287446     
-0.00201685     0.05858026      0.03297224      -0.06768762    
0.05417283      -0.04168116     -0.02093050     0.03585058     
0.04445733      0.07479721      -0.01045664     0.02132393     
0.04560283      -0.06228836     0.07338643      -0.04965018    
0.02128916      0.00649955      -0.02249524     0.02907284     
0.08579894      -0.00227259     -0.02592159     -0.00809626    
-0.06921992     0.05026028      -0.02138636     -0.03823790    
-0.02570331     0.06562805      0.05690507      0.07426596     
0.05064001      -0.00302732     -0.00495161     0.04043451     
0.08018489      0.03382847      -0.02509437     -0.02131770    
-0.06463266     0.02430228      -0.03571737     -0.05236600    
0.07790141      -0.04279107     0.00540861      0.03878951     
0.01252729      -0.04151336     -0.04901775     0.07673222     
0.01383200      0.06641484      -0.02355870     0.02530164     
-0.00216556     0.00748831      -0.03650674     0.04597575     
0.03802888      0.00339655      -0.01660523     -0.03525723    
0.06919737      -0.04589291     0.04764966      -0.01067140    
-0.02231252     0.02920735      -0.02630434     0.03402318     
0.02931790      -0.04524675     0.02535053      0.04847325     
0.04898896      0.00727023      -0.04860986     0.00635914     
0.04459003      -0.01328654     0.04274480      0.06640827     
-0.02013477     0.02089735      0.05122025      0.02439586     
# New slice
0.02480735      0.02639456      -0.04451882     0.01967850     
0.05163808      0.07862372      0.05048634      0.00600248     
0.03247211      -0.04542707     -0.07093840     -0.06475430    
0.09139129      0.06195004      -0.04151158     0.05110156     
0.05939294      0.08010623      0.07060739      0.06641663     
-0.01012858     -0.02756785     0.06850592      0.05678963     
-0.06035163     0.05695115      0.02431732      0.03673592     
-0.05866423     0.00686420      -0.04198359     0.04706102     
-0.03646632     0.01025342      -0.00638235     0.01178868     
-0.04660561     0.02024015      -0.07491899     -0.00378668    
-0.05222952     -0.08092604     -0.06259180     0.06298584     
0.02157074      0.05116074      0.04109105      -0.09215478    
-0.03476787     0.00463206      -0.03307313     0.03978749     
-0.08100912     -0.06004084     -0.09884523     -0.06780566    
0.08215002      0.08030614      0.07707720      0.08417148     
0.09231266      0.00223666      0.05762131      0.09325739     
0.00759805      0.05716695      0.01902647      0.02908781     
-0.04442663     0.02444019      0.00919560      -0.01142641    
-0.05016125     -0.04297522     -0.04832383     0.06984304     
0.04075843      -0.01675549     -0.05508552     0.05006151     
0.02935795      -0.01569397     -0.05841497     0.05144704     
0.01822133      -0.07790896     0.05814762      0.04596387     
-0.04603142     0.02627241      -0.06282488     -0.02754611    
0.04900616      -0.01530057     -0.07485441     -0.04576308    
-0.02194499     -0.02017183     0.00531277      0.07007121     
-0.00965112     -0.06059621     -0.00705712     0.02441137     
0.02129850      -0.08809957     -0.03286557     -0.07927476    
-0.02967892     0.03002184      -0.07098193     0.01214480     
0.06076902      -0.00317382     -0.06863224     -0.04663628    
0.00586562      -0.07310980     0.02494159      -0.08717804    
-0.08832863     -0.09198901     -0.02369793     0.04605899     
-0.08298614     0.05831452      -0.03727519     0.02057354     
-0.00569128     -0.08447506     0.04807319      0.02612074     
0.08602665      0.03410421      -0.06766386     0.05177785     
-0.00349622     0.02853429      -0.07769366     -0.03868370    
-0.09086465     -0.03976735     0.00390640      -0.08080679    
0.01652279      0.03833397      0.00440014      -0.06743531    
-0.07633386     -0.02885718     0.02026464      0.05981243     
0.02920553      -0.02214219     0.01936498      -0.08920872    
-0.08982937     0.01582087      -0.06364537     0.01888823     
# New slice
-0.04140282     -0.02560374     -0.05425802     0.04733222     
0.00537775      0.07612599      0.06238281      0.05375787     
-0.00274927     -0.03373621     -0.02590690     0.01450678     
0.05311446      -0.04181449     0.08323225      0.00633484     
-0.04777516     -0.03917094     0.06755063      0.07493347     
-0.07414874     0.05294878      0.04402415      0.06217281     
0.05387319      -0.05875737     0.01199637      0.03725062     
-0.02655154     0.01675343      -0.03471518     0.03866668     
-0.04395632     -0.05072854     -0.00049621     0.00716884     
-0.05018652     -0.00510963     0.03325861      -0.02206201    
0.00623793      -0.03751288     0.01248265      -0.05697188    
-0.06871674     -0.06315505     0.05105437      -0.04200180    
0.02197744      -0.01603572     0.09801844      0.06159444     
-0.08263099     -0.08702289     -0.08270052     -0.02200195    
-0.00652049     -0.04241145     -0.01021000     0.03558208     
-0.01728780     0.04185955      0.00471441      -0.01489121    
-0.00850784     0.04382743      -0.07602968     -0.01630833    
-0.04628435     0.07527672      -0.06817227     -0.07152072    
0.08016508      -0.02966892     0.03493835      0.01513169     
-0.03880890     -0.03585152     0.02863771      -0.01460334    
-0.09894083     -0.06772896     -0.04729620     0.01947913     
-0.06814676     0.05610823      -0.03624090     -0.02515551    
0.04291910      0.02052523      0.04766799      0.02711015     
-0.04414421     -0.07274906     -0.02643671     0.04473810     
-0.04261031     -0.08477924     0.02863111      0.06999074     
-0.03540562     -0.07718547     -0.08472443     0.00033182     
-0.02209136     -0.05550920     -0.00699209     0.00860887     
0.05484365      0.05014343      -0.03258270     -0.08687437    
-0.08424518     0.06026021      0.01754893      0.01661913     
-0.08247976     0.05804599      0.05881309      0.05436335     
-0.08031797     -0.04520327     -0.07131129     0.05607559     
-0.04344541     -0.04874732     0.02915026      -0.05186404    
-0.05210530     -0.02615633     -0.02619949     -0.07806281    
0.06874330      -0.04398220     0.01229049      0.05240513     
0.03012177      -0.00108030     0.05221874      -0.00624234    
-0.05059227     0.06379630      0.00313204      -0.09510642    
-0.03336228     -0.05808621     0.05992808      -0.02817334    
-0.08865983     -0.01956691     0.03201016      0.00385505     
0.00956908      -0.00518601     0.01723538      -0.03481814    
-0.05245148     -0.09331951     -0.07825089     0.01468963     
# New slice
-0.06061871     -0.00290777     0.01125012      -0.00754807    
-0.03963504     0.08069453      -0.04335192     0.06747957     
-0.06470124     -0.02145632     0.03971985      -0.03669797    
0.06655642      -0.05564153     -0.06932896     -0.03712102    
0.00424652      0.06289712      -0.04751506     0.01840758     
-0.02169878     -0.01805594     0.05729190      -0.06195544    
-0.00420391     0.06399696      -0.02396686     0.04419030     
-0.02487143     0.06217299      -0.07701127     -0.00917905    
0.00579862      0.04671245      0.05263722      0.08203366     
-0.00598320     0.00501266      0.06471130      -0.01043080    
0.05247892      -0.06638166     -0.01597974     -0.00587191    
0.05416878      0.07438964      0.00816255      -0.04457959    
0.02068783      0.00371926      0.01116263      -0.06797548    
0.07331532      0.09806273      0.03065795      -0.04991133    
0.04843628      -0.06678229     0.00984090      0.00351221     
-0.05764206     0.00635640      -0.09215240     -0.00353927    
-0.02979536     0.01300845      0.03212150      0.08897978     
-0.04276270     0.04338563      -0.02112455     -0.05022465    
-0.06322599     -0.06254234     0.08837972      -0.01084032    
-0.01370175     0.00330844      0.03744679      0.05352358     
0.08508239      -0.03781350     0.00754320      -0.02702156    
-0.03021167     0.03446986      0.08987512      -0.04626442    
0.06261070      -0.02647938     -0.00151671     0.07616220     
0.00146247      0.02684833      -0.03562753     0.08668560     
-0.00804658     -0.04993265     0.03310975      -0.04621009    
-0.04628193     0.02121707      0.07897794      -0.00614991    
0.05629881      0.08761953      0.07213112      -0.02223815    
0.00528483      -0.00936293     -0.04693504     0.01663125     
0.07206101      0.07938654      0.02106039      0.03251580     
-0.02147360     0.07248865      -0.01840682     -0.03877072    
0.02155442      0.04775202      -0.06963147     0.08107213     
0.03999572      -0.05336963     -0.02160129     0.06971171     
-0.04312898     -0.00601055     0.04253105      -0.05242077    
0.06087578      0.05577994      0.06063945      -0.03821135    
0.09582538      -0.03010282     0.09557026      -0.05887969    
-0.05433383     0.06487754      0.02568057      0.02233498     
-0.02839120     -0.01684725     -0.00618425     -0.06031420    
0.02076786      0.03173077      0.01795495      0.04308058     
0.08967135      0.03486295      -0.01509737     -0.01764813    
-0.02955968     -0.03503077     0.00618083      0.00463309     
# New slice
0.04888159      -0.02074867     0.06451021      -0.06775150    
0.02070282      0.09174867      0.09782288      -0.02820622    
0.00348942      -0.00120230     -0.04762199     -0.03755938    
0.04736383      -0.02980303     0.03741002      0.05703383     
-0.02910092     0.05949526      -0.01809266     0.02486577     
0.05985517      -0.03922339     0.03079347      -0.03120363    
-0.03468680     -0.03538153     -0.02162137     -0.05060205    
0.02117885      -0.00344985     0.03943485      -0.01827061    
-0.01417666     -0.04993825     -0.07414106     0.03951245     
-0.01222650     -0.04978078     -0.04195588     -0.00011879    
-0.03723910     0.02882091      -0.01595413     0.00969445     
0.01041167      -0.03045185     0.04573316      0.07097077     
0.02903046      0.03649263      -0.00697625     0.03957192     
-0.04372438     -0.03821606     0.04183801      -0.05839728    
-0.01481850     -0.05053693     0.04431679      -0.07382745    
0.02655410      0.05514938      -0.00358301     -0.02247647    
0.08606458      -0.02468740     0.00400320      -0.02326692    
-0.02608425     0.00772913      0.00275833      -0.02850793    
-0.08823045     0.00838990      0.00543182      0.02363861     
0.05044595      0.05873455      -0.06462854     -0.02004305    
-0.02113428     -0.06310544     -0.05327836     0.07676084     
0.02605788      0.02117130      0.02160385      -0.07848090    
-0.00762051     0.05591294      -0.06310187     0.05174735     
0.03616118      0.07239080      -0.01642509     0.05318633     
-0.09430926     -0.01909671     0.03335416      0.02815961     
0.08166973      0.09414733      0.08832257      0.06732516     
0.07000493      0.00711185      -0.04467847     -0.01314610    
0.00322465      -0.03124053     0.04883183      0.03990362     
0.02819516      0.03209073      0.07332971      0.03203489     
-0.06627099     -0.06579565     0.02032557      -0.00228298    
0.03234642      -0.09567776     -0.09426574     0.02606295     
0.05480341      -0.07543242     0.01551759      -0.08405874    
0.07009713      0.02696114      0.06994693      -0.08994643    
-0.05718286     0.06271540      0.05489874      0.02809005     
0.07101550      -0.05210708     0.06469658      -0.07549264    
0.01479270      -0.03838644     -0.02696693     0.00780902     
-0.01878028     0.00923623      -0.05359236     -0.06423552    
0.01223457      -0.01598148     -0.02824652     -0.01549328    
-0.08602510     -0.05678407     0.06076580      0.05266593     
-0.01150338     -0.05669345     0.04294430      0.01789321     
# New slice
-0.06043217     0.00686464      0.06188555      -0.08604143    
-0.06837038     0.01360460      0.05711889      -0.05032330    
0.01327551      0.04913178      0.01649046      0.00905649     
0.06720746      0.03852734      -0.05858141     -0.01254238    
0.02758903      0.05327386      -0.09427899     0.02914671     
-0.03365604     -0.07293846     0.03009313      -0.02685168    
0.00704677      -0.04872789     -0.06719329     -0.03120364    
-0.01643149     0.05164303      0.01126642      0.07043608     
0.02115485      -0.01072873     0.07118705      0.02094224     
0.02944889      -0.00759657     0.01982214      0.00324631     
-0.00696012     -0.04391331     0.01963003      -0.04597587    
0.00419609      0.06838715      -0.03711490     -0.03273842    
-0.00240801     -0.02172153     0.00505725      0.01087260     
0.06408110      -0.02997085     0.01853591      0.06809705     
0.06731591      -0.00150789     -0.03056095     0.04176560     
0.02043007      -0.07449847     -0.07090317     0.00941157     
0.01647242      -0.05136750     -0.02237291     0.05570760     
-0.03294930     0.04618642      0.05323943      0.00103797     
-0.02687272     -0.03572742     -0.01547130     0.01066602     
-0.04685740     0.00030452      -0.04471606     0.05328486     
-0.02928572     0.09390244      0.00066790      -0.02541439    
0.04644005      0.02599523      0.06986035      0.04839631     
-0.05610092     0.06974354      0.00308151      -0.01771745    
0.07126676      0.07865015      -0.04884562     0.01383365     
0.07291339      0.04085834      0.07890915      -0.01412631    
-0.02477131     0.08704597      0.05306382      0.09640107     
-0.01206160     -0.02869019     0.01326175      -0.05252340    
0.04587089      0.07868412      0.04067392      0.01436940     
0.05056677      -0.03837693     0.09606276      -0.05965952    
-0.07105522     -0.01072163     0.08121559      0.02492390     
0.03542090      -0.04870166     0.04490951      0.00581386     
0.02910454      0.05172243      0.03362050      -0.00642142    
0.01403129      -0.03313981     -0.00964054     0.07150484     
-0.01753144     0.04070355      -0.03465098     -0.00660983    
0.01810883      -0.05642380     0.01617345      0.00993935     
0.00621888      0.00126841      0.08019689      0.07214144     
-0.04194231     0.05088411      -0.04621849     -0.05485695    
0.04077223      0.02007323      -0.01767907     -0.05598771    
-0.01623503     0.03899239      -0.06085147     -0.06290374    
0.03081266      -0.03721268     -0.05291936     -0.01287577    
# New slice
-0.02677467     -0.08667860     -0.06749588     -0.00916311    
-0.05770275     -0.00117193     -0.04633044     -0.04781444    
0.02662963      -0.06463978     -0.06389749     0.04056110     
0.00371792      0.06045134      -0.03487784     -0.05677430    
-0.01640044     -0.01083398     0.04983194      -0.08762382    
-0.01211317     0.03451328      -0.04108877     -0.03700309    
0.03381950      -0.07538237     0.01693354      -0.07245295    
0.04032542      -0.06596408     0.05142143      -0.06950013    
-0.04562603     0.02274832      0.08385722      -0.04557870    
-0.01850111     0.08796783      0.00638680      0.05302617     
-0.07788066     -0.01563600     -0.02634098     0.08135353     
0.05374399      -0.03590950     0.03492919      0.02114049     
-0.05074966     -0.06665996     -0.04975943     0.04359685     
-0.03406524     -0.03334289     -0.00087107     0.02519659     
0.00704104      -0.01158947     -0.02863700     -0.05698954    
-0.03482339     -0.05290040     0.04243229      -0.09871226    
-0.03032061     -0.04272502     0.00755312      0.08307177     
0.06685740      -0.07260574     -0.01271691     0.03471095     
0.03191340      0.06544386      -0.00251610     -0.05593114    
0.07013687      -0.01607402     0.05022277      -0.00529852    
0.05509312      0.09256148      0.09441943      -0.05089866    
-0.04157610     -0.01817849     -0.03450737     0.09246497     
0.01020081      -0.03537249     -0.01835371     -0.02673358    
0.05145136      -0.04941262     -0.05406522     -0.05832841    
0.04107584      0.05015182      -0.03641822     0.03162726     
0.07534981      0.02857035      0.00049472      0.02296326     
0.01155724      0.06050007      -0.03279873     0.06066769     
0.05927820      -0.03090181     0.08254820      0.09575447     
-0.01558032     -0.00603061     0.05558221      -0.04502195    
0.04485094      0.03235991      0.06533624      -0.05208899    
-0.05863187     0.03637660      0.03419752      -0.06143397    
-0.03994914     -0.07234689     -0.05801631     -0.03379869    
0.08288369      0.00193417      0.06341451      0.09285898     
0.05326038      -0.05663556     0.05267639      0.04490829     
0.07755905      -0.06191642     0.06517185      0.08126508     
-0.05711929     0.02476916      0.08485674      -0.03930899    
0.04031448      0.04984633      0.03583576      0.09468167     
0.08209816      0.08542929      0.00772232      0.08490354     
-0.05766003     -0.02816434     -0.00341376     -0.00868546    
0.09422472      0.05728101      0.06997849      0.07278541     
# New slice
-0.07049785     -0.01861290     0.00159546      0.00792823     
0.03946372      -0.02754726     -0.01805066     0.07289310     
-0.02168728     -0.05547767     0.05431944      0.05604628     
-0.01271461     -0.00265300     -0.04350110     -0.05057924    
0.03165168      -0.02635911     0.07305438      -0.05234448    
0.00394907      0.01424682      0.05018492      0.07178559     
0.06561746      0.04206079      -0.02544639     -0.04023971    
-0.07813267     -0.00141797     0.07255956      -0.02155028    
-0.01703209     -0.07463358     0.00804358      0.03333071     
-0.08849069     -0.07001211     0.04006537      -0.00120799    
0.01899455      0.03818809      0.00371530      -0.04762255    
-0.09346905     0.03108904      -0.03102071     -0.05034219    
-0.01503653     -0.03088252     -0.00795241     -0.05272892    
0.03799739      0.01028179      -0.06238812     -0.04976031    
0.05458042      -0.01045818     0.03249554      0.03001072     
-0.02680248     0.04351558      0.02919152      0.09366660     
-0.04920803     -0.04208093     0.04832269      -0.08647382    
0.00850618      0.07986772      -0.02584205     0.08991362     
0.05975003      0.05143575      -0.03209899     0.04672140     
-0.04060681     -0.02100107     0.03574220      0.01462360     
0.02188649      0.05446059      -0.06780382     0.02417143     
0.03709521      0.04712349      0.03278979      -0.04467415    
-0.07873333     0.04836645      -0.05961648     0.03580461     
-0.09632413     -0.03539147     -0.02092615     -0.00777750    
0.00422269      0.01628110      -0.02058491     0.00861256     
0.06015613      -0.06979495     -0.02329199     -0.04918341    
0.04963268      0.04676021      -0.02368191     -0.04909541    
-0.06446696     0.03935090      -0.02372170     0.05547859     
0.02735359      0.05129275      0.04570580      -0.06940860    
0.00809017      -0.04382925     0.02731487      -0.02424171    
0.00589274      -0.04026868     -0.05510511     0.03223518     
0.00968551      0.00332896      0.05641009      -0.02745739    
0.00947845      -0.06118060     0.00071358      -0.03323304    
0.03491601      0.05069897      0.05735593      -0.00376873    
0.02769977      -0.09774873     -0.06490732     -0.00310876    
-0.01356616     -0.07906403     -0.05265618     -0.05371446    
-0.09510303     -0.01144895     0.03446185      0.01312665     
-0.05436441     -0.09137855     -0.08307780     -0.01862805    
0.04030538      -0.04679148     -0.05757962     -0.05828068    
-0.02753508     -0.09524972     -0.08991556     0.05749844     
# New slice
-0.02186645     0.00186868      -0.00573575     -0.05564003    
-0.01366186     0.03110704      -0.02436475     -0.00039526    
-0.01240944     -0.10146839     0.03599276      0.04600819     
0.07353330      -0.00908707     0.05907773      -0.05314761    
-0.03822696     -0.03416020     -0.04896646     0.01103536     
-0.03256738     -0.01856211     -0.03085718     -0.06784864    
-0.03676795     -0.08973908     0.02375081      0.02071903     
0.06108376      -0.05198247     -0.01706113     -0.00618823    
0.05666827      0.05228726      -0.06070530     -0.08831839    
-0.09046859     -0.05552629     0.04778802      0.00689012     
0.07141386      0.04339880      -0.00394994     -0.05086711    
0.06220187      0.04589795      0.01237368      -0.06274951    
0.07749610      0.01627881      0.05022883      0.01818565     
0.04069255      -0.07307982     -0.05569394     0.03143692     
0.00472619      -0.04879789     0.09562697      0.02306288     
0.04848143      -0.07777181     0.01776996      -0.02119439    
-0.02285618     -0.02234165     -0.03878231     0.03405573     
-0.03820942     0.03489379      -0.00632537     -0.03208615    
-0.05985173     -0.07382204     -0.01787686     -0.06593359    
-0.02922621     -0.00802053     -0.01633072     -0.05413334    
0.03816818      0.02373866      -0.04080501     -0.05276190    
0.03790982      0.05066424      -0.08984033     -0.03173362    
-0.01939917     -0.04191206     0.04976258      -0.02232644    
0.06805120      -0.00347583     -0.01638690     -0.05381413    
-0.01188865     0.03623457      0.04629331      0.00768820     
0.09314221      -0.03589934     0.04825646      0.08427078     
0.00581274      0.08301971      0.01984628      -0.06050157    
-0.02182727     0.05052532      -0.01625417     0.01810756     
0.09576080      0.04307302      -0.01081748     0.00933365     
-0.04881451     -0.06845329     -0.06230227     -0.07074276    
0.00612138      0.00329965      -0.04252221     -0.08116577    
0.04588513      -0.04681909     -0.01781629     -0.06413553    
-0.02501228     0.04781538      -0.06819946     -0.04530117    
0.08337201      -0.01861227     -0.02769474     -0.02719689    
0.04921488      -0.03988488     0.02477951      0.02767438     
-0.01660524     0.01243120      -0.05050308     0.03053563     
0.02573088      0.00386504      -0.04391443     0.04654575     
0.04313216      -0.00908563     0.04043541      0.01324065     
-0.04185757     -0.01132363     0.08444899      0.00115177     
-0.08469965     -0.02664020     0.02058549      -0.04345345    
# New slice
-0.05133294     0.05458952      0.03133639      -0.02382575    
0.00828472      -0.00249679     0.02429126      0.00975374     
-0.04370428     0.01339737      -0.00442959     -0.00021641    
-0.05625509     -0.00553574     -0.08886533     -0.00318409    
0.04889798      -0.00776701     -0.05547480     0.00952402     
0.01654847      -0.05708802     -0.05603931     0.06523429     
0.05399673      0.04807123      0.06129211      0.03142797     
0.02981642      0.03286551      -0.03660269     -0.02490356    
0.06928089      0.01507292      -0.03593304     -0.04364301    
0.04026565      0.05467483      0.05296040      0.00764641     
0.04344890      -0.08881103     -0.07440957     -0.09413373    
0.06891200      0.01231862      -0.02004780     0.04036098     
-0.04467419     -0.07077745     0.00789357      -0.00927026    
-0.05554866     -0.06480875     0.02411459      0.04611188     
-0.00149333     -0.04976751     0.03571113      0.01840743     
-0.07763509     -0.05588262     0.01369232      0.03698541     
-0.03339193     0.03178037      -0.05548015     0.06540069     
0.07634338      0.03425862      0.05301229      0.04702558     
-0.02894919     0.01027225      0.02676506      -0.00676215    
0.07367145      -0.04263609     -0.08985882     -0.04062892    
-0.05319355     0.08143337      -0.01760994     -0.03138723    
0.01101857      -0.03372173     -0.01882705     0.06296466     
-0.03574760     0.06092672      0.08329909      0.02327738     
0.05800083      -0.01820129     0.08707791      0.09984783     
0.03853469      0.09673791      -0.05437348     -0.00101159    
0.03319757      -0.05593213     0.04276155      -0.03006999    
-0.01252647     -0.04964366     0.04316382      -0.04495922    
-0.02626260     0.02159903      0.04603038      0.01698912     
-0.03693929     -0.04762691     0.04129624      0.02591570     
0.05919569      0.01545164      0.06319424      -0.04669695    
0.06248789      -0.03285715     -0.01916605     -0.00007076    
-0.03305664     0.01461526      0.07550585      -0.04655601    
0.00581729      -0.07895521     0.00076428      0.05318454     
0.03407992      0.05143825      0.02990552      -0.01909502    
0.00545986      -0.04787198     0.05225491      0.02295572     
-0.04058631     0.07320032      -0.01551725     -0.02334171    
-0.02328874     -0.03127959     -0.02147504     -0.06330749    
-0.08183287     -0.05215636     -0.03392413     0.03637287     
0.05313695      -0.05529408     -0.01068377     -0.02875759    
-0.05007721     -0.00841977     -0.01120848     0.06769420     
# New slice
-0.03026713     0.02424729      -0.03235772     -0.01296114    
0.07834943      -0.02237559     0.01157906      0.08970418     
0.02967781      -0.04550195     -0.05493280     -0.03610969    
-0.00308407     0.05505467      0.00277040      0.08714897     
-0.04408423     -0.02818011     0.02010398      0.05089840     
0.07103497      -0.00012291     -0.01312761     -0.04948680    
0.02351804      -0.06699166     -0.04070873     -0.08557579    
-0.06200312     0.05174602      0.00530040      0.06372099     
0.04371876      0.02270374      0.01734333      -0.03155628    
0.02335455      0.02329858      0.01439075      -0.01428857    
-0.00777220     -0.02207907     -0.07992234     -0.00231505    
-0.07240421     0.02880271      -0.05356869     -0.03303459    
-0.02965942     0.06502333      -0.06794968     0.02606126     
0.06214114      0.07913672      0.04450396      0.06764195     
0.04832030      -0.00052095     0.00955910      -0.06175565    
-0.04178093     -0.01414845     -0.01216652     -0.05009815    
-0.05742112     -0.00078660     0.04860701      0.08758177     
-0.08393541     0.02630323      -0.08632673     -0.08851045    
-0.05101626     -0.00474073     0.03449387      -0.04499281    
0.04845521      0.05253003      -0.01501834     0.04576521     
-0.01522088     -0.01028367     0.00850432      0.01384520     
-0.07032694     -0.08179995     0.01139407      0.00415634     
0.08520622      -0.03141806     0.01596323      -0.04375979    
0.05807253      0.01652787      0.08021352      0.06512544     
0.06093216      0.03843938      0.00694492      0.07804936     
-0.03049627     0.09150413      0.09436587      0.09248821     
-0.01974376     -0.02323764     0.02474254      0.04436076     
0.05442675      0.04798760      0.08337267      -0.00474107    
-0.00845119     0.04494425      0.04058664      -0.03235540    
0.02353010      -0.04587943     -0.01496291     -0.01889325    
0.06991133      -0.08807395     -0.06665567     -0.09984909    
0.04051434      -0.05058120     0.01183674      -0.07560384    
-0.02978918     -0.02047783     0.02750674      0.08456214     
0.09902702      0.01894167      -0.05784120     -0.04315223    
-0.00802892     0.00519195      0.05106584      0.06012886     
0.01932351      0.02884952      -0.01178994     0.01647734     
0.03156964      -0.01564506     0.01657348      0.01121643     
-0.09203069     0.06415979      0.01551261      -0.04716252    
0.04314621      -0.05316531     0.04387398      0.09740178     
-0.01582232     0.00478663      0.03198448      0.08379146     
# New slice
-0.02575401     -0.04611673     -0.00903027     0.05561667     
-0.00121004     0.04693287      -0.00934306     0.01379723     
0.00258045      0.00389295      -0.07029407     -0.06175501    
-0.01085209     0.02295448      0.03828940      -0.00930250    
0.03786681      0.04212119      -0.05822993     -0.05881938    
-0.05667570     0.00711922      -0.04429263     -0.02140015    
-0.00022862     0.03911535      0.02612857      0.08394018     
0.06028873      -0.05984623     -0.00781203     0.00434595     
0.06802490      -0.03044187     -0.03241490     -0.04066858    
0.04269478      -0.03767164     -0.04380677     0.04341306     
0.08904088      0.01154772      -0.04894670     0.05465411     
-0.02823064     -0.04093383     -0.06114556     -0.03691174    
-0.04807206     -0.02970254     -0.05264525     -0.00005969    
0.02725196      -0.06964232     -0.01391130     -0.04582536    
0.04236416      0.07408725      -0.00742072     -0.04321510    
-0.04475543     -0.03017852     0.03850771      0.03366765     
0.03178285      -0.02365782     0.02749051      -0.08478078    
0.02376773      0.08021320      -0.07082421     -0.02999628    
0.04245358      -0.02197545     -0.05150932     0.03813027     
0.01447616      0.01450282      -0.01994630     0.06132774     
0.02752465      -0.00290044     -0.00459805     0.02572281     
0.06010007      -0.03254923     -0.02185296     0.01983839     
-0.04278653     0.06940340      -0.05862905     0.03396744     
-0.06842958     0.01339710      0.04306873      -0.00270466    
-0.00276024     0.05293530      -0.05836199     -0.05637549    
-0.07619891     -0.05672742     -0.00607998     -0.04383032    
0.01176064      -0.00505681     0.05640419      -0.04477827    
-0.02691076     0.04666827      -0.02745252     0.06511687     
-0.03887599     -0.00671558     -0.02262109     0.03064128     
0.02063580      -0.05119399     0.04337141      -0.01353135    
-0.02886572     -0.00621877     0.05217802      0.07427498     
0.02658825      0.00334826      0.04482611      -0.02904857    
-0.05375991     -0.03373225     -0.06112864     0.02087073     
-0.00648474     -0.03561221     -0.00658975     -0.00535018    
0.05460817      0.05878604      -0.07195642     0.01675028     
0.03212469      0.02966835      -0.01819529     0.00676943     
0.01208149      0.06708561      -0.08628422     -0.04042694    
-0.04232355     -0.03867306     0.00579330      0.03743152     
-0.05986092     0.04466110      0.06112029      -0.04154679    
0.00382201      -0.05898451     0.00454280      -0.04088587    
# New slice
-0.01880490     -0.03962336     -0.05003690     0.07798776     
-0.00902120     0.00405009      -0.03160984     0.06643779     
-0.04200093     -0.03281209     -0.06494100     -0.07114839    
0.08555598      -0.04560747     0.00606981      -0.00492583    
0.03648653      0.02459011      -0.06039719     0.07146572     
-0.07207961     0.00186072      -0.01328477     -0.01336755    
0.03861584      0.04904642      -0.00638981     -0.03385553    
0.06323059      0.05192668      0.01516765      -0.02313265    
-0.01797600     0.04899665      -0.01268237     -0.03707355    
-0.07627233     -0.05190767     0.04501683      -0.01540007    
-0.01017200     0.02336846      -0.05071990     0.01008950     
-0.04126402     0.02164179      0.04238097      0.02801654     
0.07709266      -0.04849305     -0.00555381     0.02944669     
-0.08485053     0.00440134      -0.06916507     0.01560381     
0.07329976      -0.06184682     0.07723825      0.05544144     
-0.02949772     0.09302650      -0.05147194     -0.03423382    
-0.05334650     -0.01850042     -0.00100276     -0.04008970    
-0.08380987     -0.01567503     0.05983603      0.06268758     
0.04841779      0.02290333      0.02758134      -0.05120881    
0.01675626      -0.08861209     -0.04290354     -0.03882610    
0.04353097      -0.01958044     -0.05733509     -0.00707249    
-0.07604098     -0.03463522     0.00812309      -0.01955518    
-0.02176321     0.03497487      -0.07377322     -0.05226168    
0.05938477      -0.00103132     -0.02921532     0.02524827     
0.03889162      -0.02242804     -0.03962513     -0.01806842    
0.01800879      -0.02064633     0.03496912      -0.07663951    
-0.05277345     0.04627668      -0.00477458     -0.00059825    
0.01832799      -0.02737087     -0.04347225     0.00828553     
-0.02922230     -0.04184236     -0.00226449     0.00088692     
-0.01438495     -0.06165216     -0.02281699     -0.05945894    
0.03172174      -0.05939474     0.05790156      0.02279641     
-0.06676096     0.05741258      -0.07937539     -0.00979589    
-0.05647696     -0.07669842     -0.00392381     -0.05089338    
0.05332860      -0.07017845     0.05520407      0.03780621     
0.05390516      -0.03715499     -0.06134742     -0.06772803    
0.05030267      -0.05408851     -0.02447090     -0.02728489    
-0.00088429     -0.07771102     0.05202188      -0.07193525    
0.06030662      -0.04833639     -0.05425156     -0.02960413    
0.00756127      -0.02938646     -0.09423970     0.03847177     
0.05834998      0.02090176      0.05776379      0.00094563     
# New slice
0.00580052      -0.04999011     -0.05624647     -0.04338251    
-0.01246077     0.05849309      -0.02110452     0.00664698     
-0.00550753     -0.05829258     -0.00832790     0.07455788     
0.07722475      0.07317602      0.00714722      0.02210941     
0.04353587      -0.02324282     -0.02942123     0.07253046     
0.00553555      -0.05557635     0.06777753      0.01876217     
0.03545443      -0.07758586     0.00552388      0.04608234     
-0.02139312     -0.05628879     0.05460915      0.02694887     
0.00237562      -0.00090363     -0.01808170     0.02397237     
-0.03622935     -0.06501962     0.01040222      0.00057239     
0.03634688      -0.00791907     -0.01218543     -0.01480098    
0.00017260      -0.08105214     -0.09321973     0.00950407     
-0.02515322     0.01093547      0.04104523      0.03177595     
0.03013074      -0.01026629     -0.00164618     -0.02871885    
0.02172126      0.03759306      0.06697197      -0.05874540    
-0.01341875     -0.05060514     -0.01111140     0.06858240     
-0.09297054     -0.09096883     0.02552238      -0.06550250    
0.04884362      0.01586987      0.01865221      0.06842791     
-0.07709703     0.05257082      0.01706580      -0.05890176    
0.00044224      -0.03277772     -0.04299146     -0.02648765    
-0.05699785     0.04915812      0.04866501      -0.02824430    
-0.08535660     -0.02173003     -0.01009185     0.03774294     
-0.01267998     0.00752968      0.00513617      -0.05902715    
-0.06585348     -0.08823881     -0.01836203     0.00655505     
-0.00988910     0.06867386      -0.02317156     -0.06074733    
-0.00199539     -0.03698430     -0.02503226     0.06217285     
-0.01996452     0.05135198      -0.00724423     -0.04794949    
0.04797215      -0.05613597     -0.01200045     0.00206312     
0.02379099      -0.08408057     -0.01026049     -0.03598599    
0.03909902      0.01464338      0.01876948      0.03290649     
-0.02883042     -0.01549956     0.06716466      -0.06126822    
-0.06617642     -0.00770327     -0.03583010     0.00784041     
0.05447515      -0.02683143     -0.08389872     -0.05153964    
0.05921213      -0.03271394     -0.04934203     0.02243564     
-0.00418072     -0.08394449     0.05125187      0.02978336     
0.05517971      0.02323496      -0.04034612     -0.04316192    
0.02780412      -0.02484460     0.00213606      -0.09147007    
-0.05306835     0.01571170      -0.02074725     -0.05465925    
-0.08355111     0.03736769      -0.02709736     -0.08828317    
0.05418145      0.01912921      -0.06565393     -0.07599318    
# New slice
0.05559856      -0.01928249     -0.06573207     0.02811548     
0.00005977      0.02268116      -0.02146081     -0.04898826    
-0.06673361     -0.02633675     -0.07895806     0.05539289     
0.02011187      -0.00827472     0.04855595      -0.05385651    
-0.04382497     0.03199969      -0.06456605     0.03730442     
0.01060900      -0.06709322     -0.08682097     0.03162578     
0.03639010      -0.01876169     -0.07625844     -0.05935438    
-0.02026300     -0.02281103     0.00547687      0.00747616     
-0.00271259     0.04171137      0.07354345      0.06208450     
0.06217149      -0.03439227     -0.03750828     -0.00070083    
-0.00550245     0.00349843      -0.03484088     -0.07738327    
-0.05153104     0.08574439      -0.01329706     -0.00466359    
-0.06030039     -0.05245426     0.00496498      0.02864728     
-0.02469057     -0.02313896     0.06985313      -0.03435957    
-0.05076950     -0.00631425     0.07069131      0.01671959     
-0.01898527     -0.03944506     0.02015159      -0.06936391    
0.08188760      0.04705829      0.03486467      0.03584398     
-0.04727167     0.04498548      0.02050900      -0.07795462    
-0.09030332     -0.04220455     0.03149872      -0.06309827    
0.07469409      -0.04355402     -0.07414114     0.03063079     
-0.04458082     -0.01125093     -0.02002566     0.00087987     
-0.06785918     -0.07013409     0.03669453      0.00050989     
-0.03005071     0.01266643      -0.05822992     0.03585641     
0.06499645      0.10455877      -0.03542426     0.01924429     
0.06477254      0.09628702      -0.03231440     0.05696455     
0.05757506      0.07284969      -0.02950896     0.08201331     
-0.00560835     -0.02026774     0.04385203      0.09456246     
-0.02505355     0.06859818      0.01733828      0.05168295     
0.08687644      0.04740119      -0.03773406     0.00437167     
0.03129533      -0.06289513     0.01454951      -0.02905932    
0.00400058      0.01808443      -0.08651110     -0.05998414    
0.04417769      -0.07993972     0.04257391      -0.07833166    
0.02083457      0.04016886      0.05846323      -0.02652574    
0.00039018      0.03792189      0.08726575      -0.06232538    
-0.03459703     0.03089103      0.00777742      -0.04049712    
-0.09504788     -0.09805818     -0.08096771     -0.05108886    
-0.06613186     -0.09674793     -0.02042669     0.03992695     
-0.03253852     0.01406598      0.00169949      0.02663598     
-0.07678999     -0.01213613     0.05756551      0.03780907     
-0.07247885     -0.00950735     -0.00661595     -0.03918466    
# New slice
