# Matrix shape: (16, 40, 4)
-0.00673733     0.04332274      -0.06107025     -0.05634166    
-0.03586811     0.02613963      0.00585021      0.07070631     
0.00063853      0.02559969      -0.02202421     -0.01470430    
-0.06397520     -0.04130883     -0.02172028     0.01394036     
0.04054184      0.05781050      -0.04400419     -0.02565151    
0.04131599      0.07348425      -0.01076255     0.06899279     
-0.00986080     0.01154085      0.08289039      -0.05492283    
-0.05068170     -0.02436629     -0.03784327     0.05925529     
-0.07406256     -0.05920266     -0.07803838     -0.09649613    
-0.06330787     0.05304071      0.02114209      0.02215240     
0.00774091      -0.04937552     -0.00249944     -0.08930242    
-0.07792930     -0.06226781     0.02806921      0.02488501     
-0.01765304     0.01683346      0.07154290      0.09746831     
0.00941027      -0.01151749     0.03278017      -0.06553499    
0.02993460      -0.05230541     -0.04781441     -0.03260800    
0.05793424      0.05460306      -0.02336674     0.04766874     
0.02262258      -0.02811589     -0.01443010     -0.00072610    
0.05153946      0.08162986      -0.04830636     -0.01561422    
0.03062928      0.06320122      0.07614945      0.08935392     
0.00133405      -0.08068928     -0.00498652     -0.06575923    
-0.09192880     0.05237789      0.04041635      -0.10001782    
-0.00558946     -0.03238166     -0.03146916     -0.05368961    
0.01066059      -0.06669809     0.00963441      0.02177946     
0.03646669      0.00853473      -0.09996277     -0.07302183    
0.02791571      0.00182686      -0.07805792     -0.06269055    
0.05539875      0.03608563      -0.05071041     -0.03634742    
-0.09773372     -0.02348950     -0.08018635     -0.08109104    
-0.01944708     -0.00371678     -0.04853076     0.03034832     
-0.06199534     0.05778386      0.03754697      -0.08518912    
-0.03044687     -0.00758717     -0.00386281     0.00127241     
0.02757693      0.00429693      -0.04425762     0.02731840     
-0.08044883     -0.04568084     -0.01877954     -0.04621358    
-0.04629679     -0.08021522     -0.03174453     -0.00036207    
-0.06735988     -0.01932095     0.04179699      -0.02270347    
-0.01424445     -0.02399767     -0.00166620     0.03291143     
0.06057773      0.03483351      0.05840474      -0.02317343    
-0.08504254     -0.05226436     0.03755692      -0.01805824    
-0.05674277     -0.07747550     -0.09129202     -0.08463112    
-0.03164073     0.02954350      0.03006070      -0.09021817    
0.02874670      -0.08120719     -0.03494895     -0.05045369    
# New slice
-0.01035134     -0.01791859     -0.07684209     -0.07553177    
-0.00023240     0.00411058      -0.04327194     0.02213350     
-0.08255983     -0.01419488     0.06249118      -0.03579435    
0.05730892      0.01503424      -0.08491941     0.03004852     
-0.01846469     -0.04993672     0.04995243      -0.07249876    
-0.00857356     -0.02956224     0.04889990      0.01472193     
0.03949334      0.03281491      -0.01399880     -0.01351809    
-0.07323977     0.04196135      0.06508303      0.06093364     
-0.03414263     0.02544601      -0.03399314     -0.02271665    
-0.02749036     0.04424503      -0.03323927     0.01230682     
-0.00200159     0.06255202      -0.04265227     -0.04134931    
-0.02591038     0.07682878      -0.00685572     0.08815759     
0.01297582      -0.00740805     -0.01856507     -0.03622142    
0.03055483      0.00276471      0.02050782      0.02998400     
-0.08222949     -0.05914708     0.05920356      -0.07208897    
-0.02732608     0.05576481      0.00570670      -0.01850873    
-0.04963551     0.05926445      -0.04007685     -0.00605170    
-0.02443475     -0.01220328     -0.00961332     0.05193884     
0.00471282      0.06623690      0.03599919      -0.07026534    
0.05255002      -0.03695279     -0.02549511     0.03798645     
0.04632454      0.07829613      -0.00709213     0.02022286     
0.05914356      -0.05877325     0.07539690      -0.04908125    
0.02013782      0.00572445      -0.02316259     0.02714602     
0.08422095      -0.00379338     -0.02709133     -0.00914675    
-0.07009687     0.04864876      -0.02337212     -0.03796183    
-0.02731849     0.06335609      0.05723531      0.07426785     
0.05043570      -0.00462680     -0.00363936     0.04146476     
0.08084820      0.03352477      -0.02394244     -0.02015486    
-0.05965281     0.02632068      -0.03164065     -0.05188879    
0.08070566      -0.04244501     0.00847210      0.04073107     
0.01287590      -0.04882769     -0.05253702     0.07648518     
0.01802274      0.06565902      -0.02264189     0.02902100     
-0.00253333     0.00928907      -0.03609654     0.04506221     
0.03623928      0.00445464      -0.01034402     -0.03545895    
0.06926365      -0.04548193     0.04757816      -0.01053468    
-0.02327903     0.02838218      -0.02749386     0.03296138     
0.03045178      -0.04480780     0.02587095      0.04725906     
0.05017180      0.00782268      -0.04845119     0.00422562     
0.04611085      -0.01131349     0.04358988      0.06337014     
-0.01950518     0.02197044      0.05203827      0.02416061     
# New slice
0.02395901      0.02716044      -0.04578045     0.02122585     
0.05708426      0.08019505      0.05325861      0.00939274     
0.03969137      -0.03722249     -0.06179943     -0.06088461    
0.09404334      0.06263070      -0.03978068     0.05226632     
0.06415688      0.08558065      0.07443069      0.06810123     
-0.00512409     -0.01883547     0.07583174      0.06214844     
-0.05754277     0.05693187      0.02134145      0.03742712     
-0.05738447     0.01009612      -0.04256994     0.04207984     
-0.03528305     0.01141328      -0.00509121     0.01328390     
-0.04752648     0.02012082      -0.07336961     -0.00019042    
-0.05690794     -0.07781418     -0.05618114     0.07348184     
0.02092261      0.05302252      0.04284337      -0.09048698    
-0.03877904     0.00026574      -0.03772421     0.06164584     
-0.07840580     -0.05701559     -0.09580804     -0.06500901    
0.08392109      0.08201960      0.07833245      0.08339445     
0.08993845      -0.00012547     0.05551808      0.09201307     
0.01012526      0.06065910      0.02219389      0.03146247     
-0.03680496     0.03237149      0.01087677      -0.00946520    
-0.04041950     -0.03144599     -0.04823356     0.07361289     
0.04807441      -0.00606026     -0.05344035     0.04755175     
0.03215393      -0.01337622     -0.05725842     0.05216143     
0.01929072      -0.07744196     0.05842414      0.04422547     
-0.04289226     0.02883949      -0.06061420     -0.02531284    
0.05157986      -0.01290478     -0.07268348     -0.04353937    
-0.02436209     -0.02154938     0.00514875      0.07065815     
-0.00857417     -0.05945758     -0.00393110     0.02859254     
0.02060733      -0.08557115     -0.02868889     -0.07661599    
-0.03381756     0.02818263      -0.06877547     0.01473835     
0.05662265      -0.00648271     -0.06942260     -0.04665318    
0.00387758      -0.07485155     0.02289386      -0.08833373    
-0.08798803     -0.09059612     -0.02802273     0.04481167     
-0.08634627     0.05091586      -0.04370247     0.01652651     
-0.00851865     -0.08888026     0.04762199      0.02675265     
0.07983610      0.02949741      -0.06955868     0.05009719     
-0.00351915     0.02733552      -0.07923262     -0.03936394    
-0.08873357     -0.04008337     0.00034830      -0.08274215    
0.01376256      0.03615156      0.00143409      -0.06918244    
-0.07877365     -0.03863148     0.01957141      0.06071597     
0.02452647      -0.02386189     0.01862553      -0.08801836    
-0.09115656     0.01511295      -0.06504321     0.01901155     
# New slice
-0.04271328     -0.02640157     -0.05393739     0.04803085     
0.00708172      0.07803620      0.06282733      0.05490164     
0.00227091      -0.02772800     -0.01884872     0.01693321     
0.05574900      -0.03895378     0.08580301      0.01214789     
-0.04852249     -0.03988209     0.06942834      0.07558353     
-0.07069450     0.05489596      0.04734173      0.06752782     
0.05328773      -0.06379279     0.00097268      0.04465641     
-0.02677352     0.01709928      -0.03894215     0.03100801     
-0.04345219     -0.04992346     0.00027335      0.00799899     
-0.05430302     -0.00812161     0.02991404      -0.02358442    
0.00622466      -0.03548323     0.02053171      -0.05368219    
-0.06893001     -0.06210869     0.05215398      -0.04071693    
0.01803383      -0.02083253     0.09212996      0.06666686     
-0.08054113     -0.08507380     -0.08129347     -0.02054525    
-0.00409451     -0.04247059     -0.01035944     0.03625903     
-0.01774435     0.04078773      0.00455062      -0.01558425    
-0.00703723     0.04535125      -0.07394054     -0.01490481    
-0.04481503     0.07712484      -0.06519703     -0.06733211    
0.08730567      -0.03121279     0.03680044      0.01769936     
-0.03567958     -0.02682890     0.02892735      -0.01525827    
-0.09735623     -0.06639709     -0.04613113     0.02024304     
-0.06906153     0.05639533      -0.03461347     -0.03040095    
0.04370563      0.02225225      0.05042043      0.03024347     
-0.04269377     -0.07148634     -0.02485218     0.04683084     
-0.04060982     -0.08876909     0.02552774      0.06946586     
-0.03686055     -0.07838031     -0.08396320     0.00314325     
-0.02481151     -0.05776060     -0.00530708     0.00913548     
0.05407000      0.04826336      -0.03025102     -0.08562125    
-0.08410472     0.05799810      0.01697963      0.01596673     
-0.08394820     0.05614770      0.05741628      0.05439255     
-0.07741242     -0.04430036     -0.07052358     0.05883859     
-0.04422402     -0.05078979     0.02715771      -0.05193575    
-0.05458412     -0.02586037     -0.02638343     -0.07779951    
0.06531446      -0.04648986     0.01106776      0.05122006     
0.02920398      -0.00295896     0.05067438      -0.00695480    
-0.04882646     0.06409873      0.00167159      -0.09778814    
-0.03422441     -0.06083477     0.05771064      -0.03083423    
-0.08918956     -0.01855388     0.03509993      0.00385972     
0.00805793      -0.00350215     0.02105391      -0.03464277    
-0.05302710     -0.09367987     -0.07834338     0.01475612     
# New slice
-0.06188177     -0.00436245     0.00965920      -0.00913869    
-0.03636121     0.08284926      -0.04595959     0.06430385     
-0.06684062     -0.02251767     0.03969104      -0.03632985    
0.06028021      -0.06151365     -0.07636323     -0.05018989    
0.00369303      0.06236980      -0.04839866     0.01734046     
-0.02250972     -0.01829624     0.05760021      -0.06277244    
-0.00363293     0.06320403      -0.02393882     0.04517272     
-0.02284033     0.06442983      -0.07382077     -0.00578633    
0.00719674      0.04727361      0.05309286      0.08269475     
-0.00530903     0.00725308      0.06782280      -0.00684424    
0.05452256      -0.06413288     -0.01493587     -0.00580702    
0.05267058      0.07293533      0.00676461      -0.04634991    
0.02081374      0.00421635      0.01198220      -0.06728911    
0.07230189      0.09663701      0.02905352      -0.05163103    
0.04220238      -0.07227849     0.00542353      0.00118848     
-0.05649361     0.00745806      -0.09124943     -0.00290402    
-0.03140253     0.01105584      0.02987657      0.08644639     
-0.04275694     0.04415243      -0.02034955     -0.05009933    
-0.05954760     -0.05960990     0.08932777      -0.01351826    
-0.01452576     0.00257741      0.03655455      0.05408188     
0.08475280      -0.03777127     0.00815185      -0.02636571    
-0.02410307     0.03765132      0.09264985      -0.04387084    
0.06231268      -0.02646064     -0.00180498     0.07570035     
0.00061348      0.02605390      -0.03646611     0.08576423     
-0.00786150     -0.05062388     0.03234493      -0.04576145    
-0.04732405     0.01976876      0.07735932      -0.00756715    
0.05620941      0.08687267      0.07132792      -0.02281122    
0.00240625      -0.01206077     -0.04951027     0.01392630     
0.07219736      0.07877926      0.02016261      0.03157453     
-0.02118528     0.07197982      -0.01892520     -0.03945804    
0.01804295      0.04319538      -0.07465789     0.07676229     
0.04568346      -0.04941356     -0.01884642     0.07539157     
-0.04217863     -0.00528700     0.04227823      -0.05354102    
0.06126422      0.05694122      0.06135596      -0.03989254    
0.09505343      -0.03050033     0.09526507      -0.05964990    
-0.05546188     0.06440440      0.02531650      0.02203350     
-0.02896824     -0.01733241     -0.00608106     -0.05936307    
0.02119718      0.03155502      0.01796016      0.04393457     
0.08990750      0.03436863      -0.01601653     -0.01838213    
-0.02955990     -0.03495820     0.00572874      0.00420339     
# New slice
0.04798004      -0.02105008     0.06590862      -0.06857021    
0.01959712      0.09140267      0.09788851      -0.02766450    
0.00241382      -0.00146667     -0.04692103     -0.03525804    
0.04578174      -0.03189753     0.03549780      0.05552690     
-0.03083126     0.05740757      -0.01785147     0.02234039     
0.06310163      -0.03813230     0.03270547      -0.01827217    
-0.03447675     -0.03571321     -0.02340622     -0.05264834    
0.02433548      -0.00148719     0.03819849      -0.02387957    
-0.01308223     -0.04865513     -0.07416176     0.03843422     
-0.01164512     -0.05207152     -0.04578408     -0.00415977    
-0.03728103     0.03038285      -0.01662744     0.00716900     
0.01412568      -0.02838687     0.04212549      0.06935438     
0.02684129      0.03382077      -0.00849882     0.03886459     
-0.04494341     -0.04663500     0.03514351      -0.06213871    
-0.01746353     -0.05383582     0.04002290      -0.07745966    
0.02744143      0.05601912      -0.00383275     -0.02391914    
0.08845074      -0.02328136     0.00306779      -0.02671457    
-0.02771321     0.00450043      -0.00000808     -0.02990997    
-0.08615809     0.01030455      0.00889530      0.02086278     
0.04559333      0.06456866      -0.06704251     -0.02271917    
-0.02122137     -0.06153517     -0.04872612     0.08157722     
0.02934649      0.02438635      0.02642129      -0.07486039    
-0.00858635     0.05873600      -0.05962031     0.05329686     
0.03535033      0.07209433      -0.01603002     0.05396429     
-0.09313753     -0.02079583     0.03258729      0.03255585     
0.08235359      0.09360404      0.08760993      0.06683520     
0.07092055      0.00600731      -0.04634055     -0.01579561    
0.00409094      -0.03365474     0.04547969      0.03563691     
0.02893946      0.02809406      0.06246913      0.02120980     
-0.06525590     -0.07142176     0.01518601      -0.00676419    
0.03091252      -0.09858519     -0.09595387     0.02525875     
0.05855276      -0.07766216     0.01308531      -0.08219405    
0.07471927      0.03137098      0.07101666      -0.08530065    
-0.05555271     0.06530801      0.05565383      0.02982327     
0.07411081      -0.05033835     0.06557462      -0.07262941    
0.01768613      -0.03267451     -0.02465969     0.00371785     
-0.01621051     0.00954391      -0.05338077     -0.06312080    
0.01261275      -0.01062268     -0.02645141     -0.01072677    
-0.08728997     -0.04562572     0.06701773      0.05453282     
-0.01307688     -0.04884812     0.04434452      0.01529141     
# New slice
-0.06213060     0.00317330      0.05919550      -0.08911877    
-0.06851634     0.01541251      0.05851047      -0.04965813    
0.01266024      0.05019020      0.01803544      0.01325109     
0.06477120      0.03607904      -0.06020492     -0.01188728    
0.02804369      0.05362610      -0.09471378     0.02865270     
-0.03953574     -0.08001867     0.02567061      -0.03073011    
0.00842149      -0.04772883     -0.06548399     -0.03113431    
-0.01674830     0.05062273      0.01223783      0.07181180     
0.03417124      -0.00578921     0.07721038      0.02393170     
0.02590600      -0.01100040     0.01292317      -0.00306484    
-0.00721459     -0.04435182     0.01801918      -0.04779037    
0.00364532      0.06926596      -0.03537991     -0.03141259    
-0.02156926     -0.03309083     -0.00123122     -0.00089484    
0.06297528      -0.03126026     0.01754723      0.06774241     
0.05359057      -0.01261899     -0.03161537     0.04251547     
0.02172813      -0.07273888     -0.06976961     0.01150759     
0.01441072      -0.05369080     -0.02376789     0.05453547     
-0.03066379     0.04994821      0.05017303      0.00174154     
-0.02244218     -0.03592060     -0.01168956     0.00018857     
-0.05126054     -0.00278383     -0.04561167     0.04890192     
-0.02968196     0.09358130      0.00132247      -0.02566789    
0.06006892      0.02999284      0.07263219      0.04854883     
-0.05688454     0.06954459      0.00310638      -0.01948239    
0.07002455      0.07790505      -0.04943652     0.01293561     
0.07231255      0.04029961      0.07764518      -0.01438735    
-0.02620060     0.08492269      0.05058700      0.09444476     
-0.01162568     -0.02899520     0.01252254      -0.05201565    
0.04356921      0.07449136      0.03782162      0.01263843     
0.05110878      -0.03951077     0.09271531      -0.05961703    
-0.06945216     -0.01014811     0.08404384      0.02754841     
0.03529969      -0.05764296     0.04198587      0.00712988     
0.03724291      0.05092663      0.03717355      0.00516857     
0.01576242      -0.03064655     -0.01034368     0.07125098     
-0.01411560     0.05497430      -0.02940362     -0.00408013    
0.01876367      -0.05554828     0.01652822      0.01001253     
0.00892486      0.00221745      0.07919036      0.07367980     
-0.03998061     0.05081076      -0.04682593     -0.05482761    
0.04360830      0.02049403      -0.01897463     -0.05892586    
-0.01627515     0.03909495      -0.06360368     -0.06922447    
0.03002336      -0.03739692     -0.05378703     -0.01491314    
# New slice
-0.02816500     -0.08847828     -0.06914227     -0.01014453    
-0.05550544     0.00182848      -0.04928439     -0.05254506    
0.02407942      -0.06662757     -0.06499496     0.04041076     
0.00126915      0.05807161      -0.03647237     -0.05774611    
-0.01663975     -0.01072305     0.04951734      -0.08861557    
-0.01409619     0.03158145      -0.04367005     -0.03985741    
0.03054972      -0.08077396     0.01148056      -0.07394300    
0.04098338      -0.06487213     0.05333872      -0.06671112    
-0.04437156     0.02350280      0.08480743      -0.04544946    
-0.01639650     0.08771793      0.00404005      0.05058844     
-0.07479589     -0.01481000     -0.02626304     0.08208431     
0.05160851      -0.03764073     0.03332775      0.01937187     
-0.05051850     -0.06506069     -0.04487200     0.04403282     
-0.03584740     -0.03526036     -0.00291497     0.02329021     
0.00295104      -0.01621955     -0.02718394     -0.06024917    
-0.03356318     -0.05178677     0.04340621      -0.09797600    
-0.03239015     -0.04541501     0.00485406      0.08057716     
0.06656224      -0.07265736     -0.01177515     0.03474655     
0.03354438      0.06478883      -0.00636550     -0.06736211    
0.05508948      -0.02336697     0.03809981      -0.00281396    
0.05370158      0.09185553      0.09437876      -0.05176498    
-0.03373471     -0.01529951     -0.03278332     0.09304767     
0.00937920      -0.03578708     -0.01898708     -0.02844179    
0.05017936      -0.05063019     -0.05521699     -0.05951399    
0.04110091      0.04964103      -0.03734922     0.03170601     
0.07433508      0.02715268      -0.00115554     0.02140115     
0.01131154      0.05959224      -0.03377292     0.05989575     
0.05713129      -0.03355663     0.08015954      0.09322987     
-0.01594676     -0.00735361     0.05486257      -0.04567007    
0.04510126      0.03228590      0.06549446      -0.05211613    
-0.05800387     0.03417209      0.03375489      -0.06295250    
-0.03181513     -0.06729723     -0.05199554     -0.02417357    
0.08311954      0.00191865      0.06257397      0.09196719     
0.05242329      -0.05639646     0.05270056      0.04448852     
0.07677455      -0.06250945     0.06462975      0.08079070     
-0.05838893     0.02393917      0.08396358      -0.04007854    
0.04048234      0.04978983      0.03604068      0.09493898     
0.08316931      0.08571734      0.00760386      0.08413374     
-0.05665880     -0.02743492     -0.00376072     -0.01041128    
0.09438641      0.05779351      0.06994245      0.07219278     
# New slice
-0.07167958     -0.01954176     0.00231495      0.00896075     
0.03449306      -0.03167259     -0.02101495     0.07058048     
-0.01655946     -0.05213162     0.05530282      0.05471143     
-0.01545003     -0.00638651     -0.04802918     -0.05021356    
0.03391168      -0.02497059     0.07378900      -0.05126712    
0.00474758      0.01553771      0.04931355      0.06498969     
0.07116823      0.05099158      -0.01971908     -0.03853028    
-0.08094706     -0.00512739     0.06832585      -0.02510411    
-0.02235528     -0.07850738     0.00472775      0.03008835     
-0.09296492     -0.06830414     0.04656804      0.00486673     
0.01835625      0.03779602      0.00020478      -0.05290242    
-0.09202497     0.03264606      -0.02999277     -0.05004329    
-0.01388574     -0.02911352     -0.00874070     -0.05379248    
0.03912890      0.01173814      -0.06076047     -0.04858527    
0.05755205      -0.00843687     0.03170024      0.02955977     
-0.02749639     0.04309863      0.02877533      0.09336831     
-0.04809411     -0.04031389     0.04807492      -0.08415229    
0.01141971      0.08196363      -0.02534598     0.09043417     
0.06029642      0.05684470      -0.02809240     0.05092078     
-0.02597772     -0.01995192     0.03671466      0.01951837     
0.02190627      0.05293896      -0.07131686     0.02084244     
0.02434199      0.02867543      0.02099353      -0.04825720    
-0.07752591     0.04652949      -0.06109498     0.03704084     
-0.09586799     -0.03495112     -0.02060984     -0.00740339    
0.00684963      0.01829514      -0.01863540     0.00935132     
0.06079034      -0.06869169     -0.02186096     -0.04763167    
0.04947024      0.04748331      -0.02282178     -0.04839893    
-0.06237093     0.04164202      -0.02120549     0.05837289     
0.02709163      0.05226561      0.04794762      -0.06767908    
0.00745331      -0.04356202     0.02798608      -0.02280421    
0.01447780      -0.03121096     -0.04551564     0.03469981     
0.00826443      0.00667435      0.06087010      -0.02603699    
0.00852632      -0.06228506     0.00024362      -0.03285689    
0.03476684      0.04978859      0.05655213      -0.00404730    
0.02746948      -0.09843898     -0.06536499     -0.00326774    
-0.01834174     -0.08248695     -0.05491442     -0.05462378    
-0.09638136     -0.01280808     0.03309256      0.01208934     
-0.05767656     -0.09370584     -0.08500952     -0.01971098    
0.03853826      -0.04837012     -0.05951698     -0.05861391    
-0.02781409     -0.09559686     -0.08997753     0.05791903     
# New slice
-0.02253002     0.00046128      -0.00746689     -0.05755093    
-0.00626944     0.03304948      -0.02428525     -0.00140098    
-0.01494433     -0.09811819     0.03989018      0.04884732     
0.07287943      -0.00955336     0.05846276      -0.05357859    
-0.03624332     -0.03192354     -0.04660290     0.01298559     
-0.02699506     0.00417292      -0.01337529     -0.05810159    
-0.03585160     -0.08821866     0.02478687      0.01997793     
0.06542253      -0.04691936     -0.01644619     -0.00688074    
0.05823083      0.05400855      -0.05894552     -0.08627857    
-0.08953065     -0.05418392     0.04982033      0.01229014     
0.06657817      0.05613820      0.01113551      -0.03338741    
0.05979851      0.04349140      0.01214398      -0.06434454    
0.07193720      0.01272819      0.05487388      0.02501341     
0.04726696      -0.07163151     -0.05674282     0.02991769     
0.00621121      -0.04812481     0.09617215      0.02172185     
0.04787266      -0.07678031     0.02013683      -0.01475934    
-0.02828722     -0.02367236     -0.04112640     0.03143580     
-0.03622086     0.03617299      -0.00743881     -0.02951125    
-0.04663567     -0.05763487     -0.01277285     -0.05382469    
-0.02182659     -0.00179913     -0.01341653     -0.05333142    
0.03886314      0.02803234      -0.03945897     -0.05213610    
0.04789782      0.05348020      -0.08818431     -0.03183348    
-0.01980978     -0.04268159     0.05065317      -0.02133051    
0.06406449      -0.00853647     -0.02207477     -0.05604150    
-0.02281666     0.03218172      0.04689178      0.00838977     
0.08596130      -0.03936572     0.04909916      0.08780184     
-0.00080179     0.08187860      0.01870183      -0.06037753    
-0.02362682     0.04954702      -0.01874463     0.01755236     
0.08757817      0.03230062      -0.02271801     0.00188097     
-0.05443170     -0.07694060     -0.07382229     -0.08045795    
0.00417811      0.00028092      -0.04686284     -0.08589184    
0.03953644      -0.05450067     -0.02317558     -0.06661515    
-0.02498244     0.03859806      -0.08171131     -0.05027869    
0.08486997      -0.03497986     -0.04781104     -0.03655750    
0.03934827      -0.04626902     0.00000006      0.01842851     
-0.01515031     0.01074849      -0.06762724     0.01721545     
0.02072599      -0.00541764     -0.04576680     0.04751902     
0.03644048      -0.01781944     0.03524807      0.01981310     
-0.04955042     -0.01982234     0.07955531      0.00210148     
-0.08557061     -0.02734810     0.02030684      -0.04335796    
# New slice
-0.05129386     0.05802001      0.03619033      -0.01788612    
0.00385215      -0.00234707     0.02334591      0.00816944     
-0.03910950     0.01328572      -0.00610539     -0.00279730    
-0.04437638     0.00300448      -0.07208355     0.01412410     
0.05560188      0.00004669      -0.05322459     0.00720944     
0.02282384      -0.05496612     -0.05191302     0.07263346     
0.05168226      0.03980623      0.05616391      0.03463420     
0.03714218      0.03285708      -0.03266788     -0.00661289    
0.07199537      0.01525341      -0.03575183     -0.04547174    
0.05276762      0.07270169      0.06767903      0.01174529     
0.05093294      -0.07807946     -0.05960231     -0.07505292    
0.06927875      0.01239907      -0.01796097     0.04556841     
-0.04366423     -0.06909406     0.01072072      -0.00798826    
-0.04925682     -0.06290659     0.02588450      0.05090879     
0.02548282      -0.02055195     0.05931440      0.03583046     
-0.06222495     -0.04534354     0.02882355      0.04626096     
-0.01788680     0.04103456      -0.04070992     0.08428644     
0.07687354      0.03477039      0.05479873      0.04765838     
-0.02868064     0.00879704      0.02281685      -0.01487982    
0.07950094      -0.04186932     -0.08636548     -0.02739525    
-0.05276345     0.07890914      -0.02404541     -0.03701692    
0.00283371      -0.04570730     -0.04610711     0.04116187     
-0.04166878     0.04936705      0.06578037      0.00109492     
0.05518542      -0.02111885     0.08484845      0.09770162     
0.01473107      0.08395275      -0.06749768     -0.00093914    
0.02933034      -0.05874722     0.04034038      -0.03560958    
-0.00909988     -0.04959968     0.04179246      -0.04825842    
-0.02162816     0.02468739      0.05527598      0.02536702     
-0.02906794     -0.04517208     0.04108701      0.02733557     
0.05959744      0.01766820      0.06121606      -0.04351057    
0.06858923      -0.02303801     -0.00655704     0.01936873     
-0.01480103     0.02748003      0.08808795      -0.03210878    
0.01301961      -0.05970889     0.01915550      0.07325920     
0.04193301      0.06444346      0.04597518      0.00135385     
0.02335355      -0.03402383     0.06872864      0.04300399     
-0.03728916     0.08251454      0.00586727      -0.00659207    
-0.01017770     -0.01716964     0.00007454      -0.05410870    
-0.05930512     -0.03006517     -0.01873703     0.04252351     
0.06451958      -0.04797664     -0.01228805     -0.03270877    
-0.04988864     -0.02012471     -0.03015660     0.03559840     
# New slice
-0.02892149     0.02386064      -0.03314988     -0.01345460    
0.07713723      -0.02239341     0.01235981      0.09021398     
0.02622413      -0.04534995     -0.05309181     -0.03390299    
-0.00167824     0.05736410      0.00417876      0.08772359     
-0.04705937     -0.03038956     0.01908498      0.05041785     
0.07261550      0.00372586      -0.01028587     -0.04411004    
0.02457304      -0.06590407     -0.03993638     -0.08548221    
-0.05632902     0.06030937      0.01269979      0.06891595     
0.04761664      0.02699861      0.02149405      -0.02829929    
0.02135942      0.01851144      0.01040575      -0.01716246    
-0.00764757     -0.02149715     -0.07844544     0.00397528     
-0.07865448     0.02522813      -0.05985388     -0.04410758    
-0.01802384     0.06225405      -0.06837354     0.02832161     
0.06146530      0.07871242      0.04318101      0.06054818     
0.04334083      -0.00571448     0.00283605      -0.06245270    
-0.04102739     -0.01331879     -0.01180105     -0.04956511    
-0.05798326     -0.00065418     0.04793914      0.08488009     
-0.08545273     0.02629419      -0.08680910     -0.08849365    
-0.04841867     0.00292317      0.03884812      -0.04241141    
0.04132428      0.05571962      -0.00729531     0.04320453     
-0.01336965     -0.00885772     0.01224953      0.02099708     
-0.06501975     -0.07249852     0.01645106      0.00930275     
0.07647680      -0.03665182     0.01311669      -0.04574987    
0.05928792      0.01748904      0.08077741      0.06533717     
0.05718094      0.03322991      0.00459810      0.07893279     
-0.03045276     0.09136504      0.09408922      0.09231679     
-0.01969228     -0.02311840     0.02470105      0.04423042     
0.05096992      0.04562623      0.08053631      -0.00892856    
-0.00830889     0.04377594      0.03628851      -0.05692949    
0.02326433      -0.04840703     -0.02387247     -0.03923015    
0.05779045      -0.09113804     -0.06862758     -0.10154899    
0.04315397      -0.05144771     0.00857608      -0.07630473    
-0.02888272     -0.01986944     0.02755016      0.08109546     
0.09968607      0.01935143      -0.06012009     -0.04586399    
-0.00898229     0.00502270      0.05084663      0.05830589     
0.01922977      0.02665063      -0.01188965     0.01333739     
0.01197755      -0.01668547     0.01660801      0.01195957     
-0.09153739     0.05488055      0.01606054      -0.04495196    
0.04648928      -0.05252661     0.04450845      0.09874136     
-0.01353414     0.00549383      0.02120497      0.07870454     
# New slice
-0.02464805     -0.04641904     -0.00925725     0.05499229     
0.00082991      0.04740249      -0.00930473     0.01264703     
0.00427720      0.00518604      -0.06990368     -0.06245140    
-0.01327872     0.02144572      0.03687048      -0.01085487    
0.03808770      0.04226872      -0.05826651     -0.05880615    
-0.05917690     0.00647454      -0.04478074     -0.02115947    
-0.00043681     0.03929868      0.02557074      0.08186881     
0.05534471      -0.06345052     -0.01089999     0.00159366     
0.06872353      -0.02837830     -0.03397248     -0.04452850    
0.04343216      -0.03675931     -0.04120137     0.04845656     
0.08782753      0.01071391      -0.04489435     0.05951763     
-0.02698921     -0.03625239     -0.05710087     -0.03455405    
-0.04664140     -0.02744604     -0.05273385     -0.00107912    
0.02984772      -0.06612453     -0.01040027     -0.04314932    
0.04264744      0.07626332      -0.00670871     -0.04815090    
-0.04537883     -0.03095469     0.03781195      0.03420214     
0.03158426      -0.02333021     0.02898150      -0.08190525    
0.02473113      0.08031235      -0.07239235     -0.03185488    
0.03467974      -0.02965473     -0.05761786     0.03724277     
0.01849497      0.01485633      -0.01339073     0.06625684     
0.02854298      -0.00186419     -0.00496194     0.02432567     
0.04869374      -0.05049356     -0.02751541     0.01646779     
-0.04041182     0.07125725      -0.05745384     0.03392036     
-0.06785595     0.01400080      0.04380254      -0.00188571    
-0.00071684     0.05452035      -0.05640696     -0.05602571    
-0.07487464     -0.05473575     -0.00336461     -0.04113564    
0.01412314      -0.00108654     0.06012747      -0.04099660    
-0.02433513     0.05014838      -0.02392353     0.06809446     
-0.03846223     -0.00475038     -0.01881313     0.03511048     
0.02090078      -0.04860680     0.04566964      -0.01353388    
-0.02945450     -0.00189601     0.05990541      0.07469188     
0.02387357      0.00194384      0.04667527      -0.02864054    
-0.05496050     -0.03524141     -0.06076876     0.02314455     
-0.00838420     -0.04015131     -0.00708456     0.00423168     
0.05490487      0.05861191      -0.07174358     0.01790813     
0.02384477      0.02051849      -0.02184800     0.00743218     
0.00959106      0.06521126      -0.08760297     -0.04116904    
-0.04504400     -0.04096069     0.00186150      0.03398474     
-0.06370737     0.04107698      0.05808629      -0.03919321    
0.00340016      -0.06028916     0.00286965      -0.03990183    
# New slice
-0.01973438     -0.03884396     -0.05192172     0.07589382     
-0.00772549     0.00655469      -0.02739125     0.06985294     
-0.03940175     -0.03126505     -0.06543899     -0.07098059    
0.08495469      -0.04678429     0.00483459      -0.00539681    
0.03691161      0.02526336      -0.06023537     0.07350967     
-0.06629895     0.01065851      -0.00876034     -0.00887508    
0.03816919      0.05105274      -0.00650537     -0.02298729    
0.06049811      0.04914895      0.01069604      -0.02833322    
-0.01818331     0.04967580      -0.01191948     -0.03630985    
-0.07922844     -0.05241061     0.04548989      -0.01543835    
-0.01631203     0.01853165      -0.05997452     -0.00591196    
-0.04084663     0.02145433      0.04323203      0.02912726     
0.07570641      -0.05120742     -0.00752165     0.02621350     
-0.08390009     0.00490913      -0.06905860     0.01375006     
0.07749230      -0.05887851     0.07953465      0.05733104     
-0.03096436     0.09423722      -0.04973000     -0.03298289    
-0.05304046     -0.01839494     -0.00135875     -0.04114229    
-0.08414513     -0.01484197     0.06052695      0.06523713     
0.04680343      0.02428980      0.03458205      -0.04215416    
0.02055903      -0.07942228     -0.04078661     -0.03905416    
0.04123526      -0.02100406     -0.05662275     -0.00653271    
-0.08223513     -0.03744499     0.00747331      -0.02000406    
-0.02383557     0.03230488      -0.07727182     -0.05335866    
0.05813558      -0.00299191     -0.03180631     0.02309234     
0.03390916      -0.02607438     -0.04284292     -0.01927419    
0.01555836      -0.02286034     0.03369534      -0.07749308    
-0.05534959     0.04418331      -0.00606934     -0.00182442    
0.01776002      -0.02818585     -0.04402805     0.00982511     
-0.03082463     -0.04441918     -0.00507758     0.00075183     
-0.01562873     -0.06405461     -0.02545854     -0.06017383    
0.03792179      -0.05663865     0.06173652      0.02523305     
-0.06726615     0.05505390      -0.08290589     -0.01623764    
-0.05980958     -0.07981746     -0.00639873     -0.05278245    
0.04881827      -0.07430108     0.05086152      0.03287322     
0.05442933      -0.03895725     -0.06509987     -0.06954716    
0.05181549      -0.05260317     -0.02423944     -0.02946861    
-0.00048752     -0.07773338     0.05089042      -0.07440253    
0.05993870      -0.04763561     -0.05203756     -0.02795518    
0.00730179      -0.02908728     -0.09144029     0.04128382     
0.05791340      0.02082697      0.05877464      0.00264344     
# New slice
0.00698140      -0.04873885     -0.05306952     -0.04112465    
-0.00887458     0.06032285      -0.01841025     0.01020448     
-0.00305356     -0.05629978     -0.00741522     0.07354255     
0.07590088      0.07134160      0.00423261      0.01862848     
0.04307759      -0.02300704     -0.02918670     0.07265194     
0.00595534      -0.05407314     0.06706929      0.01953046     
0.03721194      -0.07525651     0.00633041      0.04624456     
-0.02296861     -0.05818585     0.05154202      0.02263054     
0.00107888      -0.00128026     -0.01854809     0.02356034     
-0.03500793     -0.06264976     0.01371319      0.00388525     
0.03221050      -0.00927160     -0.01201280     -0.01427111    
0.00040591      -0.08056135     -0.09281848     0.01019024     
-0.02684684     0.01117963      0.04144374      0.03179672     
0.03061889      -0.00971873     -0.00117340     -0.02772349    
0.02754427      0.04226331      0.07258647      -0.05095192    
-0.01379581     -0.05092814     -0.01122412     0.06907053     
-0.09184598     -0.08967110     0.02673517      -0.06425302    
0.04905573      0.01670355      0.01691123      0.06786847     
-0.07623283     0.05020924      0.00969430      -0.05611975    
0.01722433      -0.00260588     -0.02857643     -0.03005030    
-0.05661597     0.04983282      0.04864120      -0.02856165    
-0.09142416     -0.02322271     -0.01049034     0.03650437     
-0.01216750     0.00777208      0.00574940      -0.05838412    
-0.06566703     -0.08825967     -0.01838055     0.00675908     
-0.00899975     0.06881087      -0.02078977     -0.05838416    
-0.00194153     -0.03653235     -0.02349345     0.06374227     
-0.02192784     0.05063188      -0.00761302     -0.04793473    
0.05142915      -0.05303321     -0.01041464     0.00426452     
0.02192274      -0.08546397     -0.01117793     -0.03647004    
0.03714937      0.01383862      0.01786414      0.03212256     
-0.02845884     -0.01205406     0.08054747      -0.05039472    
-0.06980871     -0.01271245     -0.04241818     0.01125982     
0.05325555      -0.02925455     -0.08564162     -0.05250888    
0.05941653      -0.03390314     -0.05264465     0.02176527     
-0.00306857     -0.08387130     0.04984563      0.02879379     
0.05706781      0.02346711      -0.04210518     -0.04516427    
0.02713519      -0.02389219     0.00224256      -0.09285114    
-0.05587643     0.01592833      -0.01973098     -0.05483508    
-0.08644485     0.03822327      -0.02527958     -0.08736937    
0.05472525      0.01875420      -0.06580680     -0.07540011    
# New slice
0.05385498      -0.02144624     -0.06875201     0.02499704     
0.00026044      0.02251831      -0.02174822     -0.04810914    
-0.06815551     -0.02510147     -0.07596659     0.05786111     
0.01718021      -0.00773188     0.04954333      -0.05172839    
-0.04942798     0.02788189      -0.06565798     0.03731455     
0.00798069      -0.07028931     -0.09304041     0.01371317     
0.02665837      -0.02852033     -0.07873277     -0.06255310    
-0.01869860     -0.02287926     0.00665661      0.01740682     
-0.00179268     0.04368073      0.07691238      0.06602068     
0.06534538      -0.03691863     -0.03865347     -0.01374760    
-0.00595024     0.00283018      -0.03480349     -0.07707953    
-0.05054357     0.08935297      -0.01041815     -0.00175305    
-0.06169072     -0.05213019     0.00654781      0.03092754     
-0.02554884     -0.02333095     0.06995764      -0.03453340    
-0.03677222     0.00250005      0.08007692      0.02809530     
-0.01875329     -0.03914451     0.01999136      -0.06896313    
0.08101013      0.04740421      0.03725024      0.03752062     
-0.04696541     0.05442703      0.03287115      -0.06743731    
-0.08495606     -0.02949440     0.04392206      -0.04827640    
0.06554593      -0.05703483     -0.07989450     0.02973502     
-0.04445123     -0.00954933     -0.01969416     0.00049552     
-0.06480103     -0.06621861     0.04184507      0.00311779     
-0.02981954     0.01155044      -0.05984345     0.03194350     
0.06567333      0.10522725      -0.03542702     0.01864281     
0.06287151      0.09492848      -0.03303996     0.05678628     
0.05659764      0.07217330      -0.02971041     0.08141745     
-0.00508617     -0.02036040     0.04371841      0.09494186     
-0.02745096     0.06666977      0.01601745      0.04995867     
0.08628288      0.04758770      -0.03812460     -0.00122262    
0.03530076      -0.05792641     0.01207106      -0.03897059    
-0.00388118     0.02107467      -0.09058475     -0.07835217    
0.04454889      -0.07948322     0.03365446      -0.08450820    
0.02642013      0.04451380      0.05847537      -0.03389357    
0.00881825      0.04635566      0.09165883      -0.07492697    
-0.02512350     0.04014378      0.01033210      -0.04316634    
-0.09384421     -0.09189738     -0.06457900     -0.03158982    
-0.06929155     -0.09096333     0.00092914      0.07117074     
-0.03502103     0.01375850      0.01241269      0.05099342     
-0.07313073     -0.01225841     0.06268442      0.06803517     
-0.06860025     -0.00824027     0.00067532      -0.02136701    
# New slice
