# Matrix shape: (64, 80)
0.06419342 -0.09535076 0.11313516 0.03833263 0.04100462 0.02559098 0.05877506 0.10371200 -0.01217434 -0.09093883 0.11004442 -0.01919323 -0.05081309 0.06632017 0.05636137 0.00718432 -0.00980562 -0.01332267 0.09835073 0.06879130 0.05141836 0.06935704 -0.04270727 0.02086384 -0.09959644 0.07169203 -0.10819625 -0.10918898 -0.10744919 0.06680387 0.01232723 -0.00617637 0.01511870 -0.03107091 -0.03969914 -0.07129304 -0.01350523 -0.06651174 0.00044096 0.08371388 -0.09509531 0.06085268 -0.08334840 -0.04367018 0.02490388 0.01693445 0.08890469 -0.00544502 -0.04087183 -0.03512836 -0.00236501 -0.07946004 -0.06978428 -0.04863323 0.00120649 -0.07972223 -0.06620103 0.08523777 0.11029982 -0.03288088 -0.09283382 -0.04463764 0.04109983 0.03137206 -0.03423112 -0.08809331 -0.03936200 -0.02041947 0.04938097 -0.05795297 0.05051345 0.01167595 -0.02012384 -0.09457336 0.11408212 -0.01813428 0.07342049 -0.05952531 -0.11139033 -0.09374429
-0.03372419 -0.05573368 -0.02899304 0.10685691 -0.10337707 0.02897038 0.07261413 -0.01713154 -0.09508707 -0.02213502 0.00974684 0.07402822 -0.01768109 -0.05789797 -0.07200079 -0.12008158 0.05703641 -0.10921442 -0.07388298 0.02209851 0.06298614 0.07297630 -0.06415901 0.07457711 0.07418031 0.05963966 -0.01074247 0.11687010 0.07051338 -0.10235240 -0.08130462 -0.01496532 -0.05646883 -0.05810625 0.06932771 0.07740571 0.07592405 -0.02608557 -0.04068794 0.05216281 -0.01865805 -0.00996803 -0.07523167 0.07300079 -0.06630225 0.06707733 0.07384059 0.02079842 0.10692549 0.04772807 -0.06447417 -0.07195537 -0.00861631 0.04490656 -0.00451192 -0.01244462 0.05516860 0.01693672 0.06181972 0.04404368 0.02883564 -0.04923616 -0.04371488 -0.08076476 0.09468508 0.08337057 0.01982777 0.02832152 -0.04135580 -0.13386829 -0.00275317 -0.10118127 -0.10963315 -0.05186057 -0.04423009 0.05038223 -0.06471686 0.05827112 -0.12502618 -0.07509663
-0.01894976 -0.01238805 0.03182058 -0.01671312 -0.00778995 -0.04637661 -0.05230955 -0.03612601 -0.00202280 -0.13518482 -0.09384064 0.10920636 0.06908800 -0.02357762 -0.01541012 0.00307028 0.04380798 -0.10110699 -0.05052526 -0.08040904 -0.09067402 -0.04638618 -0.00317494 0.06493404 -0.00576311 -0.04880909 -0.02231357 0.08804300 -0.01538335 -0.04300814 -0.04398581 -0.10840377 0.00506878 -0.12544274 -0.08122712 -0.04675544 0.05979521 -0.12800224 0.09077246 0.02016858 -0.10138737 0.06324624 -0.05144756 -0.06910440 0.00299554 0.03315713 -0.13186963 -0.02926116 0.06499995 -0.06415351 -0.01162465 -0.01967877 -0.07928021 0.06311712 -0.06323189 -0.02310657 0.01080002 -0.09199852 0.03345238 -0.06671096 0.12531577 0.02729324 -0.03995759 -0.11532371 0.02307964 0.02153112 -0.08238836 0.01007810 -0.11005852 -0.13453878 0.00749426 0.07169379 -0.03115823 0.00560959 -0.06558330 -0.01013784 0.00625737 -0.07879449 0.04599915 0.04690366
-0.09971686 0.05248511 -0.03321394 -0.07568186 0.01098357 -0.00982071 -0.04281413 0.03531142 0.08738730 0.00767243 0.00684482 -0.01403228 -0.06524873 0.07845429 0.12095768 0.00126943 -0.00935738 0.11383483 0.11052220 -0.10441352 -0.02549190 -0.08515270 0.05145734 0.10865540 -0.01663741 0.06535798 0.04519702 -0.12097952 0.02751162 0.07585630 0.02303400 0.02802452 0.00647740 0.10146293 0.11871454 -0.00735623 0.05262204 -0.00430646 0.04945609 -0.02330255 -0.06731486 0.08045734 0.06717365 -0.00014798 0.03038782 0.03428059 0.06019062 0.06469677 -0.07870553 0.01351916 0.03742957 -0.04007851 -0.06821688 0.03425752 0.05301875 -0.03911429 0.13522600 0.05366232 0.06694080 -0.06843739 -0.10865798 -0.02029582 0.02645045 -0.03030308 0.08069142 -0.05420113 -0.05481600 -0.06280301 0.10175411 -0.02920256 0.08252895 0.07446115 0.00797470 0.08603292 0.07295643 -0.08242349 -0.04022874 0.12936947 0.08548474 -0.03332061
-0.04625203 0.08359572 0.07170765 -0.00658779 -0.04677878 -0.05575525 -0.00340029 0.06082582 0.01398164 -0.06640256 -0.00811346 0.08637390 -0.11056246 -0.06588210 0.09185058 0.12539048 -0.12403914 -0.07581490 -0.01284990 0.08771662 -0.03887691 0.03594352 0.07374448 -0.01627920 -0.00768403 -0.04424246 0.02508669 0.07709249 0.02764521 0.10141195 0.01543196 0.00360415 -0.04175394 0.08582451 0.00835675 -0.12175355 -0.01646504 0.07049042 0.09100325 0.00272992 -0.06976191 -0.05303190 -0.05989809 0.01773741 0.06428555 0.05595893 0.06353408 0.09602494 0.05355248 0.08761420 0.08639313 0.00417629 0.06109995 -0.05131613 -0.05565271 0.05325081 0.04570242 -0.06868146 -0.05982588 -0.11684179 0.07063960 0.09634583 -0.03286314 0.04134230 -0.04689622 0.11639860 -0.07755803 -0.10776140 -0.06886491 0.08895741 -0.04860706 0.08963612 0.06556281 -0.02474637 -0.00772134 -0.07323276 0.03115448 -0.02196590 0.06224068 0.03277331
-0.10205083 -0.05139533 -0.06418824 0.04635492 0.03952628 0.02165348 -0.04550820 -0.09192979 -0.01557709 -0.06009212 -0.09551376 -0.12918030 -0.09024481 -0.08925381 0.05331011 0.05371270 0.02710345 -0.08712277 0.08870448 0.00011745 0.06572236 -0.00251758 0.03732190 -0.08435456 0.06261311 0.11851998 0.06558793 -0.13065124 -0.04853107 0.00735864 0.07953636 -0.02479913 -0.00395387 -0.01798041 0.00278892 -0.02621666 -0.04015494 -0.05232075 0.07443866 0.11499134 0.02199585 0.12511347 0.11236753 -0.09567597 -0.06161947 -0.05555147 0.05886044 0.02286500 -0.03455080 0.10286594 -0.02245155 -0.08487887 -0.05351129 -0.03291003 0.09073841 -0.03327454 -0.00474533 0.07893489 -0.06600538 -0.09361921 0.06506955 -0.02129800 -0.03437310 0.00704501 -0.03492332 0.03824895 0.06212687 -0.10995102 0.10231034 -0.08404511 0.01688779 -0.01044726 -0.02160634 0.13323161 -0.08741230 -0.01835832 0.05441229 0.12126371 -0.07256601 0.03555262
0.09221156 -0.09873057 0.03143051 -0.07423267 0.01883414 -0.08146655 0.04866026 -0.01583042 0.08403929 0.01242032 -0.01144936 -0.04452050 -0.11160886 -0.03634224 0.01552864 -0.07763993 0.08572032 -0.05629464 -0.03145258 -0.03000553 -0.07222226 0.01820003 -0.03847094 -0.07958169 0.02031384 0.12143727 0.03946942 0.07268724 -0.01022334 -0.02505870 0.10427587 -0.04966273 -0.11245630 0.03767633 0.06853856 -0.08377875 0.02702543 -0.02039604 -0.00588235 -0.01099620 -0.00577819 -0.07208853 0.04651632 -0.04878539 0.07629498 0.03255293 -0.07609963 -0.07435746 -0.06882289 0.06549446 -0.05884546 -0.06753401 0.01548933 -0.05929764 -0.03950542 0.11498472 -0.04029325 -0.01766032 0.09329685 0.00533439 0.07851984 -0.08463239 0.07187065 -0.00548138 -0.08206183 -0.03763893 -0.09470940 0.06075727 -0.00629075 -0.09289216 0.07799578 0.08596367 0.06449042 0.13008022 0.11446051 0.08441862 0.09087078 0.10433587 0.04388987 0.00303511
-0.01403176 -0.02763771 0.06645200 -0.00902685 0.04127523 -0.04676370 -0.02156224 0.10374472 0.03495385 0.06454118 -0.08199855 -0.07052892 -0.02097189 0.00835996 0.08998161 -0.02167321 0.07446936 0.00267765 0.06320874 -0.10044326 0.03436539 -0.08416068 -0.07922646 -0.04949917 0.05587000 0.03873113 0.02951376 -0.03738999 0.07586774 0.13115035 0.06856180 0.10681819 -0.02538290 -0.01950199 0.04254629 0.04951331 0.00667364 -0.06060330 0.02131682 -0.00715030 -0.02845241 0.09937464 0.02245130 -0.08905046 -0.08501183 0.12690958 0.09547073 -0.05966703 -0.01932988 0.01767508 0.07474708 -0.11947988 0.02273069 0.06133229 0.04222574 0.03307414 -0.02946450 -0.07848141 0.08032438 0.07641512 -0.05188612 -0.07793108 0.05641836 -0.05648733 -0.09180565 0.04817157 0.01071375 -0.03135487 0.10108589 0.00276021 0.04710075 -0.01336114 0.10843004 0.06292711 0.11995169 0.01310337 -0.05774172 0.07048963 0.11724308 0.04359112
0.02867605 -0.05996253 0.07391742 -0.11768412 0.10856677 0.06473103 0.02032679 -0.08563456 0.12551011 0.09674047 0.11846291 0.02120266 0.02030044 -0.00950300 -0.02749528 0.05613707 0.02106608 0.02044808 0.03722917 0.01689196 -0.08258008 -0.07412168 -0.02040686 0.09776559 0.07891025 -0.07697044 -0.01513566 -0.03688078 0.01943375 0.11265104 0.02325894 -0.06960836 -0.01288935 -0.02192250 -0.04786915 0.03811107 0.00920944 0.07807229 0.06925349 0.03195592 0.08816344 -0.02451762 0.08844409 -0.02058179 0.05696438 0.12806523 -0.06202677 0.12610991 0.06567185 -0.07024762 0.05390308 -0.11453478 0.04897069 0.04116279 -0.08902109 0.06157953 -0.00490348 0.13991643 0.12875712 0.01304713 0.07077315 0.06189803 0.12925303 0.01109642 0.00862734 -0.00079803 0.01906385 -0.05728809 -0.01734084 0.08687051 0.02668402 -0.02833211 -0.07308608 0.08318716 -0.08271272 -0.03073623 -0.11356456 0.11488087 0.11282007 -0.06990387
-0.11780687 -0.04754030 0.04427832 -0.06780028 -0.00046024 -0.00316843 0.03162011 -0.03355211 0.07473207 -0.05458613 0.00532244 0.07094096 -0.07936963 0.10545577 0.07646873 -0.02429972 0.02114739 -0.05148863 0.02840620 0.01011507 0.10381651 -0.03770959 -0.04931131 -0.03404609 -0.08454047 0.05237217 -0.07409230 -0.05505364 -0.06745916 0.02758681 0.05479576 -0.06393498 -0.05245695 0.01048035 -0.04420823 0.00205341 0.05096484 -0.05447827 0.06990979 0.10051171 -0.00841504 0.04497249 0.03962370 -0.04044448 -0.09265307 0.11345222 0.07752895 -0.07354791 -0.10539997 0.12610614 0.03892047 -0.04916660 0.08488149 0.05604995 0.02792389 0.10978280 0.01705187 0.13503151 -0.05885537 -0.09356032 0.00130557 0.00809911 0.08722857 -0.00906724 -0.00134994 -0.00566103 0.10490273 -0.03085027 0.02336187 0.10415339 0.08694113 0.12810889 -0.08392728 -0.03467553 -0.00416388 -0.04884901 0.04702363 0.07193062 0.01256660 0.02455195
0.00079135 0.11598282 0.07310968 -0.06984109 -0.03131086 0.05424735 0.00751226 -0.05013227 -0.08322375 0.04328146 -0.01570763 -0.08666417 0.00145425 0.13033979 0.11271589 0.07686163 -0.10165519 0.08886529 0.07869662 0.01464991 -0.00169334 0.02352100 -0.04568060 -0.00199050 0.00706286 0.01506547 -0.09157678 0.01360258 -0.11101625 -0.06085015 0.06745145 -0.07164368 0.08194040 0.12952954 -0.01349288 -0.04415764 -0.06201986 0.03284621 0.00687241 -0.03883887 0.06131069 0.02550657 -0.00583317 -0.02622325 -0.12794285 -0.05599360 0.03850685 0.13029288 -0.08599089 0.09259794 0.03290140 -0.07278714 0.02190306 0.07840716 0.00633401 0.12153604 0.00565024 -0.04479848 0.12172272 -0.05831873 0.05135573 0.09691951 0.04449588 -0.06820163 -0.12912878 0.07119591 0.04984007 0.04036783 -0.07320037 0.00768784 0.07576700 0.08135308 0.11877783 0.11751446 -0.00619921 -0.10272899 -0.08625658 0.06094050 -0.02139373 0.02431719
0.03515103 0.05019177 0.04793671 0.07661003 -0.01870181 0.03754754 -0.06027751 -0.06532551 -0.04223774 -0.09139217 0.08346424 0.00607904 0.05120973 -0.02416036 -0.02069612 -0.07208537 0.01001697 -0.12462442 -0.07370210 0.10824060 -0.10670894 -0.00685667 0.01251346 -0.12958822 -0.00318652 0.02151277 0.06181138 0.04645917 0.10605197 -0.01794243 0.02104408 0.01432678 -0.06052025 -0.04645390 -0.10005934 0.11130095 0.02901964 -0.07309648 -0.00672769 0.00796325 -0.12330081 -0.02599825 0.02666624 0.03953042 0.00840754 0.04972987 0.02542200 -0.12060773 0.08515916 -0.10859075 0.04082868 0.11832956 -0.01521270 -0.06223515 -0.04297472 -0.07157796 -0.04700952 -0.07562555 0.09064952 -0.02217138 0.06513035 -0.12621081 0.03250420 0.07256507 -0.06000581 -0.04646468 0.00481285 -0.08281764 -0.07574715 0.01616262 0.09462593 -0.05537911 -0.02687147 -0.13714066 -0.12805869 0.12350940 0.11359562 -0.05638452 -0.06668455 -0.03024270
0.06705395 -0.12654069 -0.07429220 -0.02512562 -0.06198483 -0.02767299 0.06021606 0.00687037 -0.12499463 0.07892118 0.07483657 0.05820198 0.07085995 0.02312678 0.07371983 -0.11882806 -0.05197366 -0.03788540 -0.04024996 -0.05267333 -0.11005130 -0.11049481 -0.00478384 0.07368475 0.04975375 0.00281436 -0.08715881 -0.01967905 0.02681429 -0.12448177 -0.02590621 0.00657542 0.11999928 -0.04985248 0.08995692 0.03219055 -0.07736479 0.08039265 0.08051828 -0.10896844 -0.09008759 0.02580636 -0.09480554 0.10130122 -0.03723921 -0.05554570 -0.05450311 0.08803501 -0.01863405 -0.04098376 0.04709669 -0.05308273 -0.02249686 -0.11029552 -0.08640500 -0.04614830 -0.01356841 0.06739638 -0.12694837 -0.00638958 0.04555681 0.02106252 0.04204427 -0.11016258 -0.00849952 0.00834558 -0.11009436 0.07984372 -0.10812433 0.04764927 0.04323995 -0.05237814 0.01075854 0.06648722 0.06199758 0.09383772 -0.04893552 0.01129491 0.06223764 -0.00129652
0.05129243 -0.05121229 0.09141578 -0.01498613 -0.07424984 -0.00410115 0.10534877 -0.02040384 0.00410430 -0.01992574 -0.04624063 -0.00302267 0.05077984 0.03233010 0.01080588 0.01789340 -0.10002531 -0.03522470 0.02444628 -0.11049964 0.06676798 0.04162246 -0.00621288 0.01408925 0.11838248 0.13144435 0.07258890 0.03082315 -0.07118899 0.06656756 -0.05515528 0.06476349 -0.09804979 0.02023704 0.10086113 0.05090800 0.09760781 0.06309538 0.02700219 0.05053631 0.10638576 0.08655827 0.05859549 -0.06368445 -0.07113305 -0.00679856 0.07540024 -0.04184397 0.01179249 0.11724991 0.11514766 -0.10532103 0.04660845 0.09670784 -0.08414527 0.09201001 -0.04430534 -0.05279033 -0.02808765 -0.06722981 -0.06327040 0.05336178 0.06624927 0.06397069 0.05858343 -0.05343456 -0.08577285 -0.11274190 -0.03409655 -0.02928277 0.02740051 -0.06030143 -0.05681088 0.08798190 -0.05142733 -0.00446015 -0.10230472 0.06359193 0.09114797 -0.07287262
0.03306504 -0.06407261 0.06851103 0.10226528 -0.07635620 0.02834301 0.05936694 0.09402932 0.07090272 0.01316074 0.00852593 0.03723853 -0.05789346 -0.03158615 -0.01220606 -0.07917537 0.00048020 -0.02107546 -0.04953677 -0.02304245 -0.09277915 0.09181779 0.03959636 0.06928952 -0.10879039 -0.11853182 0.07505053 -0.00465535 0.02608189 0.04455023 -0.00320263 -0.01251284 0.07288291 0.08698829 -0.04257725 -0.08182114 -0.04421709 0.06547293 0.00387324 0.08398329 -0.05271164 -0.11350983 0.02120819 -0.03279290 -0.05813831 0.05825304 -0.00432352 -0.01879000 0.11514079 0.09621246 -0.10295675 -0.08951003 -0.03778469 -0.10095938 -0.04307645 0.06383383 -0.08810330 0.09371142 0.02781318 0.01958672 0.02786402 0.01241633 0.02309068 -0.10061145 0.00602533 0.07375451 0.09930164 0.00752238 -0.06165716 0.03721997 -0.08515816 0.08813267 0.05564343 0.03981296 0.00686817 0.09612472 -0.03640528 -0.10420722 -0.07331010 0.07292507
-0.06800915 -0.06872138 0.04093261 -0.08381350 0.01751054 -0.04483549 0.03277584 0.00536924 0.04070906 0.08033430 -0.05404557 -0.05870739 -0.09585072 0.11622915 -0.01899610 0.05630288 0.00437032 -0.08445843 -0.05745492 -0.05236280 -0.06213050 0.07976039 0.05346219 0.02428336 0.04007274 0.06136672 0.05786294 -0.04806723 -0.06527627 -0.04500328 0.02752576 0.10994586 -0.03533209 0.11956608 0.06225736 -0.08326229 0.04285745 0.06763206 -0.03546825 0.00411086 0.01550705 0.07058036 0.11532413 -0.05101617 0.05139829 0.08441890 -0.07223078 0.10560642 -0.02594527 0.10806055 0.11086014 -0.13386428 -0.06941639 0.01260762 0.02272824 0.00601537 -0.07999618 0.09191095 -0.04204228 0.02364741 0.05766113 -0.01310302 0.09296828 0.03986553 -0.05570884 0.02541001 0.06377342 0.03166525 -0.04007846 0.10539166 -0.04490152 -0.07242907 -0.02093231 -0.06824835 0.05351285 -0.01975076 -0.02675701 -0.05123128 0.08287715 0.04347908
-0.04439001 0.04031183 0.05648348 -0.08185330 -0.00704277 -0.02463239 0.10221484 0.05258277 -0.05805202 0.10840212 0.00084118 -0.01607374 -0.00796501 0.01104222 0.12757881 0.06356920 0.00027263 -0.01455783 0.04831301 -0.10538313 -0.01389319 0.07653213 -0.09268904 0.02235189 -0.01449283 0.08935329 -0.04852514 -0.00716743 -0.05466634 0.11863414 0.00682539 -0.05848248 -0.05549279 0.10265101 0.06670643 -0.00213142 0.06479763 0.06475962 -0.00902131 -0.03484684 -0.07958680 0.08559830 0.11556074 -0.06865987 -0.07269615 0.04412558 0.01472004 0.11102530 -0.02404664 0.01894369 -0.07947110 0.00813563 0.02046873 0.05093215 0.05239756 0.07205330 0.02807730 0.02304227 -0.03415868 0.07373820 0.07061509 0.02488985 0.13772894 0.12426080 0.03875352 0.07487961 0.06850515 -0.04553493 0.02580590 0.11032403 -0.02443507 0.05946248 -0.00846373 0.04950801 0.08740964 0.04215950 0.03226233 0.07840934 -0.00244646 0.12788625
0.05445168 0.12543894 -0.07742529 -0.06397862 -0.06788179 0.03344921 0.09012609 -0.05864154 0.05422678 0.02302556 -0.08711633 -0.02876038 -0.02947091 -0.03489050 -0.05047504 0.07798620 -0.02947809 0.00213445 -0.01096251 -0.03714164 -0.00569396 -0.04102036 0.03192911 0.02046691 -0.07438664 -0.02609361 -0.00289902 -0.06920306 0.01013556 0.12637410 -0.05872331 0.01561330 0.07496171 -0.04428905 -0.06646807 0.00481887 0.01742347 0.02491140 0.05315894 -0.07397995 -0.04036653 0.10583114 -0.05131767 -0.04157884 0.03559665 -0.03924840 -0.06306173 -0.04712628 -0.10290783 -0.07605042 0.00337109 -0.12849170 -0.04306676 0.03311435 0.08689851 0.13195492 0.12074549 0.04099466 0.09054092 -0.06204356 -0.08822466 0.07823524 0.06862269 0.06070367 0.03168724 -0.00985316 0.10383783 0.03608925 -0.02345766 0.10526674 0.02032903 0.02545083 0.02855593 0.12513062 0.02523305 0.01203670 0.06523055 0.02776596 0.12421909 -0.04410009
-0.02877354 0.02849199 0.01954146 -0.09427014 0.11474484 -0.03667928 0.08704321 -0.02595688 0.06906054 -0.03590555 -0.03214946 0.00573135 0.05979710 0.01066431 0.06099088 -0.04959351 0.01685019 0.01188825 -0.00542426 0.03267341 -0.01078642 -0.04268989 -0.02086104 0.07784987 0.13222277 0.13125493 0.09744853 -0.09499413 0.08284174 0.06720233 0.04145756 -0.04706406 -0.07939368 0.05013067 0.01100580 -0.05622295 -0.06172129 0.12139815 0.01925023 0.03623443 0.03658562 0.08870807 -0.04056660 -0.03046441 0.08162537 0.00434658 -0.07239394 -0.04647337 0.04884739 0.07886529 0.09887912 -0.06386400 -0.02555121 -0.07434037 0.00314621 -0.00258439 0.13285384 -0.02154507 -0.05049194 0.01882522 -0.05787736 0.01166780 0.13578959 0.09152670 -0.13068104 0.02358778 0.02511143 0.08490999 -0.07115161 0.09164986 -0.09820266 -0.08834691 -0.03089969 -0.07788918 0.01420366 0.06355526 -0.04811483 -0.06306565 0.01297702 -0.06859042
0.05238962 0.03476731 0.11279701 0.03544907 0.05354175 0.05653525 0.10929529 -0.05025005 -0.04440728 0.11163206 0.05592929 0.07975532 0.00812696 0.06039150 0.08729943 0.08477046 0.04324979 -0.06353117 0.05188688 -0.09813378 0.03102625 0.08597570 -0.02576392 0.11891530 0.12398985 0.06206670 -0.06234296 -0.02272369 0.06911427 0.04157444 0.11836595 0.02562559 -0.07098237 0.09433984 0.05756429 0.03789223 -0.04276444 -0.05962575 0.05742915 0.06031519 0.10702821 -0.06470870 -0.02536621 -0.02857790 -0.07598615 0.09133124 0.11138165 0.11702684 -0.00360519 -0.08159523 -0.01889687 0.00238523 -0.00347753 0.07172044 -0.01859292 0.11361342 0.12267140 0.13943253 0.05675337 -0.10124019 -0.04687174 -0.03782631 0.07379757 0.01173892 0.02559519 0.05004368 -0.01322485 -0.00809049 0.00896510 0.04162273 -0.06842531 0.02334927 0.11033466 0.08646596 -0.04925694 0.06749228 -0.06068819 0.12154338 -0.00095537 0.12993732
0.07398766 -0.03099873 0.05717491 0.11200863 -0.09085678 -0.00575624 0.05507147 -0.03710704 0.04325489 0.05744711 -0.11042022 0.08034220 -0.07936989 0.04485923 -0.08615486 -0.05358479 0.04581733 -0.12230007 -0.02844808 -0.01358827 0.01125947 -0.03020143 -0.08391359 -0.05393381 -0.01053233 0.02916015 -0.08560394 -0.04031304 0.07371131 -0.09298418 -0.06911740 -0.13950820 -0.00059985 -0.11316014 -0.00821484 0.11786634 0.02766846 -0.11051949 0.08319761 -0.12586008 -0.07156700 0.03121904 0.02400024 0.08708589 -0.00324403 -0.12386114 -0.13595082 -0.01879340 -0.08163898 -0.09645376 0.04676414 0.01021243 0.01469694 -0.10593673 0.00730925 0.07460742 -0.00884729 -0.01173440 -0.09103949 -0.05249138 0.08854021 -0.12651424 -0.03423975 -0.11794528 0.03061011 -0.12784131 0.01097780 0.02758374 -0.07145039 -0.06203677 -0.02539605 -0.07626989 -0.05539216 -0.01053762 -0.08752823 0.05580691 -0.06875894 0.07907756 -0.09303935 0.01955113
-0.05331167 -0.09460439 -0.02964214 -0.05210761 -0.04627529 -0.06730574 -0.04101270 -0.10562276 0.08536208 0.03788878 -0.05483666 0.10360267 -0.03229651 -0.11084370 0.01778053 -0.05012522 0.10044627 -0.05393559 -0.11020141 0.11561584 -0.00182749 0.00928071 0.00042832 -0.11047262 0.01183341 -0.02926611 -0.09222145 0.08854620 -0.08723759 -0.09054898 -0.04674855 -0.12177262 -0.08031800 -0.05465539 -0.04126327 0.10556135 0.02702489 0.07899356 0.02567537 -0.00591213 -0.04648865 -0.07531016 -0.12594374 -0.07731324 0.06507060 -0.09191269 -0.06814253 0.03268744 -0.04988909 0.02170732 -0.02701171 0.04631400 -0.06235895 0.05782421 -0.07525809 -0.12525351 0.06169269 -0.10382526 0.08785097 0.07497022 0.06066903 -0.03532973 -0.00215780 0.00765240 -0.03376959 0.06490579 0.04799327 0.02985173 0.00461626 -0.03562116 -0.01876969 -0.10711013 -0.06790160 -0.13536632 -0.05503501 0.08405123 0.12600419 -0.12356241 -0.11446822 0.07066762
-0.05502896 0.01827963 0.08307522 0.08771461 0.05659861 0.04839421 0.01405771 0.02161241 0.06860716 -0.08030550 -0.09365094 0.05297078 -0.12660657 0.07795609 0.09867415 0.08560072 0.01701807 0.03612256 0.07053275 0.04546047 0.02444544 -0.05592121 0.05235678 0.03377901 0.09132458 -0.04551004 -0.00991192 -0.09653170 -0.01069891 0.11593290 0.04174195 0.11156791 0.06234348 -0.05600758 0.12721071 -0.01714467 0.09339666 0.04660447 -0.01762119 0.11552238 -0.05796606 0.03044175 0.00995853 -0.01962510 -0.04922399 0.10966892 0.01622668 0.06530748 0.02928874 0.12133078 0.06073374 -0.13448492 -0.06586525 -0.08206712 -0.09197503 -0.07241004 0.02373834 0.13391559 -0.05303636 0.02185828 -0.06818142 0.10784704 0.09568074 0.07255092 0.07979253 -0.06702731 -0.07449695 -0.08019253 0.03852510 0.12075587 0.05208839 0.05561278 0.00502342 -0.03535799 0.13089430 -0.12329397 -0.09430093 0.08679641 0.10853157 0.05062750
-0.00453175 -0.00941154 0.01730520 -0.05898709 0.09596514 0.10640387 -0.02734430 0.07476280 -0.03241584 -0.08113029 0.02786347 -0.01334596 0.09793261 0.00315850 -0.03176807 -0.09635350 0.06590640 0.08146659 0.00966116 -0.00594176 -0.01905718 0.02096609 0.08968680 -0.02364398 0.00436859 -0.10165649 0.02791813 -0.04172202 -0.02161784 -0.06443650 0.10100322 0.06952935 -0.04479307 -0.01632155 0.02662044 0.04887915 -0.03481222 0.04095260 0.00758976 0.05764732 -0.06573069 -0.06713653 0.04866128 0.00181804 -0.04381135 0.08254389 -0.01781361 -0.08062527 -0.01418280 -0.04019288 -0.04590789 -0.08515224 0.07539080 0.09198525 -0.07707347 0.06341660 0.02774634 -0.04113974 -0.02897824 0.02457445 0.02865831 0.09034252 0.10042117 0.00085606 0.10368753 -0.05483780 -0.00654858 -0.08522531 0.04343083 0.01439453 -0.05240837 -0.09154519 -0.02611327 -0.03952479 -0.04481353 -0.09216351 -0.06627271 0.08837232 -0.06006170 0.03986618
-0.01416881 0.00761867 0.05610241 0.06153620 0.04272507 0.03080758 0.08793779 0.02170672 0.04042754 0.12561990 -0.05106036 0.06068307 -0.06457754 0.00849023 -0.04993459 0.07746352 -0.10255681 -0.02751827 0.03389059 -0.06121825 0.02280580 0.11753554 -0.08165876 -0.05723610 -0.07111353 0.12711416 0.05009415 -0.09621434 -0.10804215 0.09872044 0.12204401 -0.05710280 0.00648541 -0.00641302 0.07872411 -0.07731146 0.06607349 0.12665504 0.05102073 -0.00428411 0.03071810 0.06798213 -0.04712669 -0.06752077 -0.12024862 0.09490716 -0.03600293 0.10814709 -0.04063120 -0.02114058 0.07016292 -0.02577369 -0.05332876 0.02753093 -0.03648274 -0.06598754 -0.05413707 0.05851089 0.03507357 -0.06128899 0.02900986 -0.01863725 -0.07131943 0.05177408 -0.05672707 -0.01438137 0.09336816 0.06874997 -0.08736494 0.10841206 0.08092508 -0.06570909 -0.09349706 -0.06753514 -0.00612309 -0.02103978 0.01991318 0.04269621 0.03815262 -0.07365713
0.11992012 0.07746581 0.04112503 0.03657972 -0.07463739 -0.01659015 -0.08653110 0.08385960 -0.12323395 0.06967045 0.08966334 -0.03123065 -0.08250406 0.01999939 -0.10421699 -0.11500570 -0.04923787 0.05487025 -0.08960300 -0.02311928 -0.05664327 0.05456313 0.03080727 0.04242470 -0.04536440 -0.09596807 0.02173332 0.07031213 0.10972951 -0.12598696 -0.10294664 0.05588356 0.04847211 0.05293213 -0.04879017 0.13541782 0.01891821 -0.06864612 -0.03723529 0.00835308 -0.02807376 -0.08253741 -0.08609664 0.06286360 0.07242589 0.08526177 -0.06984140 -0.08602138 -0.05078802 -0.09560072 0.08923157 -0.03104392 -0.06246542 0.05809334 0.07171023 -0.12337016 -0.03827608 0.00505687 -0.00270731 -0.03786789 -0.07283538 -0.10223868 0.01364912 -0.07353435 -0.08220845 0.09243360 0.03013374 -0.00967072 -0.00867695 -0.06200026 -0.05242141 -0.12436712 0.04731276 -0.13188075 -0.10457111 0.11922831 -0.05314026 -0.05883676 -0.02138158 -0.13246094
-0.11139300 -0.06993122 -0.00207367 -0.05541027 0.09154129 0.08998352 0.11293531 -0.07703708 -0.02748034 0.10316471 0.05704000 -0.09726451 0.06572477 -0.03623607 0.12701854 -0.07591242 0.03743081 0.01890047 -0.07521489 0.03422840 -0.01524731 0.02857559 -0.02210577 -0.00173313 -0.00219094 0.08118257 0.01172670 0.04924090 0.02714819 0.02219499 0.06758895 -0.01771273 -0.10693422 -0.05163204 -0.05411262 -0.11621962 0.02854081 0.01705042 -0.08369857 0.08086550 0.09663131 0.12439866 0.03265852 -0.03537246 0.04768799 -0.07405711 0.03159709 0.09532363 0.05508718 0.03390447 0.01403439 0.01420049 0.03649542 0.02181469 0.07182422 0.11838146 -0.03545587 0.13037287 -0.00748435 -0.00365535 0.08147599 -0.02956073 0.07785059 0.00839005 -0.08403791 0.01220638 0.11872218 0.03654406 -0.03212953 0.12511560 0.00253159 0.11829600 0.13370119 -0.00252945 0.11161245 -0.04445142 -0.00046379 0.02654642 0.02551767 0.01542448
-0.10932042 0.03050701 0.11767736 0.02146780 -0.07855786 0.04086838 0.00153089 0.05304381 -0.07699320 0.04590713 -0.06082443 -0.00879062 0.04881945 0.09925324 0.00284942 0.11347442 -0.02573507 -0.03901915 0.07422054 -0.01863412 -0.06399861 0.09477209 0.08987506 0.08447289 0.00855291 -0.06300517 0.11620511 -0.08647736 -0.00155564 -0.07841311 0.09158606 0.04398836 0.08081626 0.07647172 -0.08381795 0.06235202 -0.06796471 -0.02695936 0.04115110 -0.03790272 0.05662926 0.04089816 0.03577294 -0.08771073 0.05980066 0.03887904 0.06626604 0.03638029 -0.07627098 -0.02108472 0.09818082 -0.12349621 -0.01338535 -0.07717977 -0.05036505 0.03809439 0.00252455 0.06691696 0.10643204 -0.00397929 0.08771138 0.02287880 0.13363127 0.04260353 -0.02404274 0.05035619 -0.06456672 0.06525405 0.09872718 -0.07476386 -0.05741702 0.11132310 0.05556218 -0.01056822 -0.03360012 -0.05327592 -0.03952597 0.12596814 -0.04391859 0.04054250
0.00778344 -0.03361810 0.01498125 -0.04087890 0.08914091 0.09584030 0.01179395 -0.03864943 -0.04299717 -0.02336531 0.12200044 0.06619553 0.00571712 -0.08581400 0.05502121 -0.00976530 0.03731963 0.08283743 0.11502393 -0.01590835 0.02363599 0.02252897 0.06019903 0.10417198 0.07427450 0.00439247 -0.00739706 0.08010439 -0.07431946 0.03854547 0.05962767 0.07756156 -0.08637586 0.00194406 0.01576660 -0.03107280 -0.07441402 0.06738383 -0.06893031 -0.00898167 0.05653357 0.11345570 0.00350182 -0.08348238 -0.06636658 0.01834399 -0.03887249 0.04858881 0.02502583 0.12664513 0.11360589 -0.04366987 0.05095700 0.03466234 0.03793833 -0.03143366 0.12777407 0.02656733 0.09765031 0.06014166 -0.04020066 0.10548031 -0.00794301 0.07719714 -0.04116352 -0.07128640 -0.00915504 0.02166657 0.08483820 -0.06727894 -0.05406190 0.07763954 -0.03206385 0.03135342 -0.05127064 -0.01546303 -0.07061598 0.04457331 0.06694929 0.04282356
-0.06401403 0.06318673 0.07779543 -0.08545501 0.06670445 -0.11266974 0.03148830 -0.02924469 -0.03466032 -0.08297011 0.07004967 0.04151092 0.01267828 -0.02634127 0.06010094 0.09668723 -0.04008875 -0.12499478 -0.09743650 -0.03731311 -0.08972890 -0.06335694 -0.02786131 -0.02479295 0.00566094 0.04005175 -0.09429922 -0.05360336 -0.02827604 -0.10595209 -0.01674589 -0.10629760 0.01702031 -0.03871810 -0.10965835 -0.02474006 0.02607282 -0.05769515 -0.08086339 0.06765301 -0.06189761 -0.01737855 0.06188526 0.08215450 -0.06992164 0.07518304 -0.05571680 0.00471042 0.07019498 0.01722208 0.05267025 -0.02488719 0.05859376 0.04578900 -0.08099841 -0.06510124 0.06902444 -0.11390595 -0.12275885 0.09613639 0.05985554 -0.01176347 0.06351655 -0.01943695 0.12875378 -0.09287050 -0.11963614 0.00124969 0.08470186 -0.11906919 0.04173753 0.00517267 -0.07401314 -0.12240420 0.02461577 0.06919847 0.01754152 0.02036116 0.03732355 -0.10387797
-0.09785214 0.00404030 0.00100354 -0.06100476 0.04122464 -0.05883573 0.10867254 -0.00096004 -0.03569251 0.01095207 -0.06646630 -0.11650755 0.01240758 -0.00827043 -0.03644585 0.06907249 0.06078359 0.03892894 -0.03161521 0.03621418 -0.01461759 -0.02511679 -0.01184644 -0.00280346 0.13549790 0.01147541 -0.07867568 -0.06353300 0.02112454 0.07218491 -0.05136635 -0.05243694 -0.05296067 0.03070983 -0.06681850 0.02393218 0.00028517 0.08430575 0.01883978 0.00647732 0.01853791 0.06464987 -0.02906018 -0.05713762 0.03124195 -0.07583933 0.00411661 0.05009462 -0.07805794 0.07516094 0.08141210 -0.04366273 -0.01182100 0.07933060 0.00246986 -0.06191743 0.09378270 0.14060797 0.11782233 -0.09032959 0.08384883 -0.02225825 -0.05724596 0.10757913 -0.09899127 0.12309971 0.13538061 -0.10273442 0.07131866 0.00305115 -0.02711718 0.04129233 0.07082479 -0.04530564 0.13270453 0.04959965 -0.08454781 0.07677191 0.04552852 0.08883158
0.01799384 0.01592641 0.01198031 0.12660967 -0.00761824 0.06431723 -0.00096943 0.02378330 -0.02632718 -0.02829697 -0.11225902 0.12046415 -0.04991993 0.04497947 0.01283530 0.07053068 -0.08173762 -0.03133202 -0.12012537 -0.07160396 0.01637857 -0.04108844 0.05830821 0.06931021 -0.01352823 -0.05265814 0.05694042 0.11990501 0.02404319 -0.10789046 0.02929260 -0.02798375 -0.05955777 0.00313561 -0.00839729 0.01447336 0.09030363 0.03793048 0.05456501 -0.01231852 -0.03613612 0.02275724 -0.09923135 0.11895548 0.02448219 -0.11855275 -0.07869073 0.04280673 0.04268282 0.03533063 -0.12195551 0.01239161 0.04353369 0.04727695 0.00069866 -0.12386541 0.08339218 0.02398960 0.01993867 0.08121314 0.07665423 -0.02774631 0.06088033 0.06369293 0.04506510 -0.10467169 0.06666946 -0.04198431 0.07270603 -0.08104367 0.00707274 -0.05667230 -0.07618792 -0.05519491 0.05091479 0.05081667 0.00027077 -0.10471762 -0.07658618 0.05106111
-0.02839255 -0.10622158 -0.07692028 -0.02335000 -0.06060568 0.03347743 -0.01595335 0.08378479 -0.12802212 -0.08395044 0.01978769 0.08818915 -0.02623332 0.02315808 -0.08181293 -0.08115479 0.07862498 -0.03221246 -0.10299598 0.01840978 0.07442765 0.00009148 -0.00954419 -0.04353668 -0.09224458 0.03239520 -0.01806051 -0.03178979 0.02611963 0.01173834 -0.01736690 -0.02977991 -0.08013864 -0.02631806 -0.05820001 0.02372104 -0.06453776 0.01628046 -0.05217888 -0.05874053 -0.07783733 -0.08649176 -0.02579282 -0.02376570 -0.02872668 -0.01104521 0.02302712 -0.07620504 0.07930908 0.01184371 0.06322911 0.03576769 0.06741217 -0.12552629 0.01923241 -0.11878148 0.02027439 -0.07314415 -0.04394902 0.12121884 0.12435063 -0.05128310 -0.08937695 0.03692913 -0.02825211 -0.07097977 -0.10698663 0.13606131 -0.01635962 -0.00128839 -0.04497964 0.02937740 -0.13183455 -0.06252965 -0.03857233 0.09251996 0.00927320 -0.00698289 0.06229525 0.01495501
0.07489333 -0.03273325 0.07104027 -0.01891763 -0.00374426 0.03094687 0.09230886 0.00751199 0.00146700 -0.03513255 -0.07224395 0.04990289 -0.03134458 -0.02849230 0.03454837 0.02743867 -0.02220900 0.09953831 0.07854006 0.01601360 -0.03898933 -0.03178519 0.07987153 0.03426946 -0.08796727 -0.00588450 0.03313331 0.01517246 0.08680803 0.01475600 -0.00324230 0.08770534 -0.02404786 0.03817144 -0.07264990 -0.05297693 -0.06797501 0.02513499 -0.07054836 0.09662770 -0.03601181 -0.06897867 0.02015468 -0.06756616 -0.07502172 0.09298424 0.04790493 0.02731034 0.04591196 -0.03618542 0.02295156 0.09475970 -0.03513197 0.05911095 0.07683358 -0.00431770 0.10572483 -0.02070283 -0.01524913 0.01372174 -0.02541662 -0.01851798 -0.00910411 0.03230333 -0.06858718 -0.08480281 -0.07613525 0.09666001 -0.00379943 0.06364031 -0.08938326 -0.00515888 -0.07426146 0.00079462 0.10795196 0.06623419 -0.04851458 -0.05016200 -0.08012030 -0.04515148
0.05398404 -0.08627781 0.04540642 -0.02597320 0.07862487 -0.04617534 -0.03015080 0.04296669 0.05272825 0.05259081 0.06318004 -0.08163591 0.08241902 -0.08106110 0.05852567 0.07296990 0.01047525 0.01301403 0.00197274 0.07243480 0.05020246 0.00660037 -0.02248609 -0.01968791 -0.01318689 -0.12389480 0.01637768 -0.04657255 0.09164994 0.07651735 -0.00751530 0.07225835 0.02409023 0.04723505 0.03286476 -0.06767572 -0.08333333 -0.05247492 0.03121705 -0.04417636 -0.04952626 0.03703475 0.07247125 0.07357625 0.05390718 0.03313912 -0.00914788 -0.12429678 -0.08581145 -0.12559628 -0.12184629 0.11002738 -0.02521864 -0.10254245 0.01272351 -0.02288269 -0.09446398 -0.13761075 0.00449905 0.02856800 -0.01889899 -0.08646484 -0.05495645 0.07248390 -0.06558564 -0.06245748 -0.05890919 0.12780459 -0.01663479 0.05273060 0.00776536 -0.04101294 0.03641856 -0.07336691 0.04459314 0.12483278 0.06630091 0.04506119 -0.11030953 0.07826585
-0.08084460 0.08180170 0.04747786 -0.00406800 0.04322404 -0.08379902 0.11122855 0.01042615 0.12410050 0.02750745 -0.02990996 0.04643558 -0.01833168 -0.05207816 0.03231425 -0.09984733 -0.08568115 -0.06690358 0.02502222 -0.08359655 0.01982510 -0.05965287 -0.07949370 0.00864508 0.03798521 0.11020410 -0.01918013 0.08057974 -0.09605546 0.05992332 -0.07933314 0.11728019 -0.06184314 0.08276065 0.02541417 -0.06913727 -0.00303194 -0.01603061 0.05125710 0.10263023 0.13209818 0.00134838 -0.00721504 -0.08188681 -0.02382143 0.04825928 0.01361439 -0.05344486 -0.01125730 0.01612344 -0.06858114 -0.05424903 0.01878551 -0.08435949 0.00761119 0.05167506 0.01594017 0.01282546 0.02295297 0.00221428 -0.06977010 0.01113511 0.08788315 -0.01229598 -0.01935462 -0.08562363 -0.06434321 -0.03470099 -0.01267567 0.13121006 -0.03122311 -0.07233543 0.12117683 -0.04368204 0.11330707 -0.03786533 0.00573692 -0.08844231 0.12353411 0.02000340
-0.03245912 -0.09894089 0.00595975 -0.09273935 0.05767534 0.03581204 0.07561368 0.07902595 -0.09043156 -0.05666608 0.05222143 0.09361414 0.12810840 -0.06688237 -0.00308638 -0.01625698 0.08141612 -0.07937302 0.08099917 -0.01085838 0.03023713 0.05920452 -0.09369744 -0.00176219 -0.10171036 0.02345429 0.07653150 -0.00997543 -0.05713304 -0.07899603 0.06549183 -0.03668491 -0.06067375 0.06965342 0.05200803 0.01233859 -0.00973854 -0.01189004 0.09101450 0.04294774 -0.00569324 -0.02662383 0.00932687 -0.05704399 0.07928029 0.02480355 -0.01027165 0.04378334 -0.00144732 -0.12254152 -0.11499757 0.12960511 -0.04687828 -0.10608964 0.09158773 -0.10097969 0.06443027 0.07036173 -0.03450935 0.09118962 0.10425165 -0.12774806 -0.08400644 -0.00794567 0.05443301 -0.09424768 -0.11387056 0.13136528 -0.05837688 -0.13182893 0.04640042 -0.07948028 -0.06477379 -0.06840008 0.08236891 0.06885242 0.12824026 -0.06183941 0.05855053 -0.11366426
0.07777688 -0.01576230 -0.01236053 0.10962301 -0.01450247 -0.06507915 -0.06695808 -0.00586957 -0.06358612 0.02793578 -0.11158720 -0.05070169 0.11924548 -0.06683172 -0.13153903 0.06549124 -0.00771186 -0.02503714 0.04707723 0.06121839 -0.10141204 -0.00579932 0.09098208 -0.03129067 0.05472125 0.06616260 0.02023067 -0.07670846 0.11763887 0.06380706 0.01015751 -0.03114861 -0.05150180 0.00142811 -0.06222767 0.12607831 -0.10035197 -0.00227292 0.00353871 -0.02377828 -0.04118455 0.01627771 -0.12415002 0.05056434 -0.05270147 0.01105867 -0.03431702 -0.00995245 0.08316778 -0.06605105 -0.11397571 -0.02637238 0.06748390 -0.11347198 0.05422155 -0.06365155 -0.02191391 0.01477682 -0.06122656 -0.04977802 0.05958678 0.04253787 0.01586461 -0.02911718 0.03316884 0.02900795 0.01184047 -0.02967084 0.05685488 -0.03865676 -0.02482808 -0.05797306 -0.01246091 -0.08855959 -0.10385881 0.08967455 0.11298856 -0.13593556 0.06477483 -0.09105922
0.04223764 0.08199663 -0.08608293 -0.02851400 0.00720051 -0.08688472 -0.05034049 -0.11506011 -0.01430138 0.04224655 0.00937998 0.00695752 0.12591541 0.06442311 -0.08447298 0.04886503 -0.00399618 0.01047666 -0.01110804 0.07431529 -0.05880408 -0.07821959 -0.04722146 -0.09738573 -0.07617519 -0.00426507 0.00913434 0.04974184 0.10305387 0.06032994 0.06578588 0.04748407 0.02253759 0.00649946 -0.08038672 0.02926207 -0.01164540 -0.11412058 0.07474923 -0.04967802 0.05673019 0.02336797 -0.08979344 0.06137216 -0.02935354 -0.07983156 0.00940800 0.03088917 -0.03925443 -0.07747835 0.05945363 -0.01376674 -0.07372500 -0.12139054 0.04825735 0.05550532 0.08125934 -0.11399718 -0.00950231 0.05089808 0.03099593 -0.00257256 -0.13033670 -0.13258451 -0.02298014 -0.00931168 -0.01633373 0.01149850 -0.10530050 0.04495090 -0.05521645 0.00167700 -0.11027971 0.05026544 0.06594456 -0.02919870 0.11587194 -0.05840955 -0.13418348 -0.04349144
-0.09559165 0.04291764 0.03711698 -0.06272020 -0.00696104 0.05146356 -0.04023022 0.06837969 -0.05768156 0.09300710 -0.03624099 -0.11229120 0.00121803 0.03377401 -0.06255391 0.11159555 -0.05827392 0.09882461 -0.00785576 0.05199809 -0.02880527 -0.05233202 -0.07451826 -0.03355843 -0.03544090 0.08216434 -0.05396835 -0.04474005 -0.06082895 -0.01909909 0.00848925 0.08192260 -0.06607156 -0.07090196 0.09835116 -0.08990481 0.07250548 0.01442973 -0.00965823 0.12761089 0.04642539 -0.07096061 -0.07995584 -0.13031150 -0.10273746 0.06352349 0.07022068 0.08062518 -0.12195257 0.08834071 0.12195040 0.01913284 -0.01857603 -0.07225119 0.09325468 0.03379162 0.05093426 0.03442965 0.09590998 -0.13624701 0.03628028 -0.05244422 0.12848082 -0.06338346 -0.04467430 0.05480795 0.05983674 0.01266709 0.02276092 0.05381204 -0.06558010 0.01629025 0.05716915 0.11963116 -0.06964687 -0.07069759 -0.09519081 -0.03440743 -0.04226417 0.00707015
0.01672143 -0.00147715 0.03612179 -0.03997566 -0.08317621 0.03648659 0.01863737 -0.05729489 -0.08235576 0.05391470 -0.01396059 -0.00210059 -0.04133853 -0.00765819 -0.02557892 0.11978165 -0.11641378 -0.00267944 -0.01014215 -0.06243329 0.05939471 0.12383176 0.07470907 -0.03188591 -0.02288917 0.07543868 0.08021763 -0.12061633 -0.06749509 -0.03052204 0.01140772 -0.02155701 -0.10654974 0.00309656 -0.00474445 -0.01671717 -0.02017481 -0.02535673 0.08204564 -0.01033926 0.09341848 -0.04385972 -0.02060356 0.01861455 0.00520266 -0.06212502 0.11040287 -0.01018785 -0.02082347 0.00535826 0.10739191 0.00209155 0.05547025 0.00100883 0.09402827 0.06542683 0.08277110 0.00795812 -0.07090982 0.05335099 -0.11646584 -0.08795256 0.03549924 0.00035497 -0.10055360 0.10490071 0.03314705 -0.07688192 0.07101160 0.06293876 -0.07470490 0.00342369 -0.06895790 -0.03230210 0.04220591 0.00331024 -0.06015814 -0.01715101 -0.07225662 -0.04644717
0.01090490 -0.01460550 0.04960367 0.08615266 0.07119662 -0.00343177 -0.09004352 -0.05063033 -0.12221711 -0.03400847 0.04335118 0.03552775 0.06838593 0.07493661 0.04000344 -0.03496672 0.11841398 0.03788868 -0.10226861 0.03756893 0.02655425 0.01094468 0.09085429 -0.09498236 -0.00859581 0.07855903 -0.08854920 -0.03514543 0.09302334 0.03512696 0.06716430 -0.03650595 0.08548253 -0.11734756 -0.08475738 0.04167950 -0.08140047 -0.02723854 -0.02533341 0.08960988 -0.05856215 0.01054334 -0.00459179 0.13277426 0.01847822 0.04233447 -0.09834580 -0.10033423 0.07672758 0.04963382 -0.07759195 0.11300844 0.00898703 -0.08730622 0.03948306 0.09023573 -0.05444218 0.05830622 -0.05424375 -0.07937861 -0.07100704 -0.05912818 0.08234774 0.02581086 0.11495668 0.03899110 -0.02245483 -0.05038892 -0.10602951 -0.05963135 -0.02734111 0.07964922 -0.05225817 -0.04209865 0.00012421 0.11758643 0.00584047 0.03734550 -0.09884197 -0.12829469
-0.03335951 0.07391226 0.08608482 0.02383608 0.08412147 -0.03655202 0.03397979 0.11340527 -0.04110627 0.10562544 -0.07197516 0.04440546 0.03963840 0.12010767 0.01010663 0.00806476 -0.08603572 0.12881331 0.01895694 -0.05511265 0.02081786 0.08367154 -0.04132719 -0.06395731 0.00140426 0.06650598 0.03505496 -0.05964569 -0.00399421 0.01596719 0.11175633 -0.04579785 0.08035997 0.02391992 0.10199793 0.01691370 -0.06289060 0.10545429 -0.02569694 -0.05066020 0.07838320 0.05195723 -0.02534624 -0.08244333 0.07913061 -0.08671053 0.04270753 0.02457883 -0.11165525 0.07024258 -0.07584158 -0.03114049 -0.00051802 0.09129060 -0.01223258 -0.07883135 0.02174523 0.11945622 -0.03948942 0.06374153 0.04358098 0.01271559 0.02419295 0.11671017 -0.02187193 0.03534051 0.03359520 -0.01952573 -0.07422049 -0.03863545 0.08381997 0.09116909 0.03565440 0.13782880 -0.01822269 0.01722099 -0.07718939 0.11144771 0.08765372 0.06337725
0.01595040 0.05544545 0.04379185 0.07269233 -0.05346810 -0.02109904 -0.03591159 -0.08987941 0.00078774 0.06694792 0.04710996 -0.00689453 0.08608834 -0.03219133 0.08394129 -0.12577917 0.04929823 -0.12471915 0.03067349 0.10432310 0.06145434 -0.05829306 0.00644626 0.00418881 -0.06508572 0.07257667 0.05530744 0.08173867 -0.02336596 0.05346080 -0.08043179 -0.11419111 -0.00948269 -0.03408593 0.04663133 0.07224008 0.01740165 -0.05700543 0.07032160 0.08238658 -0.12379546 0.06903405 -0.00646542 0.06544556 0.06587730 0.04041379 -0.02336975 -0.05391290 -0.01337217 -0.09395489 -0.02879221 -0.03671781 0.04187391 -0.10227505 0.07964667 -0.12318707 0.06515982 -0.01884306 -0.12732068 0.06079714 -0.04979350 -0.11378582 -0.02022051 -0.05785302 0.04875273 0.07054023 -0.12679896 0.13719194 -0.06414923 -0.04580714 0.06237900 -0.07122100 -0.08261824 -0.05725365 0.02110125 0.02260278 0.12404183 0.02320472 -0.12642834 -0.10653529
0.00111640 0.00409595 -0.03196177 0.03412093 0.03338641 -0.04533197 -0.00851515 0.04736599 0.05622584 0.00103738 0.05874923 0.02315564 -0.11258990 -0.09745693 0.01386914 0.04680815 -0.07568532 -0.04324980 -0.09688769 0.00731173 0.06467381 0.11178126 -0.07387224 0.09846759 -0.02877492 -0.07747637 0.08263949 0.07482630 -0.01331227 -0.01980254 0.02684496 0.06128942 0.03927026 -0.04577603 0.01444168 0.01579929 0.00789339 0.04151881 0.01328211 0.04160734 0.07704850 -0.04075395 0.11043579 -0.04750301 -0.09872648 0.08644353 -0.05791612 -0.10137828 -0.01821385 0.11706176 -0.07354400 0.00988025 -0.06925816 0.06236812 0.05909328 -0.00639892 -0.08206466 -0.06650964 -0.05492255 -0.06102671 -0.06114697 0.06135250 0.03893421 -0.07977316 0.00480398 -0.09564502 0.09132189 -0.02235976 0.08745549 0.10083397 -0.04820851 0.09824224 -0.07817047 -0.08464155 0.08773280 -0.07714579 -0.08955970 -0.06095145 -0.05188811 -0.08857516
-0.00612993 -0.07651467 -0.01662356 0.05743715 -0.06003576 0.09354702 0.11638495 0.00374396 0.01113469 -0.07964499 0.12015333 0.06623378 -0.03084974 0.08739059 -0.07914147 -0.06305613 0.08535511 -0.08624529 0.00858401 -0.08188806 -0.07976324 0.04370710 -0.03539123 0.04470945 -0.01665428 0.06768399 0.03401135 -0.13665061 0.05244456 0.09136564 -0.06397580 0.05229423 -0.07288307 0.09888060 -0.03226871 0.04560513 -0.04636057 -0.03448560 0.02909445 0.05244577 -0.02519470 0.11154655 0.04802272 0.02785879 -0.08514909 0.04929534 0.05033613 0.08656970 0.08219796 0.09144000 0.13203682 -0.07328213 -0.06578495 0.04431231 -0.00173980 0.00539724 -0.06354917 0.02553202 0.02368851 0.04241714 0.03477317 0.04153004 0.10294569 0.01083720 0.06964266 -0.08372050 0.01871447 -0.07437475 0.07790635 -0.00843379 -0.07131339 0.00323063 0.02599511 0.10459461 0.08244749 -0.12744541 -0.06612141 -0.03181165 0.01668366 0.07290526
0.00241682 0.08337229 -0.00082737 0.07349794 -0.04167392 0.03973246 0.02336128 -0.01484812 -0.02744472 0.02439230 0.00086225 -0.04788463 -0.01736682 -0.09274618 0.00871946 0.07227334 -0.04643088 0.01357225 -0.10543371 0.06744520 -0.10620447 -0.06863141 0.00506918 -0.04050108 0.03871270 -0.07424691 0.01876144 0.07403156 0.04781291 -0.12947711 -0.08271024 -0.04422873 0.01759467 0.02184826 0.05855356 0.04666260 -0.07487670 -0.13620940 0.08347985 -0.02043882 -0.12436583 -0.05892704 0.01699786 0.02138378 0.09098925 -0.04025776 -0.00826798 0.08539598 -0.07972182 -0.00854086 -0.11177634 -0.05206408 -0.10578053 0.03115243 -0.01236017 0.01976104 -0.01296655 0.00813037 -0.11346870 -0.01423735 -0.01329521 -0.10266408 0.02437398 0.04257131 -0.02160501 -0.09390462 -0.07886745 -0.08092026 -0.07712016 -0.05285111 0.02992014 -0.07454047 -0.11652652 0.02809897 0.06937152 0.03096008 0.00143182 -0.07067224 0.01490603 -0.01258844
-0.02886008 0.05824180 0.05254982 0.09428107 0.05083955 -0.08438605 0.08097102 -0.02145433 -0.12662187 0.04552948 -0.08691175 -0.02987534 0.03929935 0.05980588 -0.00015331 -0.10730264 -0.05828862 0.01744852 -0.04986592 0.05196535 0.07122397 -0.09768619 -0.07869264 -0.05913299 -0.03291532 -0.06741530 0.09075269 -0.04190248 0.08222695 0.02212222 0.08205730 -0.12463156 0.10059298 -0.05685838 -0.05962871 0.02736774 0.05098347 0.03220836 -0.04753100 0.00581181 -0.02961327 0.00845383 -0.02602274 -0.00281420 0.06923430 0.07422143 0.03715332 -0.05643008 0.02050807 0.00148211 -0.08587253 0.11815829 0.03171463 0.02462971 0.08599136 -0.03563588 0.05871470 -0.04160156 0.07047991 -0.04180713 -0.09181428 0.03615431 0.01521716 -0.12716372 0.06713178 -0.04144169 0.02472394 0.12489831 0.06356661 -0.01810414 0.05840410 -0.12461612 -0.01689147 0.00769895 0.03712428 0.06605463 0.09251045 -0.01352816 0.01478101 -0.13140644
-0.03045194 0.03238976 0.02490196 0.05976873 0.01939805 -0.11105046 0.01663419 -0.05330557 -0.04211373 -0.03455349 0.07891812 0.12216908 0.07351449 -0.06358688 0.01468977 0.02648779 0.10210615 -0.01536466 -0.12496556 0.06659043 -0.09275222 -0.01032541 0.05736921 0.02417228 0.08131947 0.07788347 -0.12080048 0.02783960 0.05027511 -0.04366805 -0.07868826 0.09003530 -0.04639251 -0.12484247 -0.12278971 -0.03699587 -0.01165650 0.05027654 0.00335933 -0.10907118 0.05766448 -0.03685482 -0.06648130 0.02176064 0.06669272 -0.03553019 0.02138419 0.02650526 -0.05384618 0.08056136 0.05280867 0.01828288 0.04599147 -0.05487791 -0.01386775 0.02541550 -0.10879503 -0.05577835 -0.09415516 0.01599433 -0.02610484 -0.05888988 -0.04800009 0.06440664 0.04636363 -0.12556997 -0.09857583 0.01492090 0.01039649 0.04729951 0.09171018 -0.09677748 0.08012572 0.04642942 -0.10917203 -0.06616095 -0.06921106 -0.01951966 -0.04613115 -0.13141650
-0.04813887 0.08943065 0.00637308 -0.10221656 -0.04763366 0.06031984 0.04399903 -0.02837327 -0.06708512 0.07405384 -0.04330700 -0.11942347 0.08420337 0.06532597 0.00023245 0.02891010 0.07122172 -0.07458939 -0.00197921 -0.06171653 -0.08360590 0.11855618 -0.08863596 -0.02260299 0.08175571 0.13170497 -0.01037128 0.06703681 -0.02054320 -0.08139852 -0.08276616 -0.03315056 -0.02113474 0.11271852 -0.02639402 -0.04181513 0.07449504 -0.00189969 0.03208111 0.01224129 -0.01773570 -0.04326018 0.13648145 -0.08562087 -0.00677998 0.06075319 0.04399350 0.01229620 -0.04133323 -0.02652078 0.06067681 -0.05683225 0.05209811 0.08201555 0.02658388 -0.03084174 -0.05043719 -0.00122200 0.05609560 -0.01404360 0.09097087 0.09783209 -0.02807118 0.10300299 -0.08301989 -0.01956644 0.10476654 -0.10644276 -0.00463268 -0.06922874 0.03092458 0.10192524 0.12397114 -0.00967810 -0.06183606 0.03268432 -0.09063130 -0.01519019 -0.06949609 0.11032622
0.00190969 0.00007091 -0.00034771 0.02300354 -0.04439375 0.08671570 -0.09034660 -0.02622911 -0.08551583 -0.09497305 0.05054430 0.10129943 0.06401699 0.01977543 0.06090367 0.05038317 -0.01898813 -0.06842151 0.01875712 0.08840103 0.05515439 -0.02188129 0.09417465 -0.09717748 0.02549127 0.06832663 -0.00823746 0.09028445 0.10923985 -0.10340373 0.05524382 0.04038466 0.07262421 0.03816811 0.05192905 0.05573192 0.04377585 -0.12369227 -0.09365890 0.04312044 0.08959433 -0.05779606 0.06284099 0.01046020 0.06715062 -0.02583808 0.03593680 -0.06138785 -0.07563109 0.04295637 -0.06260288 0.10281812 -0.00245651 -0.06666423 0.08996093 0.09064107 -0.08058148 0.02474708 0.01464771 -0.04547359 0.02530373 -0.11487642 -0.01054996 -0.11117946 0.10911129 0.04109363 0.07285260 0.04125034 -0.03918386 0.03819011 0.03589994 0.04518523 -0.03932696 0.08563033 -0.08858681 -0.07614204 0.04102476 0.08451522 -0.00040465 -0.04728813
-0.10433643 0.09496599 -0.09358574 -0.05990451 0.07169201 -0.03726700 -0.05191919 -0.03204529 0.07932530 -0.01903767 -0.00756683 -0.04785793 0.03873258 0.12182410 0.02806697 0.01483096 -0.03091692 0.07871816 0.10265405 0.00283827 0.07151213 -0.00942565 -0.00549621 -0.06836654 0.07491649 -0.02578758 0.00350620 -0.13411492 -0.01239659 0.05962980 0.09073743 -0.00273925 -0.01719530 0.12826245 0.02461875 0.05493005 0.10026164 0.11507164 0.03450472 0.09532459 0.12901856 0.02014369 0.11755671 -0.07187906 -0.05738928 0.07464495 -0.04280215 -0.01875795 -0.01588023 0.03078563 0.02942778 -0.04044484 0.04450130 0.12950045 -0.02329516 0.08551351 0.05481279 0.10176348 0.11274303 -0.03752175 -0.04520980 -0.01918414 -0.00547991 -0.02240171 -0.04832291 0.08253638 0.05712005 -0.07815400 0.06548154 0.03350125 -0.01277949 0.06726963 -0.03534636 0.01876009 0.10727233 0.04539720 0.04105209 0.00909010 0.03518460 0.09779460
0.00223247 0.07922256 0.06897257 0.03834632 0.06606860 -0.05015983 -0.07714917 -0.09265845 0.11067396 -0.03796507 -0.07407614 -0.00772438 -0.03812177 0.05412764 -0.01200415 0.09775546 -0.12160834 -0.08685462 0.11465233 -0.06923396 0.04285491 0.06500215 0.00457171 -0.04980119 0.03565267 -0.04417922 0.11186408 -0.00708241 0.06423387 0.09941401 0.06764007 0.05525781 0.04398726 -0.05077425 0.10367544 -0.04692864 0.08738974 0.01708698 0.03497629 0.10265456 0.04554769 0.00577471 0.07078212 -0.13571011 -0.02804369 -0.00235735 -0.06403480 0.01301431 0.00777238 -0.08956873 0.11152063 0.04077864 0.11510505 -0.02483656 -0.06307486 0.08832088 0.13000792 -0.03754415 -0.04668561 -0.03304151 0.07847348 0.00342890 -0.08462466 -0.02643084 -0.08170389 0.10129186 -0.06190242 0.06086921 0.05442860 0.01154086 -0.04028866 0.08189784 -0.03884520 -0.01550218 0.11791112 -0.06829114 -0.00525225 0.11128731 -0.06686146 0.03902173
-0.01539181 -0.03872912 0.10447582 0.06445730 0.01621522 0.01265913 0.07615706 -0.01665869 0.08761230 -0.04834739 -0.07591752 0.05160575 0.05779617 -0.06648241 -0.00584877 0.05977834 0.04093425 0.09110083 0.09832998 -0.07314128 0.03754064 0.11885882 -0.07510972 0.09486321 0.05308639 0.03517559 0.12965335 -0.07178051 -0.04920595 -0.06116832 0.11546244 -0.06343431 0.07747391 -0.06045953 0.08516111 -0.08004687 0.09236166 -0.04945103 -0.05688296 -0.01062999 -0.06429137 0.13530438 0.06781415 -0.08604945 -0.10298601 -0.01504580 0.03976972 -0.02947279 0.04465501 -0.03459079 0.05503179 0.05654091 -0.05378450 -0.06311220 -0.08916282 0.04270894 0.11395729 -0.04221338 0.00508659 0.04413306 0.06827521 0.08359605 0.05974640 0.04165092 -0.01124160 0.11542401 0.02557581 0.01947415 0.01617480 0.11113254 -0.09847785 -0.01383505 -0.08126229 0.05531274 -0.00499273 -0.11796959 -0.10411811 0.05395795 0.10617913 0.11795723
0.06509268 -0.10138978 0.08555472 0.11466607 -0.01066255 -0.11039824 -0.06827885 -0.10003503 0.01595997 0.08577573 0.05713716 -0.05345555 -0.05003530 0.02567514 -0.05704967 -0.00447927 0.03844940 -0.05361510 0.04098399 -0.01186277 0.08300493 -0.09516862 0.07715617 0.07374194 -0.10201529 0.01478687 -0.02209594 0.05447680 0.07945868 -0.06221144 -0.06902693 -0.07724384 0.08175999 -0.10926292 -0.06673299 0.10130600 0.03917670 0.07072710 0.07912285 -0.09716127 -0.03011525 -0.02056144 0.09834030 -0.02963830 -0.00880665 0.06141514 0.05637824 -0.07047476 -0.08675415 -0.05775887 0.03795750 0.10665603 0.03066781 0.06110413 0.02071203 -0.02799762 -0.02115192 0.08312666 0.01170874 0.02493354 0.06407350 0.07786275 0.03126002 -0.00994087 -0.04128848 -0.08276137 -0.05339305 0.09104636 0.06903268 -0.05833694 0.07794593 -0.02887023 -0.03181830 0.02557738 -0.09997656 -0.06333462 -0.01770893 -0.03780770 0.05436229 -0.02555712
-0.10505968 -0.07656983 0.12379670 0.03541360 -0.08641707 -0.06566035 -0.04929813 0.12270048 0.08622976 0.06452567 0.08176258 -0.00506398 0.06016628 -0.06846036 0.10889500 0.06537116 0.01648374 0.09713025 0.00003575 -0.07617461 -0.00502769 -0.05815523 -0.00404145 0.08091681 0.04680379 0.02736513 0.06240918 -0.12830980 -0.09300954 -0.07470892 0.13347664 -0.07946693 0.02926931 0.10345623 -0.00859341 -0.04327639 0.08529405 -0.06527805 -0.09435557 0.00652174 0.01256017 -0.01567771 0.03642392 0.03307676 0.04028454 0.05548778 0.10344836 -0.02802490 -0.01384932 0.05900421 0.05973854 -0.06559508 0.09058569 -0.06047621 -0.03736889 -0.08421089 0.04083942 -0.05666425 0.10064308 -0.10178987 0.00992584 0.12259877 0.12728219 0.06222167 0.01929275 0.03880104 0.08800747 -0.03328106 -0.05902012 0.12215731 -0.07336377 0.13174587 0.03310075 0.08147168 0.02482644 0.02049848 0.05662331 -0.08243487 0.08734436 -0.01257748
-0.07761527 -0.11256429 -0.00864771 0.10559210 -0.10286805 0.00503981 0.02413079 -0.12658505 -0.00271648 -0.08537377 -0.00249131 -0.01590052 0.11254057 -0.12674303 0.03458780 -0.05779228 0.05143619 -0.01615626 -0.12805837 -0.02790333 -0.01558279 -0.02355623 -0.04051014 0.03835589 -0.08160526 -0.09270228 0.02560909 0.01639939 0.05653312 0.04413432 -0.06844340 0.00794320 0.10897976 -0.00699137 0.07181483 0.07641466 0.06098445 0.05916468 0.05139005 0.00527222 0.02719348 0.03618122 -0.02263406 0.04746201 -0.02124249 -0.02912760 0.03060435 -0.03475120 -0.00980256 0.00468830 -0.02971809 0.03717309 -0.03136695 -0.02782614 -0.01500952 0.06877475 -0.10531062 -0.11778806 -0.04582426 0.03733831 0.09518015 0.00513583 -0.02971626 -0.13292162 -0.02641875 0.00880415 -0.06165776 -0.04069613 0.00507402 0.05467295 0.01751160 0.05850732 0.06680402 -0.02967243 0.08699229 0.06603695 0.05853968 0.01499154 -0.12934980 0.01826804
0.10685647 0.00198006 -0.00637130 -0.00673293 -0.09799182 -0.01121014 0.02417016 0.02413961 0.07724710 -0.09199287 0.08247726 -0.00162902 -0.01560588 -0.07601845 -0.09332988 0.01228683 -0.00602013 -0.00351553 -0.12839267 -0.01416586 0.03110345 -0.07973708 0.08639534 -0.09609460 -0.08922146 0.04462089 0.07728366 0.07514846 0.07637492 -0.10074337 -0.00019473 -0.02741700 -0.03203033 0.00289623 0.02493971 -0.05313493 -0.02789587 0.00362573 0.09136526 -0.11133649 0.07299129 -0.03893554 -0.00152639 -0.07082888 -0.08136564 -0.07873964 -0.03112382 0.00180963 0.11901683 -0.03808983 0.05589991 -0.06987218 0.03606886 -0.12095898 -0.08914244 0.04579201 -0.09936012 -0.09017782 -0.08612349 -0.00472071 0.07160141 0.03413790 -0.10793107 -0.01203794 -0.07282483 -0.11271849 -0.04962695 0.01439546 0.02916828 0.02603261 0.03637000 0.06399962 -0.03868783 -0.03849892 0.08735441 0.03402971 0.09314930 -0.07723126 0.04954837 0.04507937
0.06489923 -0.04779287 -0.09302717 0.00808261 0.01001705 0.12168665 -0.01721099 -0.02915621 0.04129281 -0.06366757 -0.07682319 0.04943390 0.00756356 0.04192411 0.00111279 0.07423246 -0.05884586 0.05808231 0.05662734 0.00693006 -0.05152725 -0.07894769 -0.03888801 -0.07360258 -0.07258683 -0.00863420 0.00657381 -0.00841437 -0.07562317 -0.05050053 -0.00868062 0.08250026 0.03804804 0.12558404 0.07201825 0.05639010 0.01952267 -0.04388240 0.01930506 0.11834938 -0.01410008 0.02516614 -0.07348429 0.06139622 -0.10877633 -0.02845981 0.02346298 -0.03344703 -0.01857997 -0.04083059 0.12937373 -0.08830890 0.03266346 -0.08308623 0.00770575 0.09527104 -0.04433752 0.00660182 0.01546663 -0.02948337 0.00370743 0.11204468 -0.00953937 0.05842911 -0.11012316 -0.04874856 -0.05967961 0.00241940 0.03276201 0.13142177 0.01930623 0.01093044 -0.01934607 0.03952891 -0.03223844 -0.00803240 -0.04320405 -0.05058559 0.02792502 0.06507255
-0.03640113 0.01985335 -0.09847876 -0.04900540 -0.08530162 0.12794702 0.10211685 -0.07877783 -0.06281049 -0.07049350 0.07840487 0.00123770 -0.11988485 -0.01594211 0.10127239 0.01005760 -0.11678761 0.06220753 0.12960131 0.08109276 0.02871038 -0.00637090 0.00006933 0.10339510 0.07193213 -0.06360074 0.07661158 0.04829619 -0.11151561 -0.05811844 0.09663130 0.07508805 -0.11596317 0.05138240 0.08690565 -0.00038142 0.06515708 0.06085186 0.01651640 0.08536218 -0.01363785 0.02816522 -0.00174129 -0.04472383 0.02653866 -0.02280501 0.01582869 0.11362489 0.01831339 0.12874056 0.01486283 -0.06313310 0.10440044 -0.04693551 0.03863996 0.11471957 -0.03813220 0.00520955 0.11997403 -0.03397901 -0.11467275 -0.04118056 -0.08267980 -0.00184297 0.04365062 0.00217666 -0.00090168 -0.01358863 0.01672276 0.00176103 -0.04578259 0.03403032 0.01777884 0.01179178 -0.00886196 0.00391426 -0.05923558 0.01413458 0.00383888 0.09938324
0.03148509 0.05929071 0.00553618 -0.07631429 0.01842597 -0.06722204 0.01302798 0.12094429 0.00260009 0.12334675 -0.06344128 0.06936402 0.03082982 -0.03560657 -0.09736721 -0.04110689 0.04096220 0.12615508 -0.07630125 -0.06667730 0.03473100 -0.00753331 -0.07817664 -0.02180316 0.05465208 -0.08511212 -0.02838227 0.04506657 0.04223590 -0.03213637 0.11964640 0.02883355 0.03929932 0.00556917 -0.02810682 0.07847232 -0.08565215 0.05964230 -0.03438412 -0.01999456 0.10496611 -0.08097767 0.00542323 -0.05843766 0.07085118 -0.06912356 -0.00503277 -0.03245044 0.06939386 0.10181333 0.01720492 0.02700800 0.09703901 -0.07661920 -0.00040962 0.11721566 -0.00900489 -0.06136236 0.11342035 0.08509633 0.05480475 0.09966136 0.00798708 -0.06430189 -0.11118088 0.05880336 -0.01634375 0.09128994 0.01831783 0.09028915 -0.00243251 -0.01046625 -0.02322485 -0.07334276 -0.09396492 -0.04405283 -0.10826048 -0.09640799 0.07186733 -0.03496623
0.01802666 -0.04755836 -0.09781756 -0.02187320 -0.08304609 -0.00486568 0.08362651 -0.04590938 -0.00811025 0.03806793 0.03318360 0.03242723 -0.02071605 -0.04162699 -0.03393219 0.09964928 0.03319163 0.04889926 0.04409477 0.11383014 -0.00684016 -0.02305776 -0.01756188 0.04959254 0.05873351 0.05690211 -0.11791639 0.03318085 -0.05071184 -0.09509183 -0.11860505 -0.06038316 0.11889264 0.04113434 -0.09796046 0.00086228 0.02458285 0.04026906 0.06517503 -0.08000509 -0.07051301 0.03193674 -0.00182752 -0.03244190 -0.06706125 -0.02792531 0.07224905 -0.06453039 0.00394215 0.02228297 -0.11466294 -0.02151329 -0.01038542 -0.07511027 0.07024405 -0.03706268 0.02137546 -0.04942466 -0.03281640 0.12778261 -0.07138042 -0.09956928 -0.06525609 -0.00044616 -0.01353517 0.01732319 -0.07282362 0.06524899 -0.10510770 -0.01811231 0.05760822 -0.00182539 -0.07464096 -0.07046607 0.00397996 -0.05118476 -0.06917577 -0.02297731 -0.11738914 0.00279486
-0.08809315 0.07992930 0.07818901 0.07892013 -0.04494844 0.02911808 0.11003330 -0.00911666 0.06342227 0.08559327 0.01845283 -0.06158608 0.01200838 0.04973311 -0.06870732 -0.02930438 -0.11029094 -0.07076908 0.10118937 0.05742070 -0.04957556 -0.08355756 -0.07459539 0.07439875 0.11714290 0.01272719 -0.02045579 -0.11473612 -0.02122451 0.08296043 0.07443529 -0.02914274 -0.06442612 0.04094107 0.07410850 0.06815898 0.03651502 0.09479667 0.07318557 0.01811476 -0.00025215 0.09486827 0.03682921 0.08230530 0.04332117 0.04630932 -0.08077049 0.08788185 -0.05760269 -0.00048581 0.07060185 0.00787255 -0.00292264 0.01732647 -0.06854189 -0.02631127 -0.00267218 0.02884961 -0.00880808 0.03662960 -0.02300125 -0.04885851 0.05367655 -0.01618642 0.06117697 0.01414103 0.11728232 0.07378937 0.11298549 0.03389866 0.06350923 0.01933841 0.06128982 -0.02409375 -0.06913361 -0.11126630 -0.12357003 -0.00446616 -0.07479170 0.10817861
-0.10395527 0.10470863 0.03928390 -0.09344064 0.10242517 0.05544995 0.00913382 0.11020611 -0.06917413 0.10762735 0.00674214 -0.01992295 0.02128294 -0.02438744 0.01804453 0.09348036 0.02506240 0.07894062 0.11609293 -0.09463029 0.00470105 0.11799192 -0.02684875 0.05490587 0.06957256 -0.07054997 0.02089606 0.07768258 -0.03841918 -0.08677009 -0.07996368 0.03640772 -0.05546867 -0.05207937 0.11256807 -0.08780584 -0.05781177 0.09946166 0.06733569 0.06061405 0.13768706 0.03257624 0.11080648 -0.09189501 -0.11063232 0.03516110 -0.05088223 0.01878217 -0.03124765 0.03803851 -0.00506212 -0.03240196 -0.07695805 -0.02259995 0.03677274 0.11956713 0.12473729 0.05093556 -0.00105805 0.05942288 -0.01455405 0.02100352 0.02849467 -0.04606872 -0.05242182 -0.08291875 0.01172963 -0.13234057 0.03097148 0.02269657 0.01942106 -0.04731059 0.02523648 -0.00157809 -0.04571195 0.06080663 -0.12987159 0.10201610 -0.00494005 -0.03902274
