# Matrix shape: (64, 80)
0.07116561 -0.12170285 0.09973532 0.05472920 0.03643657 -0.00169634 0.05579001 0.09099480 -0.03148635 -0.11484019 0.08638056 -0.00270557 -0.04154995 0.05266894 0.04895068 0.00637813 0.00935848 -0.04490887 0.08660161 0.09078082 0.04861620 0.04525534 -0.04257571 0.00354599 -0.12068617 0.03534975 -0.12882809 -0.08506681 -0.09826257 0.04739323 -0.01027664 -0.01212412 0.03473324 -0.06753406 -0.04926641 -0.05464309 -0.01811353 -0.09004133 0.00126777 0.06917337 -0.11772159 0.02889033 -0.11241412 -0.01968601 0.03418804 -0.00213720 0.07158894 -0.01428805 -0.02449783 -0.07106690 -0.01355687 -0.06367934 -0.07284431 -0.07353754 -0.00187405 -0.09409168 -0.09036207 0.05338189 0.08089060 -0.00731966 -0.08354835 -0.06519014 0.02516163 0.02107692 -0.01738795 -0.12284499 -0.05061404 -0.00433261 0.04607540 -0.07870501 0.05095470 -0.00356896 -0.04566370 -0.12859371 0.08892606 0.00799718 0.08270827 -0.07972761 -0.12955274 -0.10480879
-0.03442322 -0.05598339 -0.02938891 0.10841218 -0.09181064 0.02996313 0.07457577 -0.01891054 -0.09367494 -0.02357982 0.00715853 0.07150882 -0.01605935 -0.05840962 -0.07160304 -0.11780927 0.05778381 -0.10810101 -0.07397857 0.02342049 0.06633040 0.07471521 -0.06411126 0.07419354 0.07502890 0.05990606 -0.00845039 0.11560673 0.07216315 -0.10301162 -0.08293128 -0.01497763 -0.05703920 -0.06204075 0.06963826 0.07577185 0.07824677 -0.02357008 -0.04102308 0.05189299 -0.01794190 -0.00978958 -0.07637996 0.07180030 -0.06467059 0.06646959 0.07438376 0.02047185 0.10667929 0.04307069 -0.06429228 -0.07346320 -0.00495344 0.04535235 -0.00926632 -0.01276449 0.05598742 0.01745664 0.06226628 0.04318172 0.03045494 -0.05033590 -0.04234954 -0.08013104 0.09416613 0.07757844 0.01984558 0.02693642 -0.03375544 -0.13411276 -0.00810660 -0.10179586 -0.10978441 -0.05212079 -0.04259838 0.04948952 -0.06310447 0.05698618 -0.12557556 -0.07408641
-0.01915844 -0.01247797 0.03280164 -0.01527119 -0.00333960 -0.04686196 -0.05026436 -0.03627975 -0.00049346 -0.13641864 -0.09697039 0.10803087 0.06949940 -0.02319294 -0.01519093 0.00535088 0.04427914 -0.09907155 -0.05008210 -0.07918423 -0.07846884 -0.04461668 -0.00269880 0.06522924 -0.00481264 -0.04838759 -0.01965602 0.08686553 -0.01495394 -0.04311098 -0.04546058 -0.10791008 0.00462172 -0.12801863 -0.08044469 -0.04831940 0.06329675 -0.12231931 0.09035844 0.02049456 -0.10052957 0.06365240 -0.05242614 -0.07020668 0.00341494 0.03312882 -0.13138580 -0.02880769 0.06466097 -0.06795701 -0.01103131 -0.02112605 -0.07036500 0.06374887 -0.06527313 -0.02283183 0.01178351 -0.09135623 0.03398861 -0.06750144 0.12572497 0.02682094 -0.03866140 -0.11404511 0.02245577 0.01539861 -0.08191802 0.00875228 -0.10024558 -0.13446710 -0.00054998 0.07173897 -0.03106711 0.00546908 -0.06385318 -0.01095812 0.00666132 -0.07937553 0.04546197 0.04837426
-0.10174826 0.05262763 -0.03386244 -0.07740676 0.00663420 -0.01070537 -0.04484595 0.03579743 0.08576795 0.00903510 0.01024941 -0.01173380 -0.06567410 0.07820718 0.12083031 -0.00075574 -0.00988845 0.11182516 0.11001366 -0.10550161 -0.03033640 -0.08693065 0.05144735 0.10832586 -0.01769754 0.06495050 0.04243186 -0.11968831 0.02706503 0.07592592 0.02439921 0.02746929 0.00691198 0.10419931 0.11788179 -0.00565328 0.04185546 -0.00668747 0.05007812 -0.02369058 -0.06828799 0.08008979 0.06805417 0.00106865 0.02995309 0.03427722 0.05958233 0.06429970 -0.07832778 0.01735537 0.03674543 -0.03847544 -0.07180371 0.03347421 0.05547704 -0.03946479 0.13411480 0.05301269 0.06633545 -0.06750443 -0.10908240 -0.01988873 0.02500192 -0.03155348 0.08138313 -0.04838447 -0.05538132 -0.06131357 0.09085169 -0.02942349 0.08562394 0.07433549 0.00768323 0.08618116 0.07108343 -0.08144906 -0.04064785 0.12988277 0.08585490 -0.03482475
-0.04804812 0.08261423 0.07094363 -0.00598991 -0.05061085 -0.05729389 -0.00596109 0.06198225 0.01185323 -0.06544100 -0.00726985 0.09005526 -0.11155287 -0.06632780 0.09017916 0.12220187 -0.12456980 -0.07784739 -0.01417004 0.08713309 -0.04278930 0.03350830 0.07365433 -0.01671346 -0.00950733 -0.04470384 0.02182381 0.07927952 0.02661427 0.10109754 0.01648264 0.00227399 -0.04052289 0.08875075 0.00688843 -0.11934488 -0.02021354 0.06548666 0.09123606 0.00190631 -0.07160533 -0.05327598 -0.05958832 0.01991501 0.06328018 0.05553570 0.06222093 0.09500032 0.05493484 0.09139417 0.08498044 0.00650976 0.05449737 -0.05245728 -0.05407603 0.05246008 0.04364885 -0.06927723 -0.06081108 -0.11500376 0.06964965 0.09640619 -0.03500893 0.03953069 -0.04550648 0.12154865 -0.07884749 -0.10545252 -0.07201397 0.08830433 -0.04141600 0.08918935 0.06439106 -0.02479652 -0.01022397 -0.07142565 0.03017253 -0.02167282 0.06190832 0.03081910
-0.10406043 -0.05149142 -0.06480522 0.04510714 0.03476909 0.02091274 -0.04760843 -0.09126780 -0.01719297 -0.05890862 -0.09256919 -0.12704490 -0.09079658 -0.08948371 0.05299580 0.05153276 0.02666494 -0.08913075 0.08810150 -0.00102241 0.05468199 -0.00438619 0.03726396 -0.08460610 0.06149829 0.11807165 0.06289996 -0.12928298 -0.04910580 0.00743628 0.08098991 -0.02549952 -0.00339962 -0.01525564 0.00186448 -0.02445179 -0.04414264 -0.05471953 0.07487697 0.11462851 0.02094650 0.12471272 0.11320999 -0.09436881 -0.06218094 -0.05554972 0.05818527 0.02229913 -0.03407761 0.10666090 -0.02323123 -0.08321509 -0.05713054 -0.03368193 0.09236328 -0.03359877 -0.00592440 0.07824790 -0.06657374 -0.09261820 0.06451831 -0.02086932 -0.03590498 0.00563833 -0.03417346 0.04384349 0.06147075 -0.10838979 0.09185712 -0.08426154 0.02248729 -0.01052861 -0.02205081 0.13333274 -0.08927804 -0.01732639 0.05386688 0.12181824 -0.07223868 0.03392497
0.09271033 -0.09635364 0.03342040 -0.07816995 0.01376682 -0.08152106 0.04652834 -0.01325048 0.08316897 0.01550893 -0.00572100 -0.04350828 -0.11285742 -0.03483194 0.01586954 -0.07881631 0.08434971 -0.05599413 -0.03125605 -0.03151340 -0.07286899 0.01736950 -0.03840427 -0.07873870 0.02010606 0.12282084 0.03730667 0.07325420 -0.01148254 -0.02367500 0.10615847 -0.05013433 -0.11330202 0.04309881 0.06828932 -0.08241308 0.02596615 -0.02136869 -0.00545777 -0.01042730 -0.00577832 -0.07048391 0.04830065 -0.04832103 0.07503318 0.03388708 -0.07621755 -0.07422810 -0.06951585 0.07179315 -0.05906373 -0.06625722 0.01280143 -0.05944265 -0.03905711 0.11552700 -0.04031442 -0.01681012 0.09334970 0.00555131 0.07726246 -0.08293884 0.07075121 -0.00568554 -0.08245026 -0.03000716 -0.09482544 0.06194409 -0.00813292 -0.09264664 0.07839666 0.08674519 0.06523632 0.13190706 0.11326532 0.08474400 0.08961619 0.10612887 0.04461357 0.00251619
-0.01609659 -0.02766869 0.06546363 -0.01042421 0.03643657 -0.04768997 -0.02371173 0.10392944 0.03332050 0.06564536 -0.07893132 -0.06828147 -0.02126778 0.00792792 0.08971642 -0.02387449 0.07396889 0.00051815 0.06257805 -0.10154985 0.02846678 -0.08596057 -0.07935247 -0.04990920 0.05476816 0.03820672 0.02666809 -0.03607286 0.07555266 0.13111922 0.06993592 0.10611340 -0.02486447 -0.01704766 0.04158846 0.05122694 0.00161397 -0.06300490 0.02231681 -0.00761937 -0.02948396 0.09887494 0.02323512 -0.08779585 -0.08531613 0.12680152 0.09484610 -0.06031883 -0.01887873 0.02133729 0.07394911 -0.11786879 0.01940869 0.06051531 0.04510748 0.03264583 -0.03063046 -0.07922626 0.07963866 0.07737154 -0.05218075 -0.07762318 0.05494726 -0.05794828 -0.09112824 0.05408848 0.01003350 -0.02985328 0.09057951 0.00250182 0.05106924 -0.01356625 0.10830763 0.06295402 0.11801565 0.01409093 -0.05803079 0.07090469 0.11761412 0.04194407
0.02868883 -0.06000041 0.07324513 -0.11905184 0.09832653 0.06525767 0.01865907 -0.08508150 0.12391608 0.09796809 0.12150969 0.02358535 0.01981594 -0.00975922 -0.02772137 0.05401773 0.02059115 0.01839148 0.03664045 0.01573594 -0.08668809 -0.07593001 -0.02191295 0.09748435 0.07782350 -0.07742961 -0.01785053 -0.03555141 0.01892742 0.11271449 0.02472059 -0.07025683 -0.01239661 -0.01929510 -0.04876950 0.03983196 0.00416267 0.07529637 0.06975652 0.03158226 0.08714119 -0.02492113 0.08928157 -0.01931495 0.05647041 0.12805311 -0.06265628 0.12556946 0.06611842 -0.06650755 0.05315002 -0.11291658 0.04362503 0.04038176 -0.08747793 0.06124588 -0.00605758 0.13923571 0.12819327 0.01401490 0.07028940 0.06230461 0.12777109 0.00972230 0.00934845 0.00487165 0.01842889 -0.05577283 -0.02166875 0.08663519 0.03185300 -0.02843307 -0.07355926 0.08328994 -0.08457591 -0.02973269 -0.11404219 0.11540501 0.11318990 -0.07149463
-0.11990722 -0.04746819 0.04352943 -0.06935969 -0.00463709 -0.00404951 0.03010737 -0.03312981 0.07312907 -0.05331051 0.00847414 0.07331395 -0.07979310 0.10516308 0.07626617 -0.02643372 0.02059953 -0.05352603 0.02785518 0.00899854 0.09111984 -0.03951794 -0.04988917 -0.03436975 -0.08560517 0.05196537 -0.07684999 -0.05376366 -0.06790335 0.02764412 0.05619184 -0.06455360 -0.05201675 0.01315591 -0.04507970 0.00373713 0.04139021 -0.05682516 0.07053865 0.10011582 -0.00939944 0.04460617 0.04050256 -0.03922118 -0.09308540 0.11343423 0.07692714 -0.07404739 -0.10503155 0.12990940 0.03820668 -0.04758270 0.07704201 0.05527845 0.03273894 0.10942664 0.01593335 0.13439299 -0.05944633 -0.09263053 0.00088304 0.00849941 0.08579391 -0.01039740 -0.00068629 0.00019803 0.10430758 -0.02937725 0.01997462 0.10392278 0.09066250 0.12798150 -0.08432603 -0.03453633 -0.00602796 -0.04788498 0.04660658 0.07244170 0.01294673 0.02300395
0.00053709 0.11597249 0.07195169 -0.07112408 -0.03560974 0.05463768 0.00520946 -0.05026103 -0.08478009 0.04436922 -0.01299907 -0.08587585 0.00121547 0.12972975 0.11241654 0.07446335 -0.10197362 0.08672760 0.07814430 0.01345040 -0.00682046 0.02173186 -0.04593292 -0.00241160 0.00603075 0.01460137 -0.09434657 0.01482725 -0.11127067 -0.06094035 0.06889990 -0.07211614 0.08388849 0.13190013 -0.01432143 -0.04264156 -0.06559084 0.03007216 0.00838889 -0.03929877 0.06035978 0.02508300 -0.00497379 -0.02505959 -0.12818716 -0.05616183 0.03803952 0.12972817 -0.08565084 0.09625344 0.03226846 -0.07138038 0.01836071 0.07768557 0.01185092 0.12113480 0.00455606 -0.04543200 0.12114113 -0.05745377 0.05111958 0.09718800 0.04324791 -0.06951778 -0.12859888 0.07757349 0.04931866 0.04166447 -0.07706651 0.00754756 0.07880086 0.08117071 0.11897957 0.11761052 -0.00802711 -0.10185016 -0.08648736 0.06132046 -0.02086897 0.02287772
0.03690527 0.05025994 0.04900245 0.07788864 -0.01441648 0.03852385 -0.05837363 -0.06544288 -0.04054192 -0.09253348 0.08067136 0.00357425 0.05152616 -0.02365241 -0.02032136 -0.06974490 0.01040837 -0.12243795 -0.07302482 0.10927036 -0.09428773 -0.00495940 0.01445022 -0.12911670 -0.00201978 0.02200738 0.06471583 0.04508100 0.10638917 -0.01784982 0.01974737 0.01502190 -0.06103962 -0.04891794 -0.09909643 0.10957817 0.03324684 -0.06927043 -0.00829867 0.00850387 -0.12220423 -0.02556856 0.02591431 0.03821452 0.00873292 0.04990439 0.02607986 -0.11994933 0.08468928 -0.11227176 0.04162584 0.11670700 -0.01160382 -0.06139801 -0.04598200 -0.07108177 -0.04576055 -0.07494075 0.09137332 -0.02319100 0.06544531 -0.12646189 0.03396428 0.07402326 -0.06080510 -0.05251767 0.00549346 -0.08433314 -0.06573848 0.01642686 0.08839693 -0.05511409 -0.02651342 -0.13718450 -0.12609285 0.12246542 0.11390480 -0.05675369 -0.06701153 -0.02862258
0.06915272 -0.12664926 -0.07405378 -0.02360141 -0.05603519 -0.02696082 0.06226832 0.00580348 -0.12332056 0.07753923 0.07196253 0.05568899 0.07160328 0.02310934 0.07423756 -0.11669683 -0.05149843 -0.03622755 -0.03968321 -0.05165358 -0.09709922 -0.10860634 -0.00437685 0.07384486 0.05086800 0.00307918 -0.08447977 -0.02103122 0.02758238 -0.12472822 -0.02724083 0.00742519 0.11942365 -0.05317916 0.09092128 0.03028382 -0.06691548 0.08266664 0.07987430 -0.10864852 -0.08907413 0.02605454 -0.09580886 0.10000642 -0.03648419 -0.05571583 -0.05368892 0.08857769 -0.01919369 -0.04519081 0.04792852 -0.05491148 -0.01936374 -0.10956731 -0.08829930 -0.04584980 -0.01244543 0.06797118 -0.12646212 -0.00736646 0.04630033 0.02044575 0.04372923 -0.10874877 -0.00934102 0.00269478 -0.10940658 0.07813175 -0.09734367 0.04782702 0.02680784 -0.05235519 0.01113603 0.06622835 0.06382807 0.09282355 -0.04819814 0.01053932 0.06205004 0.00040675
0.05138179 -0.05110690 0.09076141 -0.01669339 -0.07821088 -0.00502660 0.10331928 -0.01990899 0.00245722 -0.01861786 -0.04284316 -0.00070021 0.05037099 0.03208285 0.01064365 0.01586322 -0.10048095 -0.03727254 0.02388842 -0.11155761 0.05721516 0.03975128 -0.00781760 0.01374196 0.11728855 0.13099602 0.06978747 0.03214274 -0.07161853 0.06662297 -0.05381584 0.06411554 -0.09757567 0.02292613 0.09997236 0.05265918 0.08695947 0.06059363 0.02810415 0.05012530 0.10537377 0.08614338 0.05943214 -0.06243241 -0.07155097 -0.00681623 0.07474413 -0.04232526 0.01220904 0.12103430 0.11440212 -0.10366765 0.04213241 0.09587994 -0.08222945 0.09163302 -0.04544717 -0.05349115 -0.02873969 -0.06626181 -0.06367829 0.05374932 0.06474330 0.06264106 0.05930417 -0.04769824 -0.08639807 -0.11120189 -0.03845062 -0.02954492 0.03296098 -0.06045312 -0.05721227 0.08808438 -0.05334885 -0.00345002 -0.10270698 0.06408542 0.09146927 -0.07445456
0.03233913 -0.06451243 0.06813242 0.10535330 -0.07664627 0.03066854 0.05930770 0.09359876 0.07306056 0.01783602 0.01315883 0.03606468 -0.05863817 -0.03113496 -0.01187446 -0.07802946 0.00070289 -0.02040640 -0.04804306 -0.02312656 -0.09331771 0.09381305 0.03942673 0.07052738 -0.10647785 -0.11385497 0.07977310 -0.00724834 0.02533888 0.04574148 -0.00350421 -0.01107468 0.07245479 0.08236234 -0.04087555 -0.08459440 -0.04481552 0.06706408 0.00323981 0.08520597 -0.05023576 -0.10893318 0.02512264 -0.03538090 -0.05888553 0.05939822 -0.00282985 -0.01747698 0.11481155 0.09111980 -0.10106017 -0.09223212 -0.03861324 -0.09845974 -0.04291802 0.06511853 -0.08545210 0.09819978 0.03325671 0.01668509 0.02711613 0.01380963 0.02581252 -0.09911661 0.00545110 0.06782980 0.10115047 0.00479781 -0.06240124 0.03927401 -0.08505422 0.08942260 0.05777660 0.04465604 0.01250725 0.09305356 -0.03715023 -0.10281732 -0.07230622 0.07473774
-0.06875458 -0.06881349 0.03911405 -0.08499698 0.01232672 -0.04592700 0.03024583 0.00444751 0.03877559 0.08113682 -0.05173922 -0.05786338 -0.09570912 0.11510673 -0.01986799 0.05337786 0.00395433 -0.08678885 -0.05839018 -0.05311858 -0.06593838 0.07890099 0.05341361 0.02337451 0.03872244 0.06069529 0.05461688 -0.04662316 -0.06515176 -0.04548436 0.02849456 0.10892265 -0.03440916 0.12157106 0.06105428 -0.08147228 0.03391014 0.06386348 -0.03488611 0.00318519 0.01424869 0.06995520 0.11584368 -0.04963873 0.05153156 0.08384667 -0.07303121 0.10450972 -0.02515884 0.11147039 0.10986627 -0.13217044 -0.07258904 0.01172237 0.02523145 0.00514245 -0.08139543 0.09109177 -0.04313947 0.02475534 0.05780460 -0.01323110 0.09146981 0.03808761 -0.05479256 0.03255500 0.06289808 0.03324034 -0.04404474 0.10569076 -0.03824864 -0.07307219 -0.02173384 -0.06843582 0.05131873 -0.01865794 -0.02660738 -0.05124337 0.08307286 0.04165923
-0.04508246 0.04027104 0.05453011 -0.08342772 -0.01175852 -0.02567735 0.09730729 0.05118481 -0.06000077 0.10915264 0.00290206 -0.01351207 -0.00761009 0.00967703 0.12670562 0.06057876 0.00091963 -0.01690684 0.04731376 -0.10609403 -0.01885026 0.07573740 -0.09275734 0.02128101 -0.01586820 0.08862483 -0.05209274 -0.00575821 -0.05432575 0.11796883 0.00773776 -0.05949489 -0.05454702 0.10437347 0.06548981 -0.00043056 0.05693180 0.06185945 -0.00698756 -0.03590431 -0.08087244 0.08493656 0.11596230 -0.06763066 -0.07234748 0.04336762 0.01397914 0.10981672 -0.02319450 0.02206951 -0.08046339 0.00973970 0.01641414 0.05018119 0.05398269 0.07105812 0.02656735 0.02222612 -0.03545107 0.07482550 0.07097264 0.02456959 0.13633643 0.12246507 0.04092497 0.08307924 0.06761960 -0.04404660 0.02012187 0.11128403 -0.01168487 0.05868264 -0.00929973 0.04926033 0.08518784 0.04322314 0.03262558 0.07819895 -0.00223988 0.12611617
0.05576210 0.12577572 -0.07746542 -0.06534460 -0.07195960 0.03364858 0.08503655 -0.05747750 0.05270551 0.02430798 -0.08520029 -0.02614966 -0.03033215 -0.03474737 -0.05170345 0.07535466 -0.03007011 0.00108039 -0.01154422 -0.03833669 -0.01105711 -0.04249275 0.03195152 0.02056666 -0.07531828 -0.02603499 -0.00512636 -0.06811569 0.00925641 0.12694103 -0.05722607 0.01424647 0.07564397 -0.04027133 -0.06760731 0.00671277 0.01137557 0.02279625 0.05358946 -0.07415616 -0.04114902 0.10577441 -0.04986706 -0.04053474 0.03472585 -0.03876179 -0.06391697 -0.04804483 -0.10240912 -0.07135726 0.00242234 -0.12663031 -0.04686974 0.03282058 0.08799418 0.13177937 0.11991014 0.04063682 0.09052136 -0.06136804 -0.08908489 0.07923574 0.06689531 0.05896480 0.03254677 -0.00404727 0.10307586 0.03780909 -0.02796974 0.10545027 0.02505828 0.02562191 0.02850929 0.12571318 0.02382914 0.01272606 0.06437586 0.02892668 0.12441710 -0.04607693
-0.03067494 0.02833475 0.01911820 -0.09531636 0.10255712 -0.03777638 0.08449948 -0.02496526 0.06742653 -0.03476051 -0.02970707 0.00841389 0.05897304 0.01054664 0.06047926 -0.05192198 0.01643361 0.01008513 -0.00590235 0.03156439 -0.01566138 -0.04463600 -0.02187478 0.07774249 0.13107534 0.13079289 0.09475824 -0.09354584 0.08199264 0.06734120 0.04288326 -0.04760523 -0.07881503 0.05324972 0.01017638 -0.05441882 -0.06522847 0.11649811 0.02025403 0.03598966 0.03552279 0.08830037 -0.03971868 -0.02907214 0.08079208 0.00441663 -0.07312483 -0.04683854 0.04941657 0.08289220 0.09818055 -0.06216022 -0.02926611 -0.07510952 0.00853943 -0.00278822 0.13165404 -0.02225702 -0.05112879 0.01989666 -0.05869945 0.01218489 0.13421036 0.09028015 -0.12994824 0.02910213 0.02455219 0.08650713 -0.07492853 0.09144328 -0.09273139 -0.08828953 -0.03138946 -0.07783093 0.01225921 0.06465006 -0.04893078 -0.06239831 0.01326769 -0.07010039
0.05311088 0.03476429 0.11189624 0.03393940 0.04789893 0.05696161 0.10673175 -0.04998986 -0.04609355 0.11286379 0.05900625 0.08217662 0.00779446 0.05998855 0.08704884 0.08260519 0.04275251 -0.06567972 0.05124768 -0.09915973 0.02552497 0.08405692 -0.02665162 0.11847705 0.12284283 0.06158839 -0.06523649 -0.02136221 0.06876059 0.04152943 0.11966762 0.02495601 -0.07045227 0.09686819 0.05662547 0.03963604 -0.04674512 -0.06204865 0.05797563 0.05981309 0.10595423 -0.06513649 -0.02459388 -0.02728229 -0.07632759 0.09120777 0.11071968 0.11644658 -0.00314439 -0.07790199 -0.01968206 0.00402997 -0.00739182 0.07086907 -0.01525907 0.11315108 0.12144685 0.13873589 0.05605573 -0.10022917 -0.04720308 -0.03753702 0.07231002 0.01033029 0.02634912 0.05594108 -0.01389376 -0.00655465 0.00455570 0.04133033 -0.05855159 0.02311271 0.11015353 0.08652845 -0.05123361 0.06853028 -0.06101392 0.12194292 -0.00064365 0.12832463
0.07676674 -0.03007586 0.05935595 0.11195458 -0.07905684 -0.00475138 0.05725226 -0.03608211 0.04565651 0.05668747 -0.11000601 0.07947311 -0.07960558 0.04633489 -0.08373602 -0.04860255 0.04644489 -0.11987095 -0.02668423 -0.01362962 0.01575755 -0.02896914 -0.08383560 -0.05260019 -0.00856474 0.02943602 -0.08242406 -0.04227445 0.07351072 -0.09210676 -0.06933918 -0.13624950 -0.00295809 -0.11477056 -0.00628063 0.11571576 0.03107143 -0.10980102 0.08297262 -0.12420908 -0.06964154 0.03125286 0.02372306 0.08584653 -0.00346265 -0.12285092 -0.13457334 -0.01638810 -0.08404304 -0.09918706 0.04847683 0.00806990 0.01812865 -0.10790185 0.00412902 0.07622966 -0.00665218 -0.01147899 -0.09047835 -0.05415175 0.08830886 -0.12597784 -0.03239106 -0.11532234 0.02948243 -0.13532144 0.01257915 0.02550273 -0.06325659 -0.06309304 -0.02897128 -0.07496203 -0.05502590 -0.01063567 -0.08528618 0.05448414 -0.06900106 0.07942176 -0.09243406 0.02191672
-0.05368653 -0.09471475 -0.02891423 -0.05042417 -0.04176675 -0.06783468 -0.03953080 -0.10603385 0.08697284 0.03655617 -0.05813791 0.10136543 -0.03189804 -0.11055437 0.01791612 -0.04807562 0.10094321 -0.05189029 -0.10965890 0.11671578 0.00306252 0.01109099 0.00116435 -0.11012240 0.01290043 -0.02886443 -0.08944520 0.08725390 -0.08681808 -0.09058950 -0.04812596 -0.12121385 -0.08070435 -0.05731349 -0.04041271 0.10387936 0.03145622 0.08130904 0.02283799 -0.00549888 -0.04550088 -0.07495850 -0.12680465 -0.07853245 0.06547789 -0.09187808 -0.06755174 0.03312663 -0.05024916 0.01791514 -0.02631309 0.04473237 -0.05605081 0.05859750 -0.07758670 -0.12488014 0.06281465 -0.10319885 0.08847401 0.07403382 0.06106639 -0.03570557 -0.00073186 0.00893041 -0.03442806 0.05902538 0.04857737 0.02837949 0.00890757 -0.03537773 -0.02469877 -0.10695981 -0.06768452 -0.13551842 -0.05314951 0.08307695 0.12639581 -0.12404490 -0.11485141 0.07217667
-0.05711335 0.01839059 0.08239350 0.08598813 0.05170787 0.04860650 0.01216840 0.02207860 0.06696557 -0.07899155 -0.09023971 0.05529600 -0.12700993 0.07769932 0.09852682 0.08357484 0.01649332 0.03406850 0.06997483 0.04440166 0.02002908 -0.05774415 0.05235958 0.03342380 0.09023634 -0.04595143 -0.01273029 -0.09521506 -0.01112385 0.11598352 0.04308372 0.11094210 0.06278244 -0.05333654 0.12632982 -0.01540782 0.08244947 0.04414756 -0.01266852 0.11510576 -0.05897331 0.03004507 0.01079484 -0.01838019 -0.04963711 0.10964571 0.01558448 0.06483719 0.02969008 0.12511468 0.05999732 -0.13284673 -0.06957461 -0.08286960 -0.09014183 -0.07279146 0.02259692 0.13323447 -0.05369383 0.02281887 -0.06858441 0.10822934 0.09419339 0.07123440 0.08050241 -0.06124289 -0.07511499 -0.07866679 0.03359231 0.12048249 0.05663575 0.05545541 0.00469549 -0.03524790 0.12897837 -0.12228896 -0.09469834 0.08728400 0.10886563 0.04906264
-0.00229682 -0.01236186 0.01556940 -0.05482837 0.09366698 0.10553128 -0.02898494 0.07351338 -0.03305690 -0.07726822 0.03260786 -0.01200149 0.09774921 0.00258630 -0.03232421 -0.09566031 0.06811903 0.07789838 0.01008172 -0.00353722 -0.02198620 0.01984070 0.08961909 -0.02422870 0.00458173 -0.10118631 0.03083318 -0.04194251 -0.02180234 -0.06432761 0.09800389 0.07035229 -0.04236127 -0.02500558 0.02724718 0.04849414 -0.03642169 0.03881822 0.00764239 0.05748911 -0.06540365 -0.06624538 0.05064267 0.00145457 -0.04399405 0.08255621 -0.01865426 -0.08013273 -0.01168017 -0.04842832 -0.04511163 -0.08570755 0.07314575 0.09222707 -0.07695261 0.06335253 0.02811763 -0.04050795 -0.02587626 0.02387533 0.02848076 0.09077070 0.10102998 0.00100187 0.10611882 -0.06270363 -0.00572582 -0.08590691 0.03952957 0.01548958 -0.05165075 -0.09154246 -0.02650791 -0.03835029 -0.04068702 -0.09282392 -0.06644048 0.08884493 -0.06101034 0.04002102
-0.01379758 0.00784221 0.05705604 0.06346042 0.03393733 0.03093068 0.08235092 0.02405231 0.04086892 0.12869391 -0.05160231 0.06480401 -0.06766459 0.00982016 -0.05179632 0.07766566 -0.10220154 -0.02551566 0.03611314 -0.05945694 0.01655680 0.11764868 -0.08175513 -0.05576880 -0.06970935 0.12887901 0.05283373 -0.09769392 -0.11115535 0.10038405 0.11965315 -0.05344701 0.00778327 -0.00581220 0.08089294 -0.07860145 0.06179569 0.12601915 0.05120319 -0.00282226 0.03253566 0.06989433 -0.04417282 -0.06908624 -0.12333710 0.09654406 -0.03596332 0.11136762 -0.03931622 -0.01932972 0.07243218 -0.02711387 -0.05590873 0.02902220 -0.03532539 -0.06444646 -0.05217334 0.06032432 0.03707401 -0.06315811 0.02592714 -0.01654398 -0.06988977 0.05421619 -0.05580796 -0.01199726 0.09577300 0.06721536 -0.08974636 0.11071764 0.08227883 -0.06390958 -0.09281130 -0.06496987 -0.00256277 -0.02298198 0.01683751 0.04497476 0.03808562 -0.07150827
0.12199974 0.07757553 0.04178902 0.03784192 -0.06774415 -0.01575505 -0.08446235 0.08323614 -0.12159387 0.06850068 0.08670685 -0.03370048 -0.08196560 0.02023781 -0.10389575 -0.11282246 -0.04881738 0.05692714 -0.08895718 -0.02201001 -0.04775216 0.05642821 0.03163433 0.04270908 -0.04423061 -0.09549950 0.02448130 0.06892662 0.11029094 -0.12605393 -0.10437118 0.05664324 0.04791159 0.05027217 -0.04783085 0.13362418 0.02341260 -0.06594837 -0.03802188 0.00874529 -0.02700108 -0.08212454 -0.08690128 0.06153767 0.07297411 0.08527203 -0.06914002 -0.08539767 -0.05131626 -0.09935573 0.09004917 -0.03273634 -0.05553559 0.05888574 0.06988728 -0.12301490 -0.03706921 0.00575671 -0.00210287 -0.03888787 -0.07229768 -0.10265210 0.01520684 -0.07207357 -0.08304794 0.08683115 0.03082845 -0.01126029 -0.00443561 -0.06174886 -0.05649937 -0.12425417 0.04780999 -0.13195826 -0.10268384 0.11817216 -0.05260855 -0.05937494 -0.02168330 -0.13078362
-0.11418428 -0.07024687 -0.00252912 -0.05590280 0.08116359 0.09035201 0.10932951 -0.07592633 -0.02904356 0.10414943 0.05875619 -0.09482680 0.06465168 -0.03637299 0.12618637 -0.07860427 0.03707453 0.01724661 -0.07566542 0.03302469 -0.01978496 0.02657986 -0.02291377 -0.00169780 -0.00333675 0.08073782 0.00910508 0.05073158 0.02604792 0.02235177 0.06912572 -0.01810222 -0.10645005 -0.04834294 -0.05488574 -0.11446496 0.02198099 0.01436337 -0.08334492 0.08071987 0.09556466 0.12403727 0.03347105 -0.03391511 0.04660654 -0.07396593 0.03089696 0.09502325 0.05571780 0.03805428 0.01338887 0.01584612 0.03240923 0.02109873 0.07373149 0.11828722 -0.03665470 0.12971330 -0.00812157 -0.00254288 0.08040596 -0.02899679 0.07632020 0.00725083 -0.08335076 0.01774246 0.11821897 0.03809673 -0.03594790 0.12497317 0.00896019 0.11847955 0.13356136 -0.00248439 0.10966233 -0.04333556 -0.00152738 0.02728888 0.02585902 0.01405002
-0.11158568 0.02991612 0.11694138 0.02149661 -0.08222634 0.04119344 -0.00096279 0.05390940 -0.07857832 0.04678340 -0.05953907 -0.00590170 0.04804060 0.09888097 0.00173513 0.11046826 -0.02608196 -0.04089458 0.07344081 -0.01984679 -0.06779058 0.09358003 0.08983234 0.08439782 0.00729354 -0.06341371 0.11363316 -0.08493394 -0.00235841 -0.07841190 0.09316900 0.04294270 0.08297480 0.07939537 -0.08490294 0.06416003 -0.07087630 -0.02949858 0.04161806 -0.03824739 0.05540150 0.04056977 0.03657947 -0.08619417 0.05901415 0.03879719 0.06549732 0.03550978 -0.07581179 -0.01726799 0.09723743 -0.12177648 -0.01706817 -0.07787233 -0.04879897 0.03779294 0.00115046 0.06631465 0.10597954 -0.00281588 0.08693498 0.02326868 0.13201676 0.04103946 -0.02320073 0.05568540 -0.06537770 0.06690601 0.09014166 -0.07494142 -0.05112085 0.11131249 0.05507479 -0.01047618 -0.03553618 -0.05212041 -0.04029607 0.12653680 -0.04367819 0.03887527
0.00839826 -0.03158613 0.01426180 -0.04018413 0.07538671 0.09579138 0.00919579 -0.03903962 -0.04465137 -0.02302086 0.12487467 0.06883462 0.00543056 -0.08654498 0.05190145 -0.01166440 0.03839326 0.08368438 0.11402482 -0.01179522 0.01698282 0.02083123 0.06013286 0.10391704 0.07299253 0.00334026 -0.00763052 0.08297290 -0.07461160 0.03848106 0.05533990 0.07757080 -0.08456231 0.00238546 0.01477967 -0.02973324 -0.07698550 0.06522165 -0.06864484 -0.00930267 0.05539793 0.11221681 0.00405819 -0.08229963 -0.06665649 0.01825417 -0.04175575 0.04762398 0.02664734 0.12917104 0.11288641 -0.04250630 0.04225010 0.03410492 0.03955637 -0.03171082 0.12663253 0.02532643 0.09794596 0.06152812 -0.04048077 0.10580559 -0.00921205 0.07575078 -0.03858872 -0.06551383 -0.00977708 0.02273471 0.07642622 -0.06727502 -0.04931344 0.07756206 -0.03509972 0.03076651 -0.05117152 -0.01436299 -0.07088782 0.04501997 0.06378822 0.04138847
-0.06481639 0.06335908 0.07930082 -0.08466756 0.07055417 -0.11297525 0.03377565 -0.02887843 -0.03305117 -0.08378919 0.06764000 0.03939170 0.01287180 -0.02555027 0.06068562 0.09936287 -0.04027960 -0.12273635 -0.09674873 -0.03612187 -0.07918677 -0.06223205 -0.02771465 -0.02429414 0.00676114 0.04068190 -0.09146973 -0.05490202 -0.02806645 -0.10576665 -0.01817234 -0.10562778 0.01630295 -0.04080225 -0.10868701 -0.02634789 0.02996324 -0.05273886 -0.08113389 0.06819463 -0.06085618 -0.01679382 0.06118189 0.08091556 -0.06972141 0.07545096 -0.05519288 0.00553299 0.06971048 0.01376396 0.05344690 -0.02637353 0.06187924 0.04648945 -0.08221867 -0.06462303 0.07019624 -0.11313168 -0.12203155 0.09519912 0.06004592 -0.01194852 0.06485876 -0.01791925 0.12816435 -0.09935316 -0.11897500 -0.00013277 0.08799981 -0.11902534 0.03251091 0.00542350 -0.07411599 -0.12232634 0.02657586 0.06826831 0.01772653 0.02005387 0.03681412 -0.10228609
-0.10138901 0.00259613 -0.00028262 -0.05918791 0.03463963 -0.06025088 0.10405336 -0.00018059 -0.03747363 0.01159442 -0.06681002 -0.11564919 0.01167263 -0.00900203 -0.03873362 0.06493392 0.06290455 0.03678247 -0.03318617 0.03516308 -0.01900781 -0.02724839 -0.01269836 -0.00303462 0.13385513 0.01111490 -0.08157805 -0.06147291 0.02036314 0.07190104 -0.04977544 -0.05477332 -0.05239205 0.03302833 -0.06848834 0.02616631 -0.00403804 0.08270097 0.01937722 0.00579358 0.01680185 0.06452168 -0.02868085 -0.05505364 0.03049883 -0.07623532 0.00293579 0.04831756 -0.07778227 0.07846550 0.07982647 -0.04151898 -0.01527017 0.07899796 0.00753990 -0.06256448 0.09180355 0.14021778 0.11732998 -0.08862577 0.08311632 -0.02215880 -0.05926711 0.10538317 -0.09864610 0.12799382 0.13390793 -0.10057265 0.06334793 0.00271008 -0.01808732 0.04099303 0.06996515 -0.04527701 0.13070014 0.05122765 -0.08527459 0.07709800 0.04537340 0.08670121
0.01502112 0.01840357 0.01272289 0.12355625 -0.00238330 0.06544047 0.00199493 0.02403691 -0.02448126 -0.03003485 -0.11154138 0.11706974 -0.04904244 0.04563008 0.01689291 0.07401649 -0.08298917 -0.02970642 -0.11960032 -0.07541524 0.02097874 -0.03944838 0.05840947 0.07076019 -0.01269283 -0.05295234 0.05490688 0.11908957 0.02495228 -0.10749468 0.03379317 -0.02710529 -0.06325786 0.00624061 -0.00787206 0.01352672 0.09235141 0.03771329 0.05430901 -0.01096592 -0.03557324 0.02222377 -0.10006818 0.11824901 0.02537477 -0.11804029 -0.07651239 0.04317245 0.03945287 0.03668487 -0.12164661 0.01147759 0.04675310 0.04814778 -0.00329894 -0.12259494 0.08377667 0.02365382 0.01828812 0.08078720 0.07752481 -0.02775936 0.06159784 0.06459315 0.04213496 -0.10442716 0.06684668 -0.04272459 0.07570566 -0.08145963 0.00011274 -0.05568268 -0.07538427 -0.05590864 0.04796499 0.05042465 0.00113441 -0.10497929 -0.07431851 0.05200860
-0.02922580 -0.10590659 -0.07549137 -0.02253211 -0.05179009 0.03444529 -0.01382237 0.08399896 -0.12639116 -0.08473548 0.01735800 0.08845425 -0.02604133 0.02384793 -0.08127953 -0.07856818 0.07874499 -0.02986515 -0.10219806 0.01959068 0.07814661 0.00193250 -0.00927342 -0.04304291 -0.09110317 0.03306772 -0.01513741 -0.03313261 0.02632878 0.01189569 -0.01880490 -0.02886055 -0.08233932 -0.02830689 -0.05711617 0.02201818 -0.05630822 0.01887471 -0.05258470 -0.05817967 -0.07673646 -0.08586545 -0.02644515 -0.02505822 -0.02852676 -0.01080293 0.02364977 -0.07521297 0.07879966 0.00849712 0.06413730 0.03417716 0.07066491 -0.12473228 0.01669684 -0.11827254 0.02151434 -0.07231494 -0.04315699 0.12022841 0.12454014 -0.05147732 -0.08791616 0.03862131 -0.02922538 -0.07712332 -0.10619313 0.13456960 -0.01165470 -0.00106903 -0.04822198 0.02965856 -0.13211049 -0.06240945 -0.03657645 0.09152655 0.00945750 -0.00729551 0.06188055 0.01672248
0.07528751 -0.03037916 0.07258660 -0.02286176 -0.00202518 0.03171536 0.09162994 0.00916678 0.00063041 -0.03665318 -0.07344369 0.05031332 -0.03160141 -0.02776137 0.03482812 0.02641239 -0.02376988 0.10182132 0.07809192 0.01474569 -0.03784622 -0.03237851 0.07994311 0.03441647 -0.08872314 -0.00640549 0.02998544 0.01612379 0.08654457 0.01503509 -0.00153679 0.08682234 -0.02494078 0.04597408 -0.07342664 -0.05145235 -0.06753457 0.02479848 -0.07052571 0.09655309 -0.03673647 -0.06969810 0.01900847 -0.06663276 -0.07527863 0.09327278 0.04764766 0.02683256 0.04511188 -0.02801066 0.02207580 0.09628037 -0.03387509 0.05829101 0.07684878 -0.00445649 0.10494602 -0.02163372 -0.01790947 0.01473766 -0.02567638 -0.01828063 -0.01057224 0.03172951 -0.06921971 -0.07608608 -0.07695540 0.09817062 -0.00137537 0.06296553 -0.08938508 -0.00521667 -0.07451888 -0.00031978 0.10456698 0.06734017 -0.04877372 -0.04990367 -0.07985810 -0.04596425
0.05508066 -0.08626066 0.04680946 -0.02467166 0.08248003 -0.04641075 -0.02801992 0.04347799 0.05438489 0.05159963 0.06073627 -0.08423967 0.08249255 -0.08019096 0.05902851 0.07555348 0.01090393 0.01516366 0.00261691 0.07351805 0.05451435 0.00840941 -0.02234493 -0.01907810 -0.01206438 -0.12344331 0.01930279 -0.04784660 0.09173896 0.07679800 -0.00881580 0.07273760 0.02349541 0.04497681 0.03374541 -0.06919246 -0.07577429 -0.04783737 0.03029719 -0.04354045 -0.04849112 0.03744829 0.07169650 0.07236840 0.05398609 0.03350351 -0.00865452 -0.12364378 -0.08784966 -0.12920164 -0.12117562 0.10861820 -0.02112454 -0.10175838 0.00946875 -0.02231365 -0.09324075 -0.13700952 0.00523179 0.02764553 -0.01882829 -0.08654697 -0.05373197 0.07383282 -0.06678112 -0.06937773 -0.05834558 0.12650479 -0.01194288 0.05287934 -0.00026615 -0.04066217 0.03698426 -0.07342952 0.04653677 0.12391689 0.06636631 0.04486294 -0.11080176 0.07968783
-0.08324634 0.08200482 0.04743745 -0.00563565 0.03773198 -0.08475106 0.10772704 0.01170559 0.12254114 0.02898919 -0.02708075 0.04900461 -0.01931145 -0.05192455 0.03190086 -0.10199124 -0.08631457 -0.06836116 0.02474323 -0.08474512 0.01485562 -0.06143075 -0.07953925 0.00867928 0.03698781 0.10997424 -0.02172241 0.08186852 -0.09705961 0.06029109 -0.07788648 0.11681763 -0.06137273 0.08633113 0.02472611 -0.06738209 -0.00776825 -0.01835400 0.05174270 0.10252777 0.13122359 0.00114829 -0.00611105 -0.08065548 -0.02481120 0.04856176 0.01294624 -0.05359233 -0.01083191 0.02050457 -0.06913082 -0.05258684 0.01521850 -0.08497323 0.01259946 0.05160703 0.01495532 0.01229767 0.02250871 0.00312056 -0.07074877 0.01189979 0.08636456 -0.01334658 -0.01865859 -0.07991172 -0.06474450 -0.03316018 -0.01700176 0.13115349 -0.01666860 -0.07212912 0.12111546 -0.04338521 0.11156426 -0.03692390 0.00476434 -0.08752921 0.12388984 0.01862738
-0.03311206 -0.09896887 0.00691615 -0.09134093 0.06162374 0.03669450 0.07751810 0.07884040 -0.08882512 -0.05791045 0.04933227 0.09214824 0.12847005 -0.06642608 -0.00279404 -0.01397008 0.08183346 -0.07732009 0.08154360 -0.00973678 0.03485574 0.06096495 -0.09367759 -0.00137836 -0.10064219 0.02384920 0.07931633 -0.01125135 -0.05675110 -0.07897150 0.06410793 -0.03618004 -0.06126470 0.06702603 0.05284612 0.01072378 -0.00449799 -0.00934184 0.09065311 0.04339378 -0.00471065 -0.02628443 0.00844289 -0.05825387 0.07964987 0.02490610 -0.00972162 0.04425643 -0.00183171 -0.12636666 -0.11433576 0.12809351 -0.04011215 -0.10533155 0.09047829 -0.10058376 0.06554883 0.07094746 -0.03392442 0.09027246 0.10461148 -0.12807967 -0.08266050 -0.00666253 0.05381047 -0.10038245 -0.11332451 0.12996371 -0.04878037 -0.13162987 0.03546136 -0.07931374 -0.06466754 -0.06855389 0.08423587 0.06791621 0.12859458 -0.06228706 0.05811616 -0.11220207
0.07778208 -0.01621993 -0.01121569 0.11158661 -0.00944189 -0.06532815 -0.06272247 -0.00537919 -0.06222042 0.02669223 -0.11406282 -0.05306190 0.11953422 -0.06610067 -0.13137394 0.06774321 -0.00680962 -0.02326896 0.04724781 0.06252901 -0.09282638 -0.00426553 0.09102724 -0.03091204 0.05551544 0.06643952 0.02287443 -0.07764319 0.11793969 0.06387932 0.00866830 -0.03152440 -0.05316144 -0.00123120 -0.06185063 0.12500514 -0.09563928 0.00016449 0.00143958 -0.02344300 -0.04051631 0.01644252 -0.12524399 0.04972719 -0.05241079 0.01120326 -0.03420071 -0.00995367 0.08293039 -0.07007942 -0.11383913 -0.02731953 0.07061662 -0.11311015 0.05309969 -0.06340626 -0.02105883 0.01509473 -0.06073102 -0.05034984 0.05987046 0.04221997 0.01660989 -0.02841405 0.03290686 0.02116538 0.01187750 -0.03049918 0.06045266 -0.03884009 -0.02856370 -0.05793010 -0.01250233 -0.08887359 -0.10224929 0.08913314 0.11326800 -0.13636316 0.06394204 -0.09025171
0.04375487 0.08231158 -0.08525470 -0.02916624 0.01166303 -0.08699042 -0.04750824 -0.11597370 -0.01231791 0.04117858 0.00912824 0.00309215 0.12677373 0.06514823 -0.08239347 0.05182474 -0.00377099 0.01189088 -0.01050935 0.07487302 -0.04885779 -0.07638595 -0.04709687 -0.09707271 -0.07454631 -0.00403769 0.01266040 0.04770519 0.10394265 0.06078506 0.06487054 0.04730304 0.02168458 0.00252333 -0.07954425 0.02728714 -0.00684726 -0.10981585 0.07450116 -0.04901796 0.05821951 0.02348039 -0.09038224 0.05936661 -0.02848855 -0.07929669 0.01034628 0.03078236 -0.03996621 -0.08197320 0.06021597 -0.01568521 -0.06620125 -0.12026449 0.04681412 0.05610562 0.08293786 -0.11358812 -0.00824474 0.04923670 0.03185035 -0.00254951 -0.12864748 -0.13189091 -0.02398830 -0.01493164 -0.01570644 0.00962985 -0.09817368 0.04541196 -0.05777289 0.00196691 -0.10996643 0.05011522 0.06876926 -0.03079103 0.11672008 -0.05862280 -0.13416590 -0.04255230
-0.09660454 0.04295320 0.03571655 -0.06419298 -0.01152035 0.05175650 -0.04234738 0.06785370 -0.05935735 0.09407919 -0.03348474 -0.11203124 0.00117440 0.03296342 -0.06291090 0.10917485 -0.05847953 0.09657949 -0.00851448 0.05095228 -0.03350639 -0.05412444 -0.07461195 -0.03419055 -0.03656503 0.08163191 -0.05697809 -0.04345466 -0.06088788 -0.01935657 0.00976861 0.08141525 -0.06546567 -0.06877363 0.09744622 -0.08833840 0.06420436 0.01168406 -0.00687105 0.12697272 0.04538127 -0.07145002 -0.07922325 -0.12910812 -0.10278682 0.06318271 0.06970060 0.07996449 -0.12148034 0.09183397 0.12124339 0.02059069 -0.02253277 -0.07299998 0.09436030 0.03321404 0.04971991 0.03374975 0.09513360 -0.13530359 0.03623924 -0.05235438 0.12720361 -0.06478279 -0.04400599 0.06160584 0.05923558 0.01401407 0.01791118 0.05358842 -0.05931805 0.01592336 0.05715123 0.11964214 -0.07163339 -0.06975479 -0.09522634 -0.03421269 -0.04181276 0.00557185
0.01716431 -0.00189277 0.03593352 -0.04078461 -0.08649704 0.03614399 0.01633277 -0.05578590 -0.08424462 0.05528159 -0.01122277 0.00110908 -0.04279159 -0.00758435 -0.02598997 0.11752255 -0.11678371 -0.00453114 -0.01051189 -0.06329352 0.05018034 0.12185640 0.07462946 -0.03200806 -0.02426514 0.07484243 0.07726758 -0.11875784 -0.06898973 -0.03042040 0.01261512 -0.02146617 -0.10569333 0.00623365 -0.00531542 -0.01471365 -0.02368056 -0.02837181 0.08225995 -0.01056647 0.09210413 -0.04421025 -0.02008122 0.02040303 0.00373533 -0.06209281 0.10952411 -0.00994970 -0.01998618 0.00942991 0.10689272 0.00393937 0.04938590 -0.00004845 0.09526362 0.06526560 0.08127481 0.00721599 -0.07189523 0.05481685 -0.11791739 -0.08745084 0.03383039 -0.00043775 -0.09952480 0.11042350 0.03277852 -0.07511891 0.06329940 0.06265724 -0.07078410 0.00354175 -0.06988265 -0.03242888 0.03998787 0.00480263 -0.06160132 -0.01644921 -0.07207754 -0.04761087
0.01317652 -0.01457084 0.05036098 0.08759188 0.07522543 -0.00249633 -0.08813615 -0.05111074 -0.12055916 -0.03520890 0.04018379 0.03310679 0.06884127 0.07521129 0.04028239 -0.03281672 0.11879579 0.03997267 -0.10165428 0.03864501 0.03136200 0.01283885 0.09099059 -0.09464624 -0.00748203 0.07905266 -0.08575118 -0.03649830 0.09350047 0.03506836 0.06580143 -0.03576789 0.08494134 -0.11997155 -0.08381126 0.03989306 -0.07025790 -0.02473675 -0.02650157 0.09002198 -0.05752152 0.01099417 -0.00540581 0.13148250 0.01894354 0.04235160 -0.09765394 -0.09973552 0.07624650 0.04589030 -0.07679236 0.11132452 0.01272126 -0.08647852 0.03638167 0.09061196 -0.05326985 0.05903799 -0.05359085 -0.08036707 -0.07055219 -0.05953052 0.08389220 0.02725322 0.11421525 0.03328581 -0.02177949 -0.05196078 -0.09525323 -0.05937392 -0.03306996 0.07979052 -0.05194328 -0.04215676 0.00204377 0.11655772 0.00628932 0.03682859 -0.09915400 -0.12662350
-0.03639063 0.07339228 0.08619024 0.02281227 0.07547493 -0.03872959 0.03111145 0.11511627 -0.04316524 0.10649238 -0.06948444 0.04872113 0.03750480 0.12020578 0.00962603 0.00533681 -0.08645351 0.12748057 0.01904367 -0.05580023 0.01692977 0.08162237 -0.04160151 -0.06399050 -0.00010739 0.06552815 0.03185532 -0.05727333 -0.00617378 0.01590979 0.11274910 -0.04466142 0.08273585 0.02766008 0.10194956 0.01903825 -0.06502198 0.10045642 -0.02537198 -0.05063391 0.07704798 0.05134566 -0.02548797 -0.08013502 0.07699034 -0.08677009 0.04173658 0.02566201 -0.11081605 0.07477511 -0.07588921 -0.02925251 -0.00318986 0.08966902 -0.00917530 -0.07870097 0.02025726 0.11839386 -0.04128651 0.06571262 0.04145574 0.01313310 0.02249195 0.11672603 -0.02062282 0.04099127 0.03368599 -0.01772286 -0.07667932 -0.03909110 0.08536799 0.09154105 0.03497272 0.13718887 -0.02099415 0.01919961 -0.07930663 0.11211397 0.08781026 0.06287576
0.01605729 0.05534906 0.04555365 0.07414821 -0.04496529 -0.02055583 -0.03339324 -0.08881100 0.00255298 0.06622788 0.04500567 -0.00953386 0.08596217 -0.03105409 0.08477622 -0.12284236 0.04930727 -0.12246031 0.03148641 0.10525186 0.06552561 -0.05728840 0.00742211 0.00501332 -0.06387728 0.07320512 0.05854282 0.08057663 -0.02347712 0.05390617 -0.08154871 -0.11334438 -0.01144592 -0.03603183 0.04768021 0.07069547 0.02177092 -0.05348988 0.06994490 0.08321473 -0.12268069 0.06958739 -0.00709612 0.06430185 0.06575751 0.04094686 -0.02278785 -0.05288744 -0.01517096 -0.09728190 -0.02797736 -0.03815959 0.04558029 -0.10218380 0.07865556 -0.12242501 0.06641430 -0.01814866 -0.12643653 0.05985186 -0.04992254 -0.11370289 -0.01896981 -0.05624560 0.04803844 0.06269014 -0.12609243 0.13586731 -0.05413672 -0.04568483 0.05660799 -0.07067771 -0.08338217 -0.05716249 0.02317664 0.02169094 0.12390694 0.02317350 -0.12682757 -0.10493911
0.01940131 -0.02085792 -0.04929982 0.05206844 0.02774389 -0.07677750 -0.02413135 0.03156522 0.03145756 -0.02549584 0.03176412 0.04666055 -0.09745986 -0.11629704 0.00010721 0.04259087 -0.06021209 -0.07429754 -0.11513247 0.03066614 0.06206487 0.08351324 -0.07361926 0.07712649 -0.05482071 -0.11611857 0.05197795 0.10384160 0.00171850 -0.04329308 0.00399632 0.04987292 0.06063481 -0.07173339 -0.00213662 0.03938172 0.00163013 0.01172925 0.01378826 0.02153476 0.04999527 -0.07433931 0.07848406 -0.01865538 -0.08357891 0.06317896 -0.07978230 -0.11585713 0.00229881 0.09127942 -0.09173957 0.03284537 -0.07337344 0.03450848 0.05830316 -0.02638992 -0.11054870 -0.10066309 -0.09125239 -0.03086192 -0.04600186 0.03705455 0.01613346 -0.09572992 0.02596559 -0.12001595 0.07306480 0.00095473 0.08508537 0.07691026 -0.04750416 0.07776979 -0.10682869 -0.12054221 0.05351889 -0.04639674 -0.07441522 -0.08490291 -0.07359190 -0.10548928
-0.00834191 -0.07654948 -0.01770532 0.05617946 -0.06409234 0.09409295 0.11369488 0.00380941 0.00951075 -0.07854427 0.12292266 0.06873533 -0.03114604 0.08687069 -0.07949300 -0.06539688 0.08467581 -0.08838906 0.00794337 -0.08301475 -0.08399077 0.04183805 -0.03603468 0.04428053 -0.01775065 0.06722624 0.03121286 -0.13533781 0.05212896 0.09130032 -0.06258254 0.05164176 -0.07237941 0.10131208 -0.03319790 0.04725796 -0.05038568 -0.03696019 0.03004013 0.05195327 -0.02621759 0.11113456 0.04883659 0.02910354 -0.08545340 0.04914961 0.04975211 0.08592091 0.08260617 0.09511913 0.13128477 -0.07173376 -0.06937513 0.04353715 0.00319163 0.00495397 -0.06470761 0.02488006 0.02305125 0.04335800 0.03447844 0.04181691 0.10155380 0.00940599 0.07038550 -0.07761044 0.01807716 -0.07293386 0.06799950 -0.00864964 -0.06020658 0.00301539 0.02571637 0.10468041 0.08056680 -0.12648058 -0.06641034 -0.03141033 0.01709539 0.07132424
0.00511135 0.08323433 -0.00017240 0.07515470 -0.03669920 0.04063285 0.02549006 -0.01534507 -0.02585243 0.02304148 -0.00249612 -0.05021172 -0.01690902 -0.09250148 0.00885004 0.07432297 -0.04583267 0.01556799 -0.10495557 0.06857400 -0.09370176 -0.06678674 0.00640510 -0.04020542 0.03974998 -0.07384756 0.02149482 0.07275669 0.04829129 -0.12956354 -0.08411686 -0.04372912 0.01716511 0.01911445 0.05935403 0.04499153 -0.06505781 -0.13074718 0.08296306 -0.02008475 -0.12341568 -0.05856884 0.01609103 0.02018107 0.09145540 -0.04027187 -0.00768870 0.08575676 -0.08007978 -0.01238189 -0.11112902 -0.05363109 -0.09588485 0.03190051 -0.01696964 0.02007388 -0.01188457 0.00876555 -0.11289880 -0.01514812 -0.01283851 -0.10309561 0.02578895 0.04378776 -0.02226494 -0.09972964 -0.07833902 -0.08237407 -0.06664041 -0.05265466 0.01560203 -0.07445372 -0.11644524 0.02794392 0.07121831 0.03000898 0.00188296 -0.07121267 0.01449802 -0.01112214
-0.02830106 0.05819283 0.05335720 0.09584843 0.05495687 -0.08493239 0.08296634 -0.02179882 -0.12495667 0.04427489 -0.09017157 -0.03226873 0.03966473 0.06014118 0.00006806 -0.10517963 -0.05778321 0.01954973 -0.04926951 0.05301812 0.07567862 -0.09576469 -0.07870612 -0.05874277 -0.03180790 -0.06695497 0.09358682 -0.04322947 0.08261295 0.02210505 0.08072856 -0.12395103 0.10007700 -0.05944853 -0.05870978 0.02562037 0.05509222 0.03462920 -0.04828734 0.00626187 -0.02858635 0.00887815 -0.02685331 -0.00407352 0.06960880 0.07428014 0.03781338 -0.05587894 0.02005506 -0.00224933 -0.08510768 0.11651176 0.03557440 0.02544121 0.08418423 -0.03522342 0.05987245 -0.04090155 0.07113530 -0.04277429 -0.09144947 0.03579834 0.01671203 -0.12577136 0.06641130 -0.04725867 0.02536848 0.12336566 0.06772220 -0.01784785 0.04219178 -0.12443151 -0.01656516 0.00761143 0.03903837 0.06504801 0.09286920 -0.01399184 0.01445377 -0.12978822
-0.03077155 0.03227529 0.02575505 0.06136873 0.02366011 -0.11161645 0.01878368 -0.05355158 -0.04054359 -0.03580827 0.07570934 0.12046904 0.07385121 -0.06321499 0.01484978 0.02862791 0.10255989 -0.01330943 -0.12444764 0.06774806 -0.07977954 -0.00854720 0.05754659 0.02452061 0.08234502 0.07830791 -0.11808026 0.02660266 0.05063037 -0.04369438 -0.08011006 0.09056911 -0.04676743 -0.12743880 -0.12195633 -0.03860893 -0.00636665 0.05261389 0.00082984 -0.10867245 0.05860465 -0.03646803 -0.06737670 0.02059198 0.06703736 -0.03548248 0.02192232 0.02697341 -0.05417046 0.07679352 0.05347271 0.01677272 0.04973848 -0.05413309 -0.01850035 0.02576949 -0.10771438 -0.05514074 -0.09357914 0.01511714 -0.02576929 -0.05926019 -0.04664062 0.06569469 0.04576718 -0.13157421 -0.09802733 0.01352382 0.01488926 0.04748330 0.08537592 -0.09664373 0.08052596 0.04629396 -0.10733946 -0.06706839 -0.06888068 -0.01999417 -0.04657744 -0.12992470
-0.04987421 0.08913377 0.00529883 -0.10317992 -0.05168282 0.06086269 0.04227172 -0.02807636 -0.06878991 0.07505826 -0.04066170 -0.11843117 0.08377044 0.06490512 -0.00028225 0.02649853 0.07091275 -0.07684464 -0.00279769 -0.06277435 -0.08749279 0.11702617 -0.08875995 -0.02301793 0.08055447 0.13115813 -0.01327526 0.06847149 -0.02099956 -0.08142881 -0.08140886 -0.03414178 -0.02044681 0.11505971 -0.02750479 -0.03997046 0.06517772 -0.00450329 0.03283152 0.01171871 -0.01889322 -0.04373829 0.13717003 -0.08423328 -0.00722375 0.06063684 0.04323297 0.01137939 -0.04073923 -0.02295733 0.05971741 -0.05509180 0.04604112 0.08116177 0.03053204 -0.03132566 -0.05173528 -0.00196682 0.05537184 -0.01297000 0.09053861 0.09814906 -0.02967361 0.10130269 -0.08220758 -0.01379736 0.10392839 -0.10480183 -0.00888908 -0.06950212 0.03554861 0.10168768 0.12375838 -0.00970568 -0.06383922 0.03377646 -0.09105696 -0.01474525 -0.06924085 0.10848057
0.00346229 -0.00049425 -0.00155131 0.02567390 -0.03723266 0.08805483 -0.08783855 -0.02855873 -0.08348300 -0.09750832 0.04584455 0.09956542 0.06541374 0.01878980 0.06101409 0.05187293 -0.01863629 -0.06661768 0.01901232 0.08885357 0.05696636 -0.01960533 0.09413568 -0.09722301 0.02681095 0.06881531 -0.00506189 0.08845953 0.11066116 -0.10404290 0.05444904 0.04101655 0.07192013 0.03481387 0.05251229 0.05341672 0.04517772 -0.11671327 -0.09372023 0.04319014 0.09082490 -0.05767398 0.06214113 0.00875294 0.06856240 -0.02641288 0.03701228 -0.06131322 -0.07635564 0.03872906 -0.06200811 0.10065824 0.00120173 -0.06555150 0.08963885 0.09070704 -0.07917416 0.02554281 0.01578076 -0.04694489 0.02670521 -0.11585848 -0.00859816 -0.11043519 0.10821930 0.03547964 0.07331637 0.03919546 -0.03480147 0.03843714 0.03425905 0.04497711 -0.03863678 0.08555254 -0.08633426 -0.07772881 0.04241998 0.08335877 -0.00030527 -0.04612242
-0.10446677 0.09519177 -0.09509759 -0.06217580 0.06056550 -0.03812586 -0.05401061 -0.03303822 0.07764761 -0.01801950 -0.00506505 -0.04683934 0.03879602 0.12081665 0.02761837 0.01228943 -0.03123041 0.07666395 0.10209136 0.00190635 0.05944245 -0.01114152 -0.00641835 -0.06912689 0.07383581 -0.02628961 0.00038467 -0.13360794 -0.01234635 0.05927318 0.09184267 -0.00302473 -0.01661168 0.13041939 0.02383740 0.05630658 0.09424392 0.11252056 0.03506449 0.09461363 0.12805331 0.01972965 0.11831971 -0.07093312 -0.05733048 0.07420787 -0.04325528 -0.01933207 -0.01552196 0.03436398 0.02887788 -0.03917904 0.03698586 0.12938482 -0.02098828 0.08487475 0.05360753 0.10120211 0.11185429 -0.03669276 -0.04514261 -0.01918433 -0.00654281 -0.02364095 -0.04777066 0.09070014 0.05667114 -0.07701103 0.05533461 0.03340734 -0.00354765 0.06683220 -0.03594495 0.01880539 0.10531055 0.04621200 0.04112415 0.00919116 0.03567642 0.09650486
-0.00057969 0.07939453 0.06841575 0.03645244 0.06071607 -0.05111544 -0.07908270 -0.09209958 0.10902617 -0.03657980 -0.07039548 -0.00547808 -0.03852854 0.05393925 -0.01208360 0.09583243 -0.12208544 -0.08889261 0.11411732 -0.07027467 0.03696106 0.06313428 0.00410907 -0.05014723 0.03456863 -0.04462976 0.10904315 -0.00576845 0.06380571 0.09948879 0.06896568 0.05463376 0.04441500 -0.04808127 0.10280853 -0.04516630 0.07601402 0.01473039 0.03594315 0.10225396 0.04454636 0.00536626 0.07161043 -0.13446742 -0.02846012 -0.00235364 -0.06469055 0.01258974 0.00816335 -0.08579655 0.11078697 0.04244231 0.10479727 -0.02566781 -0.06062347 0.08795137 0.12887256 -0.03824988 -0.04736100 -0.03207535 0.07806679 0.00382619 -0.08614000 -0.02770532 -0.08103044 0.10698596 -0.06251812 0.06241916 0.04727259 0.01125942 -0.02472415 0.08174767 -0.03921514 -0.01539443 0.11597990 -0.06727383 -0.00565329 0.11178444 -0.06654909 0.03746904
-0.01729672 -0.03876868 0.10339836 0.06311761 0.01173122 0.01187785 0.07380316 -0.01660418 0.08594830 -0.04729603 -0.07294755 0.05405082 0.05756750 -0.06700961 -0.00616701 0.05749914 0.04048608 0.08892219 0.09768738 -0.07421541 0.03048954 0.11752816 -0.07521478 0.09440136 0.05195987 0.03463803 0.12680830 -0.07045010 -0.04945201 -0.06125893 0.11679520 -0.06413577 0.07829444 -0.05802564 0.08419482 -0.07833659 0.08437523 -0.05190472 -0.05621688 -0.01114407 -0.06534164 0.13478635 0.06858964 -0.08478371 -0.10322192 -0.01521407 0.03913996 -0.03014083 0.04515906 -0.03093906 0.05423383 0.05814878 -0.05738429 -0.06390931 -0.08793540 0.04223829 0.11276012 -0.04296989 0.00437740 0.04510120 0.06804824 0.08384766 0.05828426 0.04017933 -0.01048534 0.12142308 0.02489656 0.02097048 0.01172551 0.11085524 -0.09364466 -0.01408260 -0.08181785 0.05532428 -0.00695395 -0.11697205 -0.10433917 0.05431719 0.10654284 0.11631326
0.06536848 -0.10101029 0.08457741 0.11381763 -0.00576088 -0.11159895 -0.06592303 -0.10143324 0.01509339 0.08046885 0.05164717 -0.05428199 -0.04767211 0.02356861 -0.05724132 -0.00486794 0.03694772 -0.05293561 0.03860738 -0.01277657 0.08454533 -0.09610412 0.07722802 0.07240202 -0.10427266 0.01267102 -0.02721019 0.05670204 0.08180452 -0.06514364 -0.06741380 -0.07890517 0.08043931 -0.10470379 -0.06883498 0.10293953 0.04080150 0.06650711 0.07907619 -0.09894605 -0.03254619 -0.02298700 0.09501803 -0.02725553 -0.00643444 0.05858564 0.05596879 -0.07234921 -0.08833757 -0.05430714 0.03547867 0.10844763 0.03290126 0.05899126 0.02002278 -0.02984587 -0.02368137 0.08092670 0.00719669 0.02760180 0.06642763 0.07453106 0.02933287 -0.01123846 -0.04264642 -0.08019660 -0.05603808 0.09312582 0.07072955 -0.06235733 0.07724484 -0.03099866 -0.03375161 0.02286903 -0.10602544 -0.06070594 -0.01535462 -0.04126700 0.05380083 -0.02674710
-0.10738649 -0.07735655 0.12232216 0.03543044 -0.09000379 -0.06679665 -0.05145251 0.12285431 0.08444320 0.06516671 0.08317215 -0.00225279 0.05977555 -0.06908240 0.10780196 0.06218147 0.01659835 0.09462184 -0.00122801 -0.07719510 -0.00982039 -0.06010345 -0.00550190 0.08041578 0.04541028 0.02672409 0.05946742 -0.12667263 -0.09342495 -0.07487437 0.13485090 -0.08140247 0.03064868 0.10536616 -0.01009929 -0.04125617 0.07817590 -0.06788933 -0.09404540 0.00581287 0.01115105 -0.01618361 0.03685735 0.03467980 0.03988223 0.05521967 0.10249244 -0.02973704 -0.01296616 0.06221991 0.05838236 -0.06367041 0.08211976 -0.06133043 -0.03535284 -0.08488861 0.03925778 -0.05743398 0.09989298 -0.10050512 0.00953565 0.12277615 0.12547965 0.05993428 0.02054779 0.04447238 0.08677194 -0.03142819 -0.06260549 0.12183218 -0.06792417 0.13134341 0.03239335 0.08130255 0.02273607 0.02176626 0.05623976 -0.08210291 0.08741387 -0.01484257
-0.10387365 -0.06571147 0.03156224 0.06621752 -0.08498573 0.04993657 0.04852398 -0.08523785 0.04337832 -0.03080519 0.04726126 -0.05839683 0.07422324 -0.08515348 0.07408968 -0.03192026 0.00707495 0.03614810 -0.08472642 -0.07186626 0.01630605 0.02261401 -0.04160174 0.08300199 -0.03414835 -0.03385744 0.07422607 -0.03079797 0.01827753 0.08840826 -0.02487131 0.05202804 0.06430946 0.04094985 0.11460583 0.03010470 0.06820232 0.10241534 0.05067915 0.04892459 0.07611968 0.09207885 0.02980269 0.00017313 -0.05953440 0.01526203 0.07563084 0.01093877 -0.05343655 0.05072396 0.01467477 -0.00929670 -0.00327012 0.01817603 -0.01148405 0.11280787 -0.05558643 -0.06095563 0.00576745 -0.01144252 0.05686091 0.05086484 0.01706452 -0.08603796 -0.07038335 0.05147549 -0.01768056 -0.08721478 0.02898432 0.09599283 0.00259783 0.10270006 0.11696239 0.02671468 0.13854143 0.01701039 0.02022083 0.06036044 -0.08475348 0.06497410
0.10789249 0.00155640 -0.00591802 -0.00510186 -0.08456487 -0.01068387 0.02638279 0.02365609 0.07872172 -0.09325122 0.07987394 -0.00391695 -0.01534255 -0.07575839 -0.09264667 0.01472194 -0.00534912 -0.00207976 -0.12790948 -0.01289064 0.03646962 -0.07819806 0.08628733 -0.09594613 -0.08835052 0.04472509 0.07956385 0.07417652 0.07664677 -0.10102342 -0.00171694 -0.02628467 -0.03242717 -0.00062247 0.02595604 -0.05480117 -0.01961082 0.00567681 0.09081656 -0.11104386 0.07370324 -0.03868157 -0.00292047 -0.07173767 -0.08109774 -0.07894759 -0.03049734 0.00261190 0.11863691 -0.04246316 0.05669807 -0.07149305 0.04051742 -0.12054010 -0.09043846 0.04607104 -0.09859607 -0.08967537 -0.08605489 -0.00529942 0.07186216 0.03346692 -0.10643604 -0.01044219 -0.07346858 -0.11856139 -0.04899329 0.01292426 0.03415409 0.02595999 0.01902655 0.06400371 -0.03877253 -0.03896676 0.08877443 0.03341914 0.09340549 -0.07801051 0.04916276 0.04688892
0.06567972 -0.04765258 -0.09396052 0.00642902 0.00543275 0.12219506 -0.01937168 -0.02904076 0.03965887 -0.06233628 -0.07332129 0.05177193 0.00730123 0.04149213 0.00096057 0.07213930 -0.05924069 0.05597826 0.05606266 0.00584083 -0.05583619 -0.08070395 -0.03910008 -0.07403918 -0.07363920 -0.00902554 0.00376825 -0.00715776 -0.07590429 -0.05051764 -0.00732553 0.08194764 0.03847731 0.12807284 0.07115270 0.05805002 0.01371255 -0.04627351 0.02020391 0.11787695 -0.01506287 0.02481761 -0.07258776 0.06257638 -0.10904669 -0.02855440 0.02289077 -0.03392579 -0.01817772 -0.03712651 0.12868053 -0.08675636 0.02778343 -0.08383218 0.01208104 0.09484524 -0.04542986 0.00599681 0.01487136 -0.02859421 0.00344631 0.11237334 -0.01092540 0.05711527 -0.10947970 -0.04270313 -0.06025986 0.00385638 0.02633518 0.13120048 0.02416208 0.01072483 -0.01967211 0.03970224 -0.03407658 -0.00711050 -0.04345951 -0.05015700 0.02834224 0.06354675
-0.03861382 0.02003156 -0.09900922 -0.05086252 -0.08919068 0.12858388 0.10021438 -0.07816670 -0.06444943 -0.06909704 0.08199481 0.00351351 -0.12034003 -0.01610068 0.10115892 0.00809869 -0.11728052 0.06021359 0.12908465 0.08004189 0.02406105 -0.00820253 -0.00066976 0.10308308 0.07086386 -0.06402104 0.07382733 0.04959599 -0.11199240 -0.05800614 0.09796774 0.07445233 -0.11551195 0.05415604 0.08604579 0.00137911 0.05378176 0.05843577 0.01792272 0.08498924 -0.01461793 0.02778430 -0.00086909 -0.04349515 0.02607332 -0.02276389 0.01517123 0.11320195 0.01871190 0.13257793 0.01414041 -0.06147087 0.09462833 -0.04773624 0.04233655 0.11437745 -0.03923831 0.00452818 0.11934917 -0.03303203 -0.11512775 -0.04073701 -0.08419397 -0.00311923 0.04435186 0.00788495 -0.00150237 -0.01204281 0.01289288 0.00151196 -0.02876138 0.03391390 0.01748420 0.01192913 -0.01075836 0.00491017 -0.05968503 0.01468169 0.00415717 0.09782764
0.02986660 0.06106383 0.00702472 -0.08004794 0.01471795 -0.06740511 0.01213097 0.12331770 0.00158694 0.12610762 -0.05757544 0.07054595 0.02965534 -0.03440750 -0.09690985 -0.04234505 0.03953148 0.12562640 -0.07623538 -0.06812923 0.02914170 -0.00854581 -0.07809994 -0.02127576 0.05424589 -0.08442170 -0.03073666 0.04579121 0.04104189 -0.03110416 0.12144791 0.02841109 0.03888299 0.00996157 -0.02843972 0.07987795 -0.08642750 0.05830672 -0.03405669 -0.01964778 0.10470626 -0.08008729 0.00679192 -0.05780645 0.06966320 -0.06814018 -0.00521744 -0.03228403 0.06901193 0.10702916 0.01691890 0.02832275 0.09550206 -0.07696600 0.00065921 0.11755328 -0.00933561 -0.06103184 0.11316741 0.08550216 0.05362556 0.10097845 0.00682282 -0.06462493 -0.11136851 0.06539717 -0.01653154 0.09250975 0.01277455 0.09041946 -0.00007232 -0.00991218 -0.02289060 -0.07219858 -0.09546283 -0.04353990 -0.10943373 -0.09500317 0.07253584 -0.03565846
0.02006222 -0.04747220 -0.09701142 -0.02054419 -0.07487182 -0.00402547 0.08556405 -0.04638475 -0.00650530 0.03695806 0.03022705 0.03004818 -0.02023561 -0.04135198 -0.03360952 0.10187852 0.03360314 0.05098877 0.04471804 0.11497398 -0.00183680 -0.02120836 -0.01738366 0.04988204 0.05981742 0.05739369 -0.11517513 0.03185996 -0.05020996 -0.09517507 -0.12003591 -0.05960083 0.11841414 0.03854060 -0.09700176 -0.00088165 0.02892193 0.04266831 0.06446895 -0.07962643 -0.06949614 0.03238702 -0.00265826 -0.03370072 -0.06657099 -0.02793229 0.07291178 -0.06386059 0.00347262 0.01855148 -0.11385746 -0.02315482 -0.00668029 -0.07433289 0.06849810 -0.03672101 0.02252210 -0.04870471 -0.03219620 0.12682405 -0.07090071 -0.10000093 -0.06374367 0.00104101 -0.01429496 0.01159151 -0.07214241 0.06371659 -0.09461197 -0.01789449 0.04511215 -0.00172101 -0.07441065 -0.07052570 0.00587025 -0.05217087 -0.06870199 -0.02352646 -0.11773815 0.00448181
-0.09023987 0.08005181 0.07751904 0.07719103 -0.04898207 0.02849780 0.10800408 -0.00863696 0.06181815 0.08693822 0.02189614 -0.05931972 0.01157961 0.04949884 -0.06881905 -0.03131631 -0.11078407 -0.07280190 0.10067109 0.05631580 -0.05414880 -0.08534227 -0.07479485 0.07407884 0.11609272 0.01229697 -0.02323365 -0.11345010 -0.02167414 0.08304156 0.07582198 -0.02971445 -0.06400342 0.04361205 0.07326439 0.06985912 0.02916884 0.09207498 0.07373380 0.01773802 -0.00122145 0.09448010 0.03769493 0.08351621 0.04288303 0.04631768 -0.08137257 0.08745480 -0.05723764 0.00330548 0.06990482 0.00946990 -0.00664576 0.01654161 -0.06637466 -0.02665068 -0.00377330 0.02818190 -0.00943183 0.03755561 -0.02342923 -0.04844211 0.05222746 -0.01746118 0.06185773 0.01994564 0.11670283 0.07527444 0.10198762 0.03366617 0.06754113 0.01922175 0.06106573 -0.02396788 -0.07101705 -0.11029520 -0.12399219 -0.00394520 -0.07441258 0.10665424
-0.10475817 0.10477601 0.03808871 -0.09495328 0.08858621 0.05576443 0.00682044 0.10992516 -0.07076564 0.10878852 0.00968344 -0.01761430 0.02113967 -0.02505186 0.01782737 0.09117474 0.02432827 0.07677910 0.11555991 -0.09577955 -0.00074687 0.11692462 -0.02717302 0.05440985 0.06853341 -0.07104722 0.01809260 0.07889545 -0.03857708 -0.08690999 -0.07858475 0.03602508 -0.05496972 -0.04977053 0.11176555 -0.08629700 -0.06123708 0.09455240 0.06771016 0.06010903 0.13673702 0.03212996 0.11165524 -0.09074661 -0.11078042 0.03494342 -0.05134867 0.01828885 -0.03088979 0.04165283 -0.00566735 -0.03100347 -0.08033458 -0.02331579 0.03909326 0.11912206 0.12361863 0.05028355 -0.00171651 0.06027963 -0.01469426 0.02121516 0.02726500 -0.04733789 -0.05183650 -0.07641554 0.01123314 -0.13105626 0.02456718 0.02253798 0.02422901 -0.04754581 0.02507868 -0.00150344 -0.04757460 0.06168014 -0.13000655 0.10232997 -0.00442150 -0.04042976
