# Matrix shape: (32, 64)
-0.08538572 0.03196336 0.05311948 -0.03827017 -0.04664387 -0.08360872 -0.02802438 -0.00556687 -0.13175496 -0.04356021 -0.04309665 0.02469402 0.10385769 -0.12598391 0.02661280 0.02481782 0.01199049 -0.04764410 0.05544791 -0.11026360 -0.02696008 0.01780371 -0.03900520 -0.14087532 0.04547556 0.09468143 -0.12728840 -0.01768896 -0.12753621 0.00008089 -0.00656215 0.13220190 0.10890815 0.08037838 0.03969818 -0.12743278 -0.01847338 0.13409787 0.02810836 -0.04951520 -0.06424242 0.08075641 0.06348766 0.01191625 0.05695153 0.06940223 0.10677049 0.08458874 0.10647079 0.02341264 0.02568775 -0.14554612 -0.04582569 -0.05875023 0.04754161 -0.05631271 -0.13766368 0.11604846 -0.07245408 -0.13895215 -0.03905194 0.04653867 -0.06338088 -0.14579415
0.04536817 0.06213704 0.13906185 -0.14548473 -0.04442298 -0.06798980 -0.03523371 -0.01921801 0.09686032 -0.03507913 0.08354190 0.03937794 -0.05400969 -0.03335159 0.04768260 0.05223227 -0.06432513 -0.02725885 -0.12179086 -0.10153817 -0.00951261 0.09576904 -0.01303251 0.04869439 -0.12607512 0.04653169 -0.11746184 -0.05461407 0.07956273 0.02816643 -0.11510182 -0.09949397 -0.01665114 -0.03297437 -0.09268631 0.05617058 0.02447356 0.00360075 0.11449127 -0.13989595 0.01870945 0.11313032 0.01169904 0.08999120 -0.02383977 -0.14048775 0.13999566 -0.10416046 -0.02974727 0.09105255 -0.06833636 -0.04739255 -0.08552112 0.00390488 -0.02534223 0.02608461 0.09815069 -0.08230757 0.06337849 -0.05184172 -0.11161880 0.07483482 -0.10465011 0.05247359
-0.01786376 -0.06139855 -0.08597703 0.00483719 -0.14129268 0.04823188 0.05584992 -0.12810200 0.04555886 -0.12065505 -0.01089890 -0.01386319 0.09481175 -0.12714285 -0.05611585 -0.06617016 -0.03375727 0.00058117 -0.09556170 -0.00503575 0.02928988 -0.04203792 0.00879042 0.07433830 0.04241249 0.06136751 -0.07160156 -0.10864317 0.05209782 0.04236641 -0.01191185 0.08740152 -0.03632461 -0.10793018 -0.06233703 -0.12940800 0.09990663 0.09904987 -0.03924010 -0.04960293 -0.04743706 -0.03013282 -0.10108371 0.06244493 -0.02355117 -0.10433429 0.04674790 -0.03010356 0.04608774 -0.02709018 0.03183469 0.05952858 -0.13138872 -0.08107409 0.14240922 -0.01514447 -0.04439075 0.11045223 0.09021985 0.02336086 -0.08545864 0.13985109 -0.13433236 -0.14530051
0.02065314 -0.02436804 -0.09602743 0.07690326 -0.00428514 -0.08595833 0.05194473 0.07078194 -0.03143659 0.07178587 0.05550925 0.04162456 -0.05704707 -0.11519388 -0.01689750 -0.05284507 -0.13354538 -0.12742828 -0.09526113 -0.01785654 -0.03435760 -0.08540684 -0.04051362 -0.07077289 -0.04941729 0.09501528 0.05750922 0.06487938 0.10417803 0.02966404 -0.08676260 0.00898486 0.03941738 -0.03032983 0.12141322 0.05507147 -0.07048791 0.03261309 0.02866353 0.01915450 -0.10316534 0.14142545 -0.05756539 0.06822666 -0.04411340 0.02154514 -0.02160715 -0.04855776 -0.09233464 0.02364597 0.00833204 0.01754176 -0.08833961 0.00676014 -0.03384338 0.01575611 0.09430951 -0.09471508 0.03215633 -0.09893769 0.05037696 -0.00861249 0.03190699 -0.11254577
0.09188230 0.08474278 -0.06299172 -0.11032880 0.04741402 -0.11861342 0.05686226 -0.08387088 -0.13184252 0.01661289 -0.07614967 -0.06025170 0.04849253 0.03628941 0.08423550 0.10033593 0.02021763 -0.04826355 -0.03887231 0.07225735 -0.07350509 0.11124591 0.03674443 0.03049994 0.01665814 -0.08266812 0.03336039 -0.02576639 -0.02104302 -0.03490600 0.06869391 0.00289150 0.02232159 -0.09054559 0.11951301 -0.12779193 0.09951652 0.07779193 0.03711887 -0.14269482 -0.07897967 0.01247994 -0.10799255 -0.01730561 -0.00747332 -0.06200702 0.11033384 0.13444719 -0.03455363 0.04212667 -0.00059946 0.06866612 -0.13060516 -0.08369772 -0.00512952 0.09930750 0.07504798 -0.02206747 -0.09578552 -0.08299357 0.02841274 0.04896359 -0.08447151 0.01396408
-0.03914681 0.07300696 -0.05426606 -0.06690702 0.03209885 0.01583027 0.08099230 0.12530096 -0.04286811 0.11997952 0.06342614 0.10196315 0.01861305 -0.01586534 0.01642238 0.00764738 -0.08724411 -0.01835213 0.11006717 0.02772508 0.02580990 0.00919630 0.02927542 -0.08861893 -0.01726416 -0.03462705 -0.02366515 -0.06562570 -0.00856958 -0.01004048 -0.02751548 -0.03598250 -0.04267665 -0.01739095 -0.10556305 0.12152465 -0.07203320 0.05817666 -0.12584093 -0.00250581 0.00650858 -0.11130335 0.02871770 -0.09828929 0.03552838 0.08349344 -0.02333923 0.01864105 -0.06524544 0.05244348 -0.13073383 0.12843065 -0.00470215 0.02883494 0.10353901 -0.09681166 -0.05554952 0.00101293 -0.12304797 0.03075565 -0.00239625 -0.12107369 -0.02839635 -0.08919340
0.01598294 0.10619085 0.14189039 -0.13895506 0.02372051 -0.11670373 0.05251632 0.04675463 -0.13888514 -0.11237047 -0.13568243 0.01050558 0.05704798 -0.11316542 -0.02494947 -0.06537730 0.09039415 -0.12669216 -0.08676856 -0.02324765 -0.07376838 0.11764527 -0.13574681 -0.05784349 -0.07425251 0.01994178 -0.07594655 0.07156364 -0.13024437 -0.04282429 -0.07886280 -0.09573041 -0.10271626 0.06032947 0.14123361 -0.03146638 -0.02635310 0.07763831 0.09166549 -0.13382171 -0.08106096 0.12638830 0.04030777 -0.09293491 0.02310864 -0.11760249 -0.07336492 -0.04196375 0.14546126 -0.09445278 0.07743663 -0.13624120 -0.03014533 0.09131448 -0.00817052 -0.06379372 -0.07913754 -0.07863445 0.02139657 -0.11169556 -0.06645481 0.12922485 0.07181954 -0.08658738
-0.00371254 -0.04973159 0.06876938 -0.08761737 -0.08935352 0.08401763 -0.00156925 -0.01199270 0.08612601 0.07589387 -0.05911527 0.04659357 0.05891845 0.00647231 -0.08866116 0.07756688 0.10027272 -0.10990565 -0.09617398 0.00952266 -0.13539608 -0.08644117 0.12123457 0.04334515 0.10033652 0.00597636 0.14085007 0.07209799 0.06230826 0.06871057 -0.02573655 0.08097807 -0.01186300 0.09497342 -0.10051955 -0.07029907 0.06597647 -0.09812025 0.00448408 0.14285137 0.04740140 -0.11262253 -0.05954351 -0.09473931 -0.10953560 0.09274846 -0.00743088 -0.03502992 0.01072010 0.09819509 0.01836775 0.10638752 0.00730624 0.07260997 0.00299372 0.02418771 0.11709350 0.10680832 0.12382383 -0.00797152 -0.05508729 0.07946717 -0.03270626 0.03740218
-0.07141253 -0.04374069 -0.06580851 0.09749958 -0.03610513 -0.03623142 0.04471950 0.01251838 0.02945454 -0.07377832 -0.03391829 0.04322616 0.04911474 -0.09582080 -0.07225892 0.05486253 -0.07811444 -0.05674153 -0.05562387 -0.07593717 -0.08239499 0.06884938 -0.09682886 0.09789634 -0.09018883 -0.05228934 -0.02774298 0.09510156 -0.08165146 -0.08224479 -0.10363290 -0.05793683 0.03109673 0.10458049 0.08738104 -0.02357947 -0.08587637 0.00797117 0.06682156 0.13077401 0.10445255 -0.01978152 -0.08974171 -0.09594126 0.05972392 -0.08634406 -0.11249819 -0.09620509 -0.05226448 0.07768775 0.09565421 0.11658157 0.07695793 0.04743328 -0.04923573 -0.05838387 -0.04213012 -0.01286808 0.12304661 -0.02702411 -0.03061294 -0.02122038 -0.03797013 -0.04098336
0.03954919 -0.07506018 0.01542227 -0.05230193 0.00678736 -0.03652446 -0.05747767 -0.05986443 -0.05085742 0.03100454 0.00486027 -0.01651537 0.10929177 -0.01043459 0.05143091 -0.06946234 -0.12907422 -0.13273413 -0.05914340 0.05491723 0.10230763 0.05957053 0.01439508 -0.10152156 -0.05891442 0.03631686 -0.12574358 -0.13196969 -0.11753998 0.06194637 -0.03755917 0.00174154 0.09910831 -0.06737174 -0.05374629 -0.04103877 0.09919893 0.04310085 -0.08966355 0.06675415 -0.09397792 0.11833818 0.03030350 0.05595484 0.12436444 0.02296028 -0.09987704 0.06986244 0.14270537 -0.07434613 0.08311507 0.07830573 -0.05107491 -0.02162663 0.00374354 0.08978207 0.02843338 0.10034111 -0.13060613 -0.07132930 -0.08139653 0.04806526 -0.07005979 0.01494440
0.05967363 -0.04835701 -0.00985593 -0.06881879 0.00746484 0.04177997 0.08150560 0.07384116 0.05417147 0.08816957 0.12256225 -0.01165651 0.10784675 -0.05345073 0.06018650 0.02380697 0.11689821 -0.10597443 0.07911371 -0.08419756 -0.06203281 -0.06294052 -0.01963047 -0.04192910 -0.07823268 -0.13165826 -0.00775052 0.12135442 -0.00947728 -0.10893949 -0.01313528 -0.12797585 -0.02932665 0.08514746 -0.14671214 0.08103067 0.06930014 0.06581397 -0.09316719 0.03760828 0.09271296 -0.12935671 0.11229687 -0.03357836 -0.13266084 -0.00781046 -0.02088435 -0.07280546 -0.07344102 0.01089610 0.05089450 0.08068831 -0.09936372 0.01501565 0.00930656 0.12274906 0.08748756 0.07215261 0.05779918 0.00984218 -0.08269490 -0.07393724 0.06303063 -0.00359746
0.13331762 -0.06663833 0.08341257 0.08585264 0.07844465 0.09813273 -0.08103521 0.07802234 -0.12156055 -0.06135061 -0.01514916 0.10049098 -0.01427372 -0.09425183 -0.10458744 0.00641172 0.01320185 0.01572266 -0.04139804 0.04752002 0.01113375 -0.03890549 0.07016081 -0.08258710 -0.06259608 0.02905955 -0.04645283 -0.00710589 -0.04044355 0.06948954 0.11318945 0.10302424 0.02765924 -0.08642339 -0.04736851 -0.06751636 -0.02806728 -0.06426509 0.08142089 -0.11308681 -0.00571278 0.08686411 -0.11356971 -0.02601022 0.06958347 -0.03979130 -0.06477277 0.06134606 -0.09259196 0.12645693 0.12256478 0.01097973 0.02659167 -0.05773281 0.02417850 -0.09170169 -0.03306067 0.11255378 0.04123950 0.09613120 0.07313986 0.11451634 0.03732338 -0.08542163
-0.10843063 0.09229572 0.12537633 0.10032529 -0.10636888 0.09308461 -0.03660114 0.00988897 0.06617939 -0.11922716 -0.14421043 0.10601073 -0.10426933 0.03840661 0.05492133 0.06873195 -0.02074502 -0.04467565 -0.00169693 -0.04005389 -0.09358121 0.05157201 -0.09497792 0.07431997 -0.08164073 -0.00265223 -0.11416532 0.09634008 0.04911379 0.13332045 0.05071279 -0.05266125 0.14011502 0.00014331 0.13916969 0.00448139 0.10200994 -0.02582340 0.06764596 -0.02312491 -0.12176720 0.11837471 -0.08385608 -0.05900661 0.12208126 -0.13835923 0.06710902 0.12270460 0.00218607 -0.14136840 -0.10952026 -0.02964519 -0.04206640 0.06437794 0.12076515 -0.09865069 -0.05749902 -0.08587755 0.00802063 0.07021339 -0.02938483 0.02551962 -0.03166602 -0.13035505
0.12632297 0.04153672 0.14082719 -0.13123940 -0.05781529 -0.05391285 0.04911050 -0.05419951 -0.09217010 0.07975989 0.07406787 0.14702113 0.08690225 0.06025355 -0.09983938 -0.01313279 -0.06274521 -0.02374266 -0.00764645 0.00744615 -0.04981136 0.00159396 -0.07912564 -0.05017510 -0.10315025 -0.04373893 -0.10434849 -0.10638168 -0.03142089 -0.08261491 -0.14125869 0.11191145 -0.06825401 0.10424463 0.03264447 -0.03112447 0.11938779 -0.07402503 0.07827011 0.06126587 0.07784577 -0.09540209 -0.00974713 0.00774619 -0.07122277 0.06189710 0.00176538 0.10532247 -0.04540704 -0.07836000 0.03871268 -0.00730817 0.04960443 0.03109764 0.12063370 -0.11332353 0.00391750 0.10501183 -0.07612145 -0.09925850 0.13625006 -0.08351336 -0.11252354 -0.12751010
0.03433147 0.04397791 -0.08738731 0.05487907 0.01534351 0.02223534 -0.11420532 -0.13593651 -0.12216147 -0.07304768 -0.13426973 0.08512665 -0.00616687 -0.07034230 0.09217381 -0.00484428 -0.00640137 -0.08187262 -0.05382394 -0.12716220 -0.05332788 0.14520450 -0.10199486 0.05145001 0.06451933 0.10233200 0.08617748 0.08946044 0.04491384 0.01594053 -0.05334238 -0.09601626 0.08662260 -0.01254120 0.04268694 -0.04017701 0.10242723 0.02645987 0.10725096 0.07224704 0.01769242 0.01005594 0.04283127 -0.05101772 0.10801690 0.07433874 0.03923752 0.00700331 0.05190376 0.08811833 0.02087885 -0.08569793 -0.04788698 -0.14416029 0.01596845 -0.13428029 0.00467412 0.02730339 0.09834347 -0.05740193 0.00630456 0.01974963 -0.06665663 -0.06517572
-0.05626787 -0.06742054 -0.00932680 0.07075863 0.04624368 0.12089344 -0.02369498 0.05908069 -0.08316083 0.10105030 0.12764664 0.02510924 -0.09231143 0.01739306 -0.08704739 -0.09109062 0.11811195 0.07077117 0.11236036 0.10327151 -0.04394820 0.03590988 -0.03790990 -0.08367984 0.00316256 -0.09543316 0.13363075 -0.08297237 0.13995129 -0.04487607 0.04467749 0.08458265 -0.07967882 -0.06310918 0.02769781 -0.01873846 -0.00685622 0.05517631 -0.01247527 0.10733238 -0.03298770 0.02940521 0.02788186 -0.11983998 -0.03557561 0.07238185 -0.10079345 0.08519158 -0.09211745 0.09113429 0.02237401 -0.04926616 0.11637115 -0.00615573 -0.04006041 -0.01469167 -0.09963544 0.06158978 -0.03703213 0.09615570 0.04615709 0.04648504 0.06644434 0.06206262
-0.10946456 -0.02122958 -0.07479470 0.11672223 0.06931623 0.02372775 -0.12125120 -0.09272044 -0.08468250 0.10971168 0.10193974 -0.13309316 -0.11897282 0.12567341 0.06732218 -0.05676262 0.00869849 0.08928662 0.08355352 0.01727133 -0.07575221 -0.06359865 -0.01630796 -0.05995405 -0.06041877 0.06728334 0.03743031 0.05931777 -0.06806768 -0.00007241 0.13312203 0.04459709 -0.02685641 -0.07387390 0.09674915 -0.04088834 -0.05772614 -0.01715406 -0.05357657 0.01684071 -0.00791580 -0.09502315 0.01665914 0.02825302 -0.14298229 0.06673875 -0.00532044 -0.10063791 0.06996516 0.10418142 0.04826057 -0.02698007 0.05141582 0.07964557 -0.03857917 -0.03294343 0.02638942 -0.11720248 0.10686857 0.03298565 -0.06790657 -0.00886370 -0.04424351 0.00209610
-0.07638258 0.04758075 0.08322076 -0.06051291 0.04658959 0.06834981 -0.10442611 -0.10267990 -0.00819686 -0.08871125 0.05941046 0.13138303 -0.05920565 -0.00594248 -0.00861396 0.08331630 -0.12287256 0.03117061 -0.10616235 -0.12849709 0.13447677 0.09453892 -0.14418043 0.05743108 -0.11142615 0.12668563 0.00394141 -0.05793022 -0.01075387 0.00035245 -0.02178006 -0.06229253 0.08273836 -0.07051468 0.03189301 -0.10274792 -0.04582960 0.03708774 0.02909770 -0.13484375 0.01276636 0.06063035 -0.07297376 0.03722618 -0.04570855 -0.13072237 0.00207448 0.10243628 0.02575259 -0.11063769 0.08872705 -0.04235099 -0.13147844 0.01973968 -0.08277489 0.06056375 0.00148646 0.04803397 -0.12824960 0.01268887 0.00147474 -0.00665712 0.01448041 -0.13354294
-0.09295744 -0.12772116 -0.06658586 0.07704388 0.08911419 0.05236577 -0.05743894 0.02668887 0.06870555 -0.03397705 -0.09560228 -0.04723390 -0.06073561 0.10261419 0.05848071 0.03943543 0.07585477 -0.09867109 -0.04844241 -0.08040826 -0.05359602 -0.10940185 0.01524385 -0.04003101 0.06014896 -0.12688802 -0.04918740 0.10444507 0.11147530 -0.00933324 -0.03607777 -0.13312246 0.06620136 -0.01351100 -0.04453648 -0.00121788 -0.05246719 0.04451716 -0.09801396 0.01346147 0.10249411 -0.04805800 0.08166929 0.00867822 -0.12671810 0.03708144 -0.03347316 -0.10043716 -0.07958255 0.12649575 0.08208524 0.14000209 0.13870737 0.05124387 -0.05922765 0.08020797 -0.04257410 0.08675196 0.13016284 0.12300570 0.07030100 -0.06849982 -0.02924275 -0.02413185
-0.10720494 0.13272657 -0.04159842 -0.02417680 -0.05620387 0.01125223 -0.09659007 -0.01867965 0.08401345 -0.06649046 -0.00046923 0.07536338 0.11248679 -0.14235055 -0.07234968 -0.11432641 -0.11412153 -0.08563028 0.02269808 0.07383393 0.03244016 0.03269565 -0.03486002 -0.13898908 0.10103999 0.07130233 -0.12429558 0.01020669 0.06248600 0.10044892 0.08979481 0.13393693 0.12374519 -0.00903700 0.05802028 0.03046337 -0.08339541 0.06535437 -0.05747451 0.09882013 0.06341144 0.13380849 0.09022464 0.13728818 -0.10075444 -0.12947826 -0.08246412 0.12064257 -0.04367362 0.06136240 0.04126186 0.09943189 -0.08394131 0.00052072 -0.08205557 -0.12279852 -0.14146876 0.08584954 -0.05466257 -0.01156113 0.11361687 0.08776294 0.01695875 -0.09000457
0.06854070 0.10269032 -0.14002013 -0.00361554 -0.07362337 -0.00965744 0.01911618 -0.09439486 -0.06609979 0.07078627 0.12568939 -0.07322499 0.05540619 -0.07533772 -0.03132037 0.11725093 0.00831384 0.06578603 -0.05668033 0.06403928 -0.05236796 -0.02538947 0.06838413 0.05069963 0.11010044 -0.02962343 -0.02072994 0.11233126 0.02233935 -0.12967046 -0.06071713 0.05219978 0.03744842 -0.07669128 0.06480001 0.07420658 0.03126369 -0.01795200 0.04047867 -0.00546943 -0.08457916 -0.05457495 0.04131859 -0.08732633 0.02760858 0.13877580 0.02555186 0.05951767 -0.03469426 0.01843584 -0.02769659 0.13306426 -0.07077426 0.07742053 0.02851246 0.13701227 0.00989150 -0.06705166 0.14212942 -0.06622857 -0.01226370 -0.09868330 0.11216050 0.10581478
-0.07007354 -0.02265446 -0.02368342 -0.09484570 0.13556121 0.07224045 -0.00814176 0.12739122 0.08236423 0.07792886 0.07477450 -0.06533564 -0.11158610 0.06751597 0.00690666 0.08480167 -0.06753466 0.02356544 0.11050514 0.04333764 -0.11132757 0.01609128 0.14429130 -0.02041194 0.00075324 0.05255233 0.09704084 0.06357734 0.04705675 0.07025618 0.13838683 -0.13477394 0.05903235 0.07859171 0.04637362 0.06156182 0.02100751 0.07217377 -0.00202908 0.13415648 0.00207310 0.04644878 0.11383851 -0.01677823 0.07436036 0.10209492 0.02350393 -0.06630805 -0.11470966 0.07153065 0.08229726 -0.08960592 0.01904995 0.02144439 -0.04614931 0.09374830 0.13081299 -0.05511720 0.06890126 0.11312804 -0.02275307 0.04691308 0.14222474 0.01179252
-0.11437115 -0.09782346 0.12388237 -0.10166328 0.09545682 0.00484687 -0.08886746 0.10118748 0.07695346 -0.05682419 -0.04524332 -0.04893059 -0.05589292 0.01211262 -0.02265085 -0.10394170 -0.04852495 0.03773759 0.01526807 0.00606502 -0.05781946 -0.03708841 0.01524189 0.06637257 0.00255797 -0.07558224 0.02969927 -0.09532259 -0.13762689 0.11023323 0.05320607 0.00158413 0.09775919 -0.03243288 0.06169811 -0.13299714 -0.03918994 -0.00333886 0.04306795 0.03815963 0.00007795 -0.04328544 0.08360104 0.09474070 -0.05191050 -0.01635880 0.13783905 -0.02419774 -0.10375892 0.07098245 0.04298387 0.04411413 -0.00333373 -0.03979407 -0.01025881 0.03788239 -0.05497935 -0.04740501 -0.02140821 0.01834138 -0.11026603 0.02513137 0.03775176 -0.09414665
0.07808694 0.01332073 0.04548696 0.07379147 0.02339842 0.08074048 -0.11100933 0.11286731 0.00170785 0.02374670 -0.02850241 -0.10881691 -0.08689100 0.08305997 -0.01569841 0.13264760 -0.00183856 -0.11114971 -0.04949165 0.01624569 -0.09002879 -0.08712303 0.07935585 0.07192903 0.02318642 -0.11766987 -0.08491796 0.01267941 -0.09444430 0.00634296 0.02171477 -0.00298578 -0.03218801 0.06034269 -0.09182508 -0.09507890 -0.06021307 0.02843453 -0.12304302 0.04015308 0.11847967 0.05714894 0.07214651 -0.06627986 0.00727965 0.01972496 0.06724776 0.04485157 0.01229814 0.05127381 0.04935219 0.05409909 0.00328047 -0.06248297 0.01822425 0.03678474 0.10945120 0.06003009 -0.08207390 0.00534913 -0.11549740 0.08398624 0.03520364 -0.06415710
0.11280160 0.09901132 -0.00455578 0.04117889 -0.02260032 -0.02950614 0.06102490 -0.03265801 -0.07057580 0.01504800 -0.06511731 0.09513970 0.12266379 -0.08308037 0.01747340 0.00116294 0.03909229 -0.00880013 -0.01276253 0.00962862 -0.07988787 0.03989660 -0.14413840 -0.03204349 0.05051309 -0.04064098 -0.03333742 0.08439469 0.02193484 0.02396754 -0.01003581 -0.03458149 0.03927281 0.11623966 0.06885903 0.11068700 0.09145514 -0.00080450 -0.00082500 0.03767147 -0.01637034 0.05640038 -0.13087426 0.04884100 0.03670304 -0.13872068 0.04475091 0.06648390 0.01819285 -0.13774434 0.10060864 -0.12717190 0.05264861 -0.01655026 -0.01378753 -0.10944523 0.08596280 0.11005230 -0.10142877 -0.03821811 -0.07008745 -0.04456718 -0.03420733 0.09130650
-0.01218718 0.10680375 -0.14914683 -0.00166965 0.04011155 -0.03565880 -0.00366480 0.02315834 0.10885928 0.00788597 0.00554838 0.04742376 -0.05866297 0.10451145 0.12399924 -0.04922447 0.04049785 -0.01774071 0.11670968 0.00803285 -0.04890383 0.05791958 0.04228107 0.10234496 -0.02254230 -0.13193651 0.03892268 0.12412058 0.11911457 -0.07908742 0.13376652 -0.10313223 0.09384564 -0.02579714 -0.08922721 0.04151215 0.07808490 0.05412879 -0.08386467 0.05478574 0.07139668 -0.05305985 0.03078066 0.09299300 -0.05675904 0.12177639 -0.13138452 -0.06928810 0.00563156 -0.02516539 -0.08608565 0.00397559 -0.03609838 0.07417669 0.03750800 -0.06584537 0.09411604 0.06118447 0.10228097 -0.05712443 -0.11311274 -0.02695105 0.06673141 0.08012478
-0.10237999 0.08663573 0.09477083 0.01468329 0.04263492 0.04450959 -0.10022432 -0.09445556 0.09934970 0.12527215 0.02260892 -0.13339595 -0.00844595 -0.05779964 0.06215833 0.13920122 0.15055339 0.11720277 0.04807238 0.14727671 -0.04986129 -0.02803944 -0.06229666 0.07235421 0.07432853 0.02727066 0.10856476 0.12837984 -0.09272406 -0.06120896 -0.07614531 0.06894096 -0.02759379 -0.13045013 0.02717586 -0.06208643 -0.02715486 0.04069617 0.04988694 0.10200714 0.02158993 -0.03589287 0.01077479 -0.14883836 -0.06901827 0.12070932 0.03849227 -0.13799015 0.00719492 0.13984731 -0.09199342 0.01261852 -0.04317188 0.02243188 -0.07808899 0.13249324 0.09092388 -0.03799459 -0.08522384 -0.04289499 -0.02765439 0.01032494 -0.02654757 -0.05267267
-0.01196008 -0.08580439 0.05013215 -0.13391227 -0.04174887 -0.12479340 -0.04083160 -0.02026378 -0.07996985 -0.10366642 -0.00909564 -0.04166463 0.01761753 0.00559218 -0.02965666 -0.13056669 -0.05815428 -0.02433173 0.01994220 -0.12249600 0.11018274 0.05147855 -0.00614029 -0.00978008 -0.04192441 0.06589898 0.07093095 -0.04325528 0.03127695 0.09543687 0.02999003 0.02391995 0.06421931 0.02793587 0.10199761 -0.04882732 0.03909374 0.04293966 -0.10121568 0.01055001 -0.10748243 0.08225727 -0.03994025 0.05596331 -0.07762529 0.03384009 0.10349995 0.06415757 0.05761698 -0.09410711 0.10345285 0.01231398 -0.13888972 -0.02379288 0.02284386 0.02246194 -0.00028186 0.10924755 -0.03122642 -0.04064613 0.00735140 0.09577372 -0.13036177 0.07687220
-0.05403386 0.05254467 -0.10860282 -0.02106411 0.02712941 0.00779876 -0.08637564 -0.08883758 -0.08216289 0.14189886 0.08773037 -0.06453218 0.06407233 0.00641351 0.01125946 -0.05229713 -0.05199277 0.09767339 0.14391692 -0.09987047 -0.00990701 0.00473010 -0.04556054 -0.03619645 -0.06956293 0.01100285 0.13769801 0.06429493 0.00429334 0.00465493 -0.05795234 -0.09005459 0.01598386 0.09075983 -0.02910653 -0.02279853 -0.01200688 -0.14948022 0.05589632 -0.05291034 -0.01969071 -0.12604661 0.05365442 -0.07926077 -0.01351158 -0.05134981 0.03916181 -0.11283032 -0.12715259 -0.09348813 0.11577750 0.08358878 -0.06415728 -0.00724472 0.07394887 0.06094535 0.13904856 -0.03180471 0.00854509 0.11557749 -0.01831640 -0.12901077 -0.00540027 0.11578034
0.04736945 -0.03964544 -0.14531414 0.11412916 -0.00601211 -0.00549267 0.10582370 0.09042204 0.05878306 0.06470670 0.02625450 -0.01297455 -0.07654937 0.06598838 0.07858063 0.08963211 -0.04008705 0.01959190 0.00967222 -0.05054158 0.00316591 0.04776995 0.03201847 -0.03937042 0.12214220 -0.08708125 0.06549121 0.01949814 0.06655609 0.02507387 -0.09489676 0.00647311 -0.02162655 -0.11655318 0.05472267 0.02421484 -0.05828645 -0.02863583 0.06980266 -0.02487977 -0.04667789 -0.05974595 -0.01471909 0.02948745 -0.04402798 0.08086412 -0.12300372 -0.00465070 0.07512567 0.00935795 0.10853285 0.06213910 -0.09779526 -0.04992667 0.07954094 0.00008867 0.14321712 -0.13351439 -0.04838470 0.11595856 0.10223556 -0.13464719 0.06188251 -0.10160236
-0.09685823 0.04006886 -0.08834109 0.01506198 -0.02388227 -0.08992699 -0.12006070 0.07600029 0.09817141 0.00211294 0.12711392 -0.11816316 -0.04583019 -0.08510729 0.13416031 0.04856135 0.02962521 -0.04890095 -0.09276124 0.13461308 0.03011262 -0.04670073 0.03066689 0.05553876 -0.03367661 0.09857140 0.03752022 0.02635469 0.10377728 -0.11006668 0.09665833 -0.07872549 -0.12129692 -0.05575669 -0.07526693 0.12876815 -0.00912602 -0.11199198 -0.11265580 -0.03836123 -0.09991228 -0.02951933 0.01833820 -0.14208803 -0.00078674 -0.00099315 -0.04580177 -0.12920184 0.04501167 0.00675183 0.02951261 0.03388905 0.05541809 0.08590044 -0.04153693 -0.01070780 0.01952593 -0.11744823 0.05045561 -0.02654769 0.08126247 0.09614520 0.05487483 -0.01803436
-0.02994580 0.10864829 -0.00180160 0.03840777 -0.10947695 -0.04303519 0.06519315 0.06606041 -0.02687234 -0.00784919 -0.05877864 -0.03579272 0.13046846 -0.07441548 -0.06060037 0.06945282 0.07952263 -0.05516278 -0.06380203 -0.11336698 0.08501872 -0.00264157 -0.07251645 -0.12244714 -0.05926796 0.06149327 -0.12231205 0.04128795 -0.11760398 0.14316557 -0.10761531 0.13759254 0.00024029 0.08851754 0.01410892 -0.07452220 0.00089648 0.07464865 0.08481588 0.08986232 -0.01733031 0.06799340 0.06717420 -0.02834943 -0.01976163 0.03429512 -0.00747641 0.05563787 0.07562218 -0.04163086 -0.04361312 0.09102557 0.02726558 -0.14317027 -0.09762325 -0.04132358 -0.09898865 0.11128559 0.07361539 0.06066532 0.11572732 0.11471232 0.08190706 -0.01683406
