# Matrix shape: (32, 64)
-0.10119634 0.03031681 0.05240616 -0.03906640 -0.04360158 -0.08339641 -0.02709954 -0.00535379 -0.13175195 -0.04384286 -0.04383938 0.02485918 0.10469201 -0.12676038 0.02750244 0.02329078 0.01091172 -0.04863925 0.05639397 -0.11113007 -0.02841157 0.01809126 -0.03970291 -0.14156032 0.04684151 0.09414924 -0.12491154 -0.01712164 -0.12801968 -0.00026907 -0.00488472 0.13203843 0.10906686 0.08100992 0.03970147 -0.12648688 -0.01866610 0.13363644 0.02614539 -0.05039579 -0.06045071 0.08055747 0.06771296 0.01298257 0.03917872 0.06894278 0.10687582 0.08587539 0.10685878 0.02403690 0.02590999 -0.14613771 -0.04646065 -0.05894727 0.04761150 -0.05523551 -0.09274675 0.12237854 -0.07281781 -0.13924129 -0.03756869 0.04574298 -0.06324640 -0.14629903
0.02936985 0.06050121 0.13836558 -0.14628196 -0.04138709 -0.06776523 -0.03432224 -0.01901010 0.09687115 -0.03535184 0.08279866 0.03952365 -0.05316739 -0.03412301 0.04862361 0.05069434 -0.06540847 -0.02826375 -0.12083936 -0.10240350 -0.01094021 0.09604087 -0.01372343 0.04803058 -0.12472508 0.04598800 -0.11509348 -0.05406120 0.07907359 0.02782858 -0.11343092 -0.09966304 -0.01648684 -0.03236560 -0.09270012 0.05709625 0.02425419 0.00311199 0.11256287 -0.14078100 0.02251414 0.11292783 0.01587493 0.09105433 -0.04186608 -0.14094043 0.14010127 -0.10286999 -0.02936358 0.09168557 -0.06807772 -0.04798555 -0.08616531 0.00370156 -0.02529536 0.02717417 0.14324126 -0.07595122 0.06304114 -0.05211813 -0.11013386 0.07403321 -0.10452384 0.05197479
-0.03409632 -0.06298247 -0.08665256 0.00403731 -0.13826324 0.04843952 0.05682021 -0.12788741 0.04556346 -0.12094224 -0.01164593 -0.01368408 0.09562978 -0.12792118 -0.05524321 -0.06769735 -0.03484103 -0.00040932 -0.09464963 -0.00590444 0.02784298 -0.04174560 0.00808822 0.07364540 0.04372275 0.06083025 -0.06927346 -0.10807882 0.05161066 0.04204196 -0.01025027 0.08725356 -0.03616765 -0.10729217 -0.06232933 -0.12846927 0.09972604 0.09860525 -0.04121856 -0.05049115 -0.04368747 -0.03032614 -0.09688208 0.06350410 -0.04175393 -0.10479387 0.04686200 -0.02881367 0.04648421 -0.02646330 0.03209504 0.05893088 -0.13202693 -0.08127058 0.14250477 -0.01406165 0.00095351 0.11674390 0.08986952 0.02306164 -0.08394127 0.13905597 -0.13421024 -0.14580792
0.00740858 -0.02583892 -0.09614304 0.07555253 -0.00188229 -0.08635917 0.05250593 0.07038681 -0.03201525 0.07099787 0.05418620 0.04226293 -0.05533183 -0.11652543 -0.01614363 -0.05513658 -0.13530129 -0.12918331 -0.09470379 -0.01928800 -0.03511997 -0.08463925 -0.04172760 -0.07180338 -0.04852552 0.09512991 0.05965288 0.06473892 0.10307357 0.02983442 -0.08574169 0.00930037 0.04017140 -0.02937544 0.12199356 0.05539004 -0.07016428 0.03273185 0.02749536 0.01770984 -0.09982789 0.14184590 -0.05369882 0.07001320 -0.05914551 0.02043728 -0.02103850 -0.04663690 -0.09147006 0.02355962 0.00862622 0.01640530 -0.08948700 0.00597901 -0.03329505 0.01619488 0.13750613 -0.08732490 0.03110234 -0.09971656 0.05177077 -0.00882530 0.03155411 -0.11356196
0.07554813 0.08312085 -0.06372105 -0.11109870 0.05047298 -0.11839078 0.05786084 -0.08361597 -0.13181390 0.01634389 -0.07686628 -0.06008701 0.04926264 0.03553920 0.08510175 0.09885141 0.01916911 -0.04920951 -0.03793598 0.07141783 -0.07497030 0.11151968 0.03606941 0.02982176 0.01801646 -0.08322634 0.03572874 -0.02516721 -0.02149149 -0.03527382 0.07036014 0.00272181 0.02244100 -0.08992636 0.11950158 -0.12680681 0.09932319 0.07733360 0.03509156 -0.14354976 -0.07524144 0.01224237 -0.10373649 -0.01628002 -0.02574338 -0.06243617 0.11042096 0.13569355 -0.03418486 0.04279187 -0.00035646 0.06809910 -0.13120784 -0.08385554 -0.00506146 0.10040744 0.12045328 -0.01581416 -0.09609371 -0.08326382 0.02992848 0.04812890 -0.08430988 0.01348558
-0.01951863 0.07241691 -0.05732614 -0.06208520 0.04108169 0.02116124 0.08013349 0.13126424 -0.03785112 0.12502789 0.06781530 0.09679601 0.01524523 -0.01080970 0.02268348 0.01210386 -0.08292007 -0.01707260 0.11521138 0.03258445 0.01883318 0.00378976 0.03440339 -0.08174866 -0.01401087 -0.04046966 -0.02092144 -0.05994112 -0.00479276 -0.01327341 -0.02042355 -0.04027396 -0.04807040 -0.02222388 -0.11013405 0.12482687 -0.07687133 0.05451328 -0.13261588 0.00208016 0.00972646 -0.11666464 0.02955511 -0.10254179 0.04805375 0.08759712 -0.02778873 0.01396521 -0.07012196 0.05804817 -0.13330533 0.13291454 -0.00005872 0.03439984 0.09870964 -0.08931959 -0.08426551 0.00248100 -0.11933282 0.03541786 -0.00651687 -0.12766764 -0.02366007 -0.08416124
-0.00028942 0.10462428 0.14120868 -0.13975790 0.02675116 -0.11649957 0.05349190 0.04696782 -0.13888526 -0.11266551 -0.13643636 0.01069399 0.05786180 -0.11394685 -0.02409438 -0.06689662 0.08931115 -0.12767917 -0.08586814 -0.02411918 -0.07522047 0.11794632 -0.13645221 -0.05854453 -0.07294005 0.01941169 -0.07363440 0.07213487 -0.13073172 -0.04314835 -0.07719355 -0.09586946 -0.10255660 0.06096733 0.14124711 -0.03052711 -0.02652740 0.07719495 0.08967946 -0.13471012 -0.07730192 0.12619640 0.04451089 -0.09187648 0.00488053 -0.11806297 -0.07324090 -0.04067484 0.14586335 -0.09383086 0.07770110 -0.13684358 -0.03078639 0.09111631 -0.00806512 -0.06272167 -0.03373078 -0.07234685 0.02104688 -0.11200137 -0.06493276 0.12843275 0.07193928 -0.08710148
0.01662701 -0.04851569 0.06931432 -0.08686595 -0.09238574 0.08383853 -0.00325210 -0.01233695 0.08611063 0.07625983 -0.05834486 0.04623046 0.05836488 0.00718668 -0.08919255 0.07877917 0.10124485 -0.10885019 -0.09680422 0.01032796 -0.13371722 -0.08681577 0.12189577 0.04407085 0.09939676 0.00653538 0.13890514 0.07130213 0.06269652 0.06892023 -0.02747850 0.08093143 -0.01191026 0.09444682 -0.10059883 -0.07136126 0.06601541 -0.09779657 0.00688715 0.14366321 0.04394961 -0.11235875 -0.06404340 -0.09559932 -0.08709151 0.09311692 -0.00768303 -0.03609472 0.01028414 0.09750795 0.01770942 0.10699337 0.00787307 0.07266586 0.00266053 0.02310519 0.06713356 0.10105509 0.12384547 -0.00761769 -0.05694127 0.08033981 -0.03282492 0.03790019
-0.05968080 -0.04155727 -0.06513209 0.09841311 -0.03898448 -0.03628850 0.04413134 0.01247640 0.02960611 -0.07342035 -0.03307949 0.04305571 0.04779921 -0.09491396 -0.07330118 0.05665294 -0.07685765 -0.05538719 -0.05676157 -0.07494644 -0.08115592 0.06849735 -0.09602791 0.09858057 -0.09164426 -0.05195798 -0.03053909 0.09478266 -0.08099622 -0.08190209 -0.10511436 -0.05777261 0.03078853 0.10388268 0.08725103 -0.02438298 -0.08574803 0.00831225 0.06839484 0.13176666 0.10062481 -0.01972753 -0.09424561 -0.09728226 0.07340217 -0.08567338 -0.11261708 -0.09763888 -0.05270664 0.07728257 0.09566944 0.11726138 0.07769226 0.04778626 -0.04928172 -0.05929260 -0.08314895 -0.01993448 0.12373162 -0.02667355 -0.03185083 -0.02057070 -0.03804580 -0.04038626
0.02321345 -0.07666864 0.01472965 -0.05308729 0.00982974 -0.03628522 -0.05652774 -0.05964004 -0.05082823 0.03074357 0.00412979 -0.01637556 0.11010610 -0.01119261 0.05236840 -0.07098247 -0.13014384 -0.13371269 -0.05819931 0.05406535 0.10086918 0.05983216 0.01371520 -0.10218116 -0.05758216 0.03575395 -0.12339243 -0.13139945 -0.11801431 0.06160678 -0.03587794 0.00156636 0.09925713 -0.06677095 -0.05377618 -0.04010153 0.09896828 0.04259982 -0.09161973 0.06587937 -0.09017626 0.11812232 0.03448319 0.05699490 0.10599688 0.02252650 -0.09977952 0.07114127 0.14308116 -0.07369171 0.08339216 0.07772423 -0.05170867 -0.02181574 0.00379194 0.09088716 0.07389004 0.10665383 -0.13091603 -0.07159884 -0.07988516 0.04724670 -0.06992792 0.01445694
0.07778236 -0.04705447 -0.00934373 -0.06796031 0.00448888 0.04157592 0.08050656 0.07368839 0.05420554 0.08850321 0.12338944 -0.01185044 0.10703595 -0.05264325 0.05922158 0.02535107 0.11803018 -0.10487411 0.07829902 -0.08327675 -0.06069490 -0.06324749 -0.01890344 -0.04125744 -0.07933717 -0.13111843 -0.00986450 0.12085171 -0.00891788 -0.10875685 -0.01475815 -0.12792023 -0.02956118 0.08459059 -0.14671718 0.08021526 0.06950864 0.06629808 -0.09130643 0.03856834 0.08894093 -0.12917969 0.10839515 -0.03463089 -0.11205430 -0.00734806 -0.02110953 -0.07411709 -0.07389881 0.01027388 0.05023251 0.08136979 -0.09861975 0.01526986 0.00917511 0.12165169 0.04025013 0.06587005 0.05800467 0.01016467 -0.08431754 -0.07316884 0.06302039 -0.00304620
0.12344654 -0.06673786 0.08440314 0.08434290 0.06996972 0.09498275 -0.08094683 0.07540116 -0.12369610 -0.06319479 -0.01713603 0.10281269 -0.01206896 -0.09566276 -0.10672399 0.00488645 0.01151497 0.01646292 -0.04588591 0.04591828 0.01660193 -0.03714330 0.06889962 -0.08365296 -0.06373975 0.03235799 -0.04852677 -0.01089978 -0.04120755 0.07060762 0.10721126 0.10471198 0.02988589 -0.08617137 -0.04524020 -0.06994027 -0.02612953 -0.06329339 0.08665784 -0.11430252 -0.00949336 0.08916490 -0.11579169 -0.02440392 0.06545285 -0.04101117 -0.06309081 0.06223001 -0.09131025 0.12348732 0.12356425 0.00940010 0.02557517 -0.05991279 0.02537918 -0.09666824 -0.02242780 0.10955356 0.04123401 0.09511826 0.07316409 0.11738635 0.03599662 -0.08665352
-0.12577407 0.09094023 0.12482435 0.09948335 -0.10341963 0.09328730 -0.03556294 0.01007007 0.06617706 -0.11954015 -0.14500472 0.10622080 -0.10343897 0.03760549 0.05579105 0.06718057 -0.02186912 -0.04572167 -0.00091108 -0.04095153 -0.09496347 0.05188792 -0.09570727 0.07361036 -0.08051251 -0.00318494 -0.11204280 0.09686210 0.04857459 0.13310479 0.05234395 -0.05274089 0.14031348 0.00076921 0.13918293 0.00533327 0.10182866 -0.02627043 0.06571916 -0.02406074 -0.11803971 0.11822242 -0.07979377 -0.05795002 0.10262964 -0.13883254 0.06729885 0.12404103 0.00263594 -0.14075758 -0.10909431 -0.03029186 -0.04276967 0.06413755 0.12092715 -0.09758696 -0.01095293 -0.07958999 0.00770077 0.06986716 -0.02777184 0.02474550 -0.03162770 -0.13090378
0.10926498 0.04009062 0.14019895 -0.13206157 -0.05480449 -0.05372689 0.05015149 -0.05399755 -0.09218651 0.07943777 0.07328436 0.14724652 0.08769666 0.05945764 -0.09901960 -0.01464609 -0.06384293 -0.02474767 -0.00681094 0.00655701 -0.05125463 0.00191965 -0.07984734 -0.05089748 -0.10191911 -0.04425692 -0.10213158 -0.10581291 -0.03192125 -0.08289385 -0.13959990 0.11181607 -0.06807847 0.10487958 0.03267778 -0.03020619 0.11923877 -0.07444777 0.07626931 0.06035768 0.08157499 -0.09557951 -0.00559384 0.00880108 -0.09026407 0.06143142 0.00192835 0.10661667 -0.04497873 -0.07775074 0.03907706 -0.00793811 0.04894344 0.03088990 0.12079179 -0.11226599 0.05021581 0.11123561 -0.07643708 -0.09958977 0.13782977 -0.08429123 -0.11243039 -0.12804389
0.01876088 0.04229994 -0.08810298 0.05407874 0.01838471 0.02244424 -0.11330281 -0.13573036 -0.12216325 -0.07333119 -0.13501351 0.08528867 -0.00531337 -0.07112420 0.09307175 -0.00638516 -0.00748675 -0.08287700 -0.05286339 -0.12803316 -0.05477269 0.14549313 -0.10269713 0.05076446 0.06589697 0.10180593 0.08857876 0.09001879 0.04442294 0.01558756 -0.05166951 -0.09618387 0.08678719 -0.01190265 0.04269304 -0.03923531 0.10223501 0.02600137 0.10530332 0.07136182 0.02148869 0.00986339 0.04706581 -0.04993953 0.09048650 0.07387056 0.03934010 0.00829982 0.05229309 0.08873527 0.02108129 -0.08629133 -0.04852627 -0.14436443 0.01603365 -0.13320747 0.04933342 0.03366642 0.09795811 -0.05769328 0.00777427 0.01896022 -0.06652439 -0.06568443
-0.03911121 -0.06596321 -0.00871687 0.07155567 0.04324678 0.12066451 -0.02473528 0.05885411 -0.08319075 0.10132580 0.12839155 0.02493847 -0.09309614 0.01815470 -0.08794845 -0.08957699 0.11919256 0.07175858 0.11150471 0.10412931 -0.04253742 0.03563482 -0.03722084 -0.08301061 0.00196209 -0.09486192 0.13141108 -0.08352856 0.14044292 -0.04460287 0.04304579 0.08471094 -0.07982831 -0.06371135 0.02771577 -0.01964695 -0.00664922 0.05564174 -0.01050415 0.10822498 -0.03669786 0.02961128 0.02375887 -0.12086225 -0.01630647 0.07281899 -0.10092696 0.08391006 -0.09251918 0.09047312 0.02199889 -0.04866627 0.11702346 -0.00596334 -0.04016069 -0.01580493 -0.14584218 0.05533608 -0.03675542 0.09645043 0.04457698 0.04730686 0.06635122 0.06256192
-0.09301489 -0.01966525 -0.07410310 0.11751841 0.06627702 0.02351571 -0.12223007 -0.09293891 -0.08468825 0.11000025 0.10269047 -0.13327247 -0.11977492 0.12644616 0.06644856 -0.05525537 0.00977310 0.09026831 0.08264783 0.01813655 -0.07429492 -0.06389026 -0.01561264 -0.05926543 -0.06174197 0.06782087 0.03511511 0.05873986 -0.06759150 0.00025958 0.13144183 0.04474274 -0.02701177 -0.07449130 0.09674582 -0.04183283 -0.05753767 -0.01669126 -0.05158930 0.01772119 -0.01169438 -0.09481873 0.01246661 0.02720477 -0.12455081 0.06718617 -0.00543999 -0.10191201 0.06957269 0.10354999 0.04797401 -0.02638249 0.05205031 0.07983495 -0.03866975 -0.03402290 -0.01924590 -0.12347149 0.10718531 0.03327725 -0.06942866 -0.00806310 -0.04437308 0.00260027
-0.09231063 0.04596469 0.08252657 -0.06131958 0.04961968 0.06855056 -0.10348992 -0.10247499 -0.00820309 -0.08900551 0.05865620 0.13156345 -0.05836702 -0.00672905 -0.00774049 0.08178034 -0.12396267 0.03016405 -0.10523788 -0.12937349 0.13303353 0.09483851 -0.14488883 0.05673350 -0.11008493 0.12616305 0.00629248 -0.05737112 -0.01124786 0.00001866 -0.02011450 -0.06244073 0.08290586 -0.06987359 0.03190828 -0.10181252 -0.04600773 0.03664193 0.02713642 -0.13573554 0.01653807 0.06044310 -0.06876266 0.03830007 -0.06358838 -0.13119185 0.00219266 0.10373424 0.02615282 -0.11002409 0.08896392 -0.04295397 -0.13212308 0.01953361 -0.08268455 0.06162995 0.04653580 0.05436248 -0.12862170 0.01238589 0.00297100 -0.00744297 0.01460230 -0.13405912
-0.07712389 -0.12609069 -0.06589086 0.07785191 0.08608603 0.05216052 -0.05836213 0.02648666 0.06871021 -0.03368865 -0.09485099 -0.04740473 -0.06158379 0.10340066 0.05758820 0.04098026 0.07694729 -0.09765827 -0.04937542 -0.07953230 -0.05215625 -0.10969593 0.01595183 -0.03933824 0.05880319 -0.12636392 -0.05154873 0.10389212 0.11197335 -0.00899717 -0.03774492 -0.13296755 0.06603263 -0.01415189 -0.04454536 -0.00214928 -0.05227834 0.04497278 -0.09606858 0.01435534 0.09870888 -0.04787134 0.07746060 0.00760083 -0.10892021 0.03755173 -0.03358842 -0.10174238 -0.07998173 0.12588094 0.08185664 0.14060415 0.13935582 0.05145368 -0.05930932 0.07914104 -0.08753340 0.08040153 0.13054208 0.12330655 0.06880957 -0.06771385 -0.02936226 -0.02361621
-0.12463362 0.13136165 -0.04213192 -0.02500833 -0.05323957 0.01147472 -0.09556172 -0.01849321 0.08402161 -0.06679130 -0.00125283 0.07555140 0.11330794 -0.14314115 -0.07144837 -0.11587422 -0.11523680 -0.08666880 0.02351741 0.07294344 0.03106333 0.03299355 -0.03557865 -0.13967657 0.10215720 0.07074551 -0.12215683 0.01074070 0.06194969 0.10023808 0.09143026 0.13384397 0.12394111 -0.00842586 0.05801258 0.03130870 -0.08359861 0.06488746 -0.05939811 0.09788650 0.06714375 0.13364422 0.09426119 0.13832983 -0.12039945 -0.12993564 -0.08228480 0.12197584 -0.04323238 0.06199578 0.04171985 0.09879262 -0.08464652 0.00028643 -0.08191174 -0.12169795 -0.09498107 0.09212242 -0.05496285 -0.01189513 0.11523323 0.08697572 0.01699139 -0.09054365
0.08683376 0.10398125 -0.13943064 -0.00280427 -0.07662467 -0.00983272 0.01789236 -0.09463105 -0.06608951 0.07112928 0.12647985 -0.07350204 0.05469661 -0.07455882 -0.03204496 0.11867948 0.00938358 0.06676827 -0.05741670 0.06491184 -0.05088278 -0.02573663 0.06909576 0.05143471 0.10898381 -0.02909546 -0.02281052 0.11171698 0.02281542 -0.12943190 -0.06238152 0.05223678 0.03730432 -0.07730132 0.06474697 0.07326187 0.03137214 -0.01756917 0.04258658 -0.00457893 -0.08822665 -0.05437531 0.03712851 -0.08832585 0.04791376 0.13921918 0.02534881 0.05828689 -0.03513585 0.01780626 -0.02818680 0.13369845 -0.07013036 0.07758937 0.02828795 0.13594995 -0.03771888 -0.07310996 0.14234753 -0.06588282 -0.01393784 -0.09788162 0.11206964 0.10634495
-0.05434696 -0.02099769 -0.02298226 -0.09404540 0.13252944 0.07201837 -0.00904155 0.12718691 0.08235625 0.07820235 0.07551715 -0.06548353 -0.11244296 0.06829247 0.00597684 0.08634729 -0.06644782 0.02457665 0.10955044 0.04420550 -0.10989282 0.01581442 0.14498807 -0.01973994 -0.00060557 0.05308955 0.09466074 0.06302641 0.04755111 0.07059779 0.13671191 -0.13460268 0.05886552 0.07796798 0.04638245 0.06063537 0.02122155 0.07265546 -0.00010340 0.13504362 -0.00173839 0.04664170 0.10963950 -0.01785049 0.09208143 0.10255600 0.02339981 -0.06760877 -0.11509692 0.07090664 0.08207305 -0.08901278 0.01969596 0.02165296 -0.04620215 0.09266669 0.08598318 -0.06148764 0.06926964 0.11341286 -0.02422949 0.04770706 0.14210038 0.01229739
-0.12820216 -0.09992248 0.12301417 -0.10241636 0.09856928 0.00510267 -0.08813334 0.10140885 0.07698341 -0.05703752 -0.04592148 -0.04888662 -0.05494761 0.01136973 -0.02157756 -0.10549638 -0.04957448 0.03672402 0.01646386 0.00523505 -0.05927659 -0.03687633 0.01459180 0.06577095 0.00416756 -0.07612786 0.03245867 -0.09476306 -0.13807513 0.10973806 0.05493054 0.00128553 0.09789622 -0.03184129 0.06163850 -0.13199395 -0.03948185 -0.00389931 0.04119849 0.03732736 0.00404817 -0.04353198 0.08804216 0.09583668 -0.06768224 -0.01680179 0.13783330 -0.02293990 -0.10345412 0.07162704 0.04303464 0.04358676 -0.00392115 -0.03997449 -0.01035087 0.03898450 -0.01198467 -0.04082068 -0.02181786 0.01814259 -0.10894544 0.02430701 0.03797137 -0.09459217
0.09520508 0.01476881 0.04613385 0.07461104 0.02036602 0.08055218 -0.11202153 0.11266688 0.00173401 0.02407219 -0.02771179 -0.10903238 -0.08767027 0.08385118 -0.01654959 0.13414241 -0.00074913 -0.11013145 -0.05034705 0.01713568 -0.08858260 -0.08744226 0.08006823 0.07263315 0.02192013 -0.11715172 -0.08714836 0.01210931 -0.09394915 0.00663248 0.02003968 -0.00289140 -0.03236882 0.05973884 -0.09185618 -0.09600146 -0.06005165 0.02887805 -0.12105903 0.04105586 0.11470953 0.05734577 0.06804039 -0.06733125 0.02647451 0.02018212 0.06707837 0.04358225 0.01187740 0.05066179 0.04894460 0.05473351 0.00394216 -0.06227969 0.01809252 0.03572140 0.06311305 0.05380631 -0.08180322 0.00566092 -0.11705547 0.08476671 0.03510144 -0.06362974
0.09671015 0.09740926 -0.00523119 0.04037258 -0.01957457 -0.02928691 0.06195551 -0.03245588 -0.07056882 0.01476681 -0.06586839 0.09529995 0.12350844 -0.08386113 0.01838862 -0.00038239 0.03800037 -0.00981006 -0.01183319 0.00875572 -0.08131604 0.04018090 -0.14484096 -0.03272476 0.05183297 -0.04117850 -0.03099858 0.08494629 0.02143588 0.02364516 -0.00836390 -0.03473797 0.03944385 0.11686549 0.06885332 0.11160503 0.09124842 -0.00128002 -0.00276062 0.03677631 -0.01257546 0.05621273 -0.12670100 0.04990839 0.01860756 -0.13918120 0.04486767 0.06779086 0.01859010 -0.13712071 0.10086991 -0.12777354 0.05199491 -0.01676167 -0.01371286 -0.10836564 0.13117386 0.11639456 -0.10178532 -0.03851355 -0.06858171 -0.04535863 -0.03409564 0.09079479
0.00697102 0.10794783 -0.14869009 -0.00085576 0.03719543 -0.03589706 -0.00491791 0.02292411 0.10881143 0.00818091 0.00632170 0.04721776 -0.05940542 0.10526393 0.12312519 -0.04775926 0.04158130 -0.01667735 0.11602081 0.00888986 -0.04754919 0.05763273 0.04297011 0.10300087 -0.02347429 -0.13133292 0.03697379 0.12357253 0.11963462 -0.07894453 0.13218918 -0.10309371 0.09369406 -0.02634136 -0.08920009 0.04067276 0.07829241 0.05458698 -0.08187975 0.05570195 0.06775539 -0.05285152 0.02676079 0.09203403 -0.03515528 0.12219333 -0.13160440 -0.07054663 0.00518421 -0.02585844 -0.08677844 0.00461040 -0.03539773 0.07436953 0.03732108 -0.06698295 0.04587300 0.05502027 0.10243304 -0.05679452 -0.11486182 -0.02610539 0.06672052 0.08064239
-0.08241411 0.08573806 0.09342420 0.01664966 0.04048033 0.04469946 -0.10010371 -0.09329413 0.10020277 0.12639010 0.02447220 -0.13419077 -0.01084160 -0.05595004 0.06173689 0.14207926 0.15279223 0.11978181 0.04832951 0.14924766 -0.04923143 -0.02915999 -0.06048920 0.07417840 0.07508015 0.02715126 0.10829994 0.12873189 -0.09080023 -0.06248919 -0.07765424 0.06813218 -0.02918436 -0.13226131 0.02663565 -0.06107155 -0.02741579 0.04076350 0.05010637 0.10424429 0.01766806 -0.03707683 0.00886691 -0.15080947 -0.04445413 0.12205354 0.03715382 -0.14104734 0.00555573 0.14022365 -0.09495766 0.01442342 -0.04092819 0.02401985 -0.07973509 0.13202108 0.04142968 -0.04563434 -0.08324877 -0.04127023 -0.03030461 0.00982716 -0.02492240 -0.05088632
-0.02750275 -0.08749057 0.04941139 -0.13471183 -0.03870659 -0.12458415 -0.03993316 -0.02005771 -0.07997151 -0.10394890 -0.00983855 -0.04150477 0.01847292 0.00481094 -0.02875477 -0.13210781 -0.05923916 -0.02533767 0.02090728 -0.12336645 0.10873791 0.05176583 -0.00684138 -0.01046408 -0.04053958 0.06537331 0.07333970 -0.04269725 0.03078740 0.09508020 0.03166418 0.02374963 0.06438349 0.02857263 0.10200271 -0.04788412 0.03889961 0.04247869 -0.10316113 0.00966604 -0.10368223 0.08206320 -0.03570357 0.05704229 -0.09512107 0.03337250 0.10360032 0.06545286 0.05800429 -0.09349002 0.10365274 0.01172174 -0.13952743 -0.02399685 0.02290525 0.02353407 0.04435992 0.11561448 -0.03161110 -0.04093497 0.00881744 0.09498370 -0.13022666 0.07636493
-0.03490264 0.05399093 -0.10818868 -0.02056707 0.02371790 0.00725803 -0.08811425 -0.08938102 -0.08261445 0.14179605 0.08810665 -0.06445806 0.06337138 0.00691492 0.01018954 -0.05083854 -0.05111670 0.09838346 0.14282712 -0.09933510 -0.00803466 0.00476222 -0.04508169 -0.03569667 -0.07050555 0.01191565 0.13536122 0.06338768 0.00455189 0.00502783 -0.05994834 -0.08957590 0.01619655 0.09004553 -0.02878349 -0.02385299 -0.01162444 -0.14896564 0.05828312 -0.05223173 -0.02322321 -0.12575126 0.04921709 -0.08004230 0.00683105 -0.05112859 0.03948424 -0.11408539 -0.12726562 -0.09438255 0.11580968 0.08385003 -0.06386662 -0.00735327 0.07380723 0.05948357 0.09052777 -0.03780594 0.00895176 0.11575498 -0.02028612 -0.12793827 -0.00572309 0.11597304
0.06383295 -0.03790995 -0.14458220 0.11487588 -0.00918232 -0.00576822 0.10489214 0.09018022 0.05871872 0.06491110 0.02694329 -0.01303180 -0.07740028 0.06671218 0.07746996 0.09117080 -0.03903922 0.02055581 0.00857712 -0.04972591 0.00463972 0.04757894 0.03265563 -0.03877392 0.12071994 -0.08649010 0.06297287 0.01891316 0.06698910 0.02548621 -0.09665754 0.00673784 -0.02174526 -0.11711573 0.05480741 0.02325512 -0.05798860 -0.02806570 0.07172731 -0.02403742 -0.05053106 -0.05948608 -0.01886423 0.02844605 -0.02564341 0.08126926 -0.12301065 -0.00590336 0.07482670 0.00868119 0.10826346 0.06267624 -0.09721823 -0.04977172 0.07958600 -0.00105315 0.09746277 -0.13991593 -0.04811434 0.11614878 0.10074867 -0.13379762 0.06167341 -0.10118493
-0.07673802 0.04115497 -0.08786840 0.01589660 -0.02685097 -0.09005381 -0.12158401 0.07575288 0.09823141 0.00253950 0.12796918 -0.11855755 -0.04648016 -0.08431496 0.13358723 0.04987898 0.03068510 -0.04780024 -0.09334748 0.13550450 0.03166435 -0.04712440 0.03139968 0.05630281 -0.03456303 0.09906957 0.03565288 0.02567795 0.10426352 -0.10994170 0.09499505 -0.07883024 -0.12145004 -0.05632672 -0.07539483 0.12782729 -0.00911588 -0.11169987 -0.11041484 -0.03745794 -0.10342970 -0.02932869 0.01406282 -0.14303885 0.02162754 -0.00054726 -0.04612750 -0.13035715 0.04450469 0.00614167 0.02871483 0.03458139 0.05608569 0.08605004 -0.04191124 -0.01174925 -0.03006148 -0.12327105 0.05054732 -0.02613654 0.07943793 0.09693045 0.05484233 -0.01746242
-0.04625975 0.10699471 -0.00247494 0.03762832 -0.10636365 -0.04277833 0.06611897 0.06627642 -0.02684092 -0.00809276 -0.05950152 -0.03568731 0.13129580 -0.07517038 -0.05957712 0.06790712 0.07845150 -0.05612305 -0.06279337 -0.11421713 0.08356106 -0.00240676 -0.07318971 -0.12308129 -0.05792404 0.06091834 -0.11990031 0.04185674 -0.11808200 0.14281574 -0.10590478 0.13738759 0.00039160 0.08911761 0.01406127 -0.07358961 0.00064296 0.07412946 0.08289935 0.08898375 -0.01350845 0.06777250 0.07130963 -0.02729821 -0.03814615 0.03386342 -0.00740637 0.05692196 0.07597716 -0.04097639 -0.04332046 0.09044867 0.02663699 -0.14335635 -0.09760257 -0.04019319 -0.05361044 0.11761616 0.07330567 0.06041893 0.11722783 0.11389840 0.08204874 -0.01730313
