# Matrix shape: (64, 16)
-0.09597198 0.04938966 0.10689489 0.10024929 -0.06876627 0.06426793 -0.03393460 0.04696949 -0.15886843 -0.18818365 -0.20224905 -0.17052694 -0.08414049 0.01769151 -0.03277683 -0.11724567
0.02350945 -0.10433279 0.13317899 -0.18709603 -0.08296920 -0.17563760 0.01351890 -0.00770711 -0.04071843 0.22166747 -0.11962147 -0.01199585 0.08445195 0.18672365 0.17107403 0.01065018
-0.07751331 0.09304456 0.18097965 -0.01836735 0.11919536 0.18587694 -0.11591684 -0.03737308 -0.19630678 0.06140319 0.18664779 -0.05440232 0.03114717 0.08821342 0.00323689 0.18187876
0.01501089 -0.22739163 -0.18869320 -0.26443270 0.00594566 0.14668392 -0.02255935 0.23918813 -0.02071798 0.07628858 0.24769591 0.10408327 -0.01697413 0.25413802 -0.13119601 0.11291081
0.13957506 -0.13733640 -0.21627869 0.06268542 -0.07756364 -0.10824220 0.03450212 -0.16342832 0.20571683 -0.01134710 -0.06389147 0.19015791 0.05601669 0.03071801 -0.10127725 0.21967226
-0.05945538 0.18909766 -0.00323442 0.10596646 0.15730637 -0.16756162 -0.14823179 -0.22830881 0.16167097 0.19625753 -0.07410187 -0.10679046 0.03655133 0.11586611 0.05204765 -0.03430226
-0.14069706 0.19508514 -0.14355259 -0.22269788 -0.08241037 0.03461777 0.07569001 0.07933979 -0.12665471 -0.07863476 -0.09351472 -0.10323143 -0.19185631 0.03584621 -0.05615827 -0.22175719
-0.12779902 -0.13192986 -0.09024191 -0.13622893 -0.02869576 0.07245144 -0.18366218 -0.01076836 -0.05549881 -0.10987802 -0.03988063 -0.08843379 0.00430043 -0.16199128 0.03252903 0.21074167
0.18292372 -0.10478510 0.10212880 -0.25920504 0.19159807 -0.22853497 -0.20632377 -0.21408878 -0.21440667 0.05518265 -0.05035746 0.03516724 -0.01483240 -0.00013523 -0.06879026 -0.12882146
-0.19060482 0.10808161 -0.11106978 -0.03565912 0.10358660 -0.04588249 -0.04694057 -0.14841263 -0.19518203 0.10216244 -0.04084678 0.13886926 0.00910759 -0.00248176 -0.20686755 0.00233784
-0.04085578 -0.15128975 -0.03475752 -0.00952116 -0.16981614 0.02833418 0.15545623 0.02524994 0.21259739 0.09586382 -0.17706570 -0.11198333 -0.03613840 0.05108634 0.01470038 0.21269320
0.00922021 -0.17230123 -0.07027117 -0.22778755 -0.05361847 0.13241155 -0.01142065 -0.25053585 -0.19582400 0.10899383 -0.20716682 -0.21645738 -0.12993346 0.22096758 -0.05091682 -0.08275463
-0.15038915 0.14154387 -0.02580742 0.03266965 0.04381501 0.05405073 0.14169045 0.00356667 0.01299765 -0.00672034 -0.17565587 -0.04169190 0.21921778 -0.15883543 -0.13934937 -0.22909926
0.00829571 -0.21868075 -0.14862254 0.24915709 0.08603051 0.11442573 0.02820032 -0.21437237 -0.13410689 -0.18713507 -0.15436849 0.10215253 -0.08989418 0.25247443 -0.20259534 -0.23268694
0.22795172 -0.19721340 0.19401194 0.05099308 -0.20905244 0.19898765 -0.05171565 -0.08559024 -0.17640691 -0.19273938 0.04001652 -0.22667490 0.08525386 -0.04574627 0.07066077 -0.04520654
0.06401851 0.01048812 0.09588640 -0.10470896 -0.15238100 0.04734098 -0.14017732 -0.14021121 -0.21307643 -0.05080723 -0.14716822 0.16648664 0.16739251 0.07274488 0.20099597 0.11618786
-0.21665815 -0.01321467 -0.02625683 -0.13355997 0.05471535 -0.06126687 -0.10173927 -0.00089124 -0.14781208 0.18821390 0.13986970 0.21778719 -0.02937616 0.06471960 -0.00291467 -0.18817003
0.09570756 -0.18650390 -0.10945880 -0.09665641 -0.22503264 0.00862561 0.02653694 -0.04323844 0.15232790 -0.01395730 -0.06208035 -0.11894275 -0.13289157 -0.05572649 -0.14682719 -0.15835908
-0.03131337 -0.07393207 -0.12850066 0.11893633 0.19293042 -0.14433670 0.09101616 -0.14347209 -0.00048895 0.20095934 0.00363315 -0.26125994 0.25699338 -0.03642193 -0.09817468 -0.10508717
0.19314580 -0.01390056 0.15555251 0.14672576 -0.07767545 0.03563669 -0.14193669 0.20351553 -0.10733093 0.17949398 0.04976940 0.13104258 -0.15824528 -0.00853975 0.14672004 0.00760253
-0.00064439 0.10347334 -0.16828242 -0.03632802 0.09616812 0.10475797 0.21336354 -0.03578793 0.04202450 -0.10518791 -0.02767832 -0.10799827 0.16749120 -0.00636440 0.08492214 0.11992005
0.03162712 0.01549402 -0.00888073 -0.19293052 0.02594230 -0.03975045 -0.19141826 0.21429175 -0.01337678 -0.10687635 -0.22445941 -0.21133560 0.07721805 -0.09606824 -0.09070591 -0.12673791
0.18313877 -0.04416849 0.14369413 0.17982879 -0.17521521 0.16795313 -0.03267859 0.22057636 0.10975774 -0.22329243 0.03149696 0.07079234 -0.07352311 0.17099738 -0.18833594 -0.06251886
0.21935086 0.22423112 0.10763986 -0.14874870 -0.19635908 -0.18458460 -0.04644043 0.12323757 0.05892305 -0.02123289 0.20576665 0.17610553 -0.09803765 -0.11960766 0.01411253 0.05964287
-0.01404797 0.06837347 0.19147913 -0.06883266 0.10408099 0.04737793 0.07845188 0.07568561 -0.06604159 -0.12506042 0.11346320 -0.17826360 0.15675573 -0.18618727 0.19530869 0.12408203
-0.04385922 0.11148727 -0.10564000 0.02155759 0.05673836 0.01617489 0.03468933 -0.03016460 -0.08096442 0.10777231 0.06712315 0.06297285 0.19121015 -0.15292551 -0.02707571 0.02295139
0.18306643 -0.21665259 -0.15692157 -0.06438959 -0.19482635 -0.17826687 0.15278716 -0.01155154 -0.18066929 -0.04283555 -0.01471202 -0.09221931 -0.18449451 0.11363383 -0.01488701 0.23453765
-0.18963602 -0.15350889 0.00702611 -0.19380409 0.16338159 0.20400147 0.20692380 -0.17088446 0.19562787 0.18738261 -0.08876592 0.00422996 0.14055739 0.16026773 -0.21101828 0.26824647
-0.04662906 0.08188186 -0.16517413 -0.20894814 -0.15094578 0.12951759 -0.10556604 0.12795389 0.04998995 0.07327112 -0.06892180 -0.08960075 -0.09936941 -0.15626301 0.24647494 0.00139383
-0.08950943 -0.21678197 -0.00776827 -0.22997206 -0.00048770 0.13936855 -0.12583172 0.14269023 -0.09298493 -0.17423598 -0.23273295 0.13613780 -0.20764650 0.13454147 0.01796495 0.11862367
-0.16935469 0.20001040 -0.22983776 -0.17158620 0.13169654 0.00240419 -0.12227202 -0.03613556 -0.20352109 -0.19880940 -0.03778226 0.17181687 0.05980451 0.03233196 -0.04934862 0.20886491
-0.00729933 0.10092755 0.01796934 0.05254376 0.07277261 0.16928257 0.13237561 0.04657827 0.12606104 -0.04446386 0.18549955 0.08138039 0.17376143 -0.02485240 -0.21787475 0.03637383
0.08422626 0.18502697 0.07322890 0.09947751 0.18031050 -0.06900688 0.20196328 0.11160086 0.14535852 0.15950508 -0.18687166 0.13587460 0.21302894 -0.16374850 -0.03328964 -0.14699581
-0.05704502 0.06040106 0.14743854 -0.04970766 -0.21683313 0.11303289 0.12935016 -0.02363549 0.23358624 0.21305378 -0.03265616 0.03183031 0.02190029 -0.02756910 -0.08408131 -0.13503754
-0.15945539 0.13994874 -0.05490320 -0.13925499 0.20502526 0.05083419 0.17266048 0.24496372 -0.01119350 0.06477032 0.25215119 -0.19485140 -0.08553267 0.05004901 0.00034397 0.07955541
0.12275731 -0.08223043 -0.00379942 0.24321859 -0.12295855 -0.17819628 -0.17230976 0.16532788 -0.24141113 -0.10551209 0.16086698 -0.12717968 0.18088469 -0.09606340 0.01814372 0.01323884
-0.00141589 0.13742791 0.19360767 -0.13779682 0.12209873 0.05051171 -0.00093575 -0.15632977 0.05755076 0.16293967 -0.19584365 -0.21206376 -0.22688289 0.04198970 -0.05532201 -0.06091603
0.21395901 -0.04275276 -0.14306940 0.02928346 -0.11914035 -0.05669307 0.11406050 0.05460591 -0.15010634 0.21916899 0.15119825 -0.15011321 0.08681078 0.09419414 -0.16447636 -0.16093569
-0.18831095 0.09368678 0.02889832 0.08806416 -0.09218094 0.16941184 0.01868309 -0.18085331 -0.04695240 0.10964643 0.03936003 -0.02427085 -0.15615153 -0.13727199 0.19690132 -0.12504934
0.15867510 -0.06631942 -0.00581546 -0.22478014 -0.06438886 0.19202232 -0.20565671 0.10828740 -0.19155933 0.02271469 -0.20780623 -0.17906184 -0.18630350 -0.07037137 0.01967406 -0.16618001
0.03958757 0.16997099 0.22322364 0.20365712 0.14592651 -0.04920095 -0.02015594 0.23652875 0.15056773 -0.03445243 0.20583554 -0.23985255 0.21825019 0.14628601 -0.16598491 -0.18797736
0.17688476 0.22773746 0.01064665 -0.08031812 0.12421673 0.09510237 -0.01807581 0.18151461 0.14369950 0.04627560 0.11184317 -0.21532986 -0.09937004 0.01504036 0.05162840 -0.02064028
0.07297441 0.06130933 -0.20343855 0.05621016 -0.01520719 -0.14935790 -0.00682902 -0.05410216 -0.10442290 -0.20413409 0.22987865 -0.16861072 0.04862824 0.18315531 -0.00964832 -0.13868251
-0.22278890 0.05484321 -0.13990632 0.03625431 0.06305882 -0.06972445 0.15116036 -0.02137593 -0.11169164 -0.15785997 0.06793635 -0.13503246 0.03552112 -0.01635480 0.15373594 -0.13869920
-0.10529009 -0.01901899 -0.13444073 0.07801438 -0.07437909 0.08509738 0.12692349 0.12780096 -0.03099806 0.11837314 -0.11437818 -0.23017904 -0.01207493 -0.16275011 -0.17507215 0.04743027
0.19489262 -0.07274687 -0.00271379 -0.15729937 0.02900901 0.05452717 -0.02425234 0.18574516 -0.17858018 -0.01767384 -0.11714364 0.21135844 0.18626830 0.23870772 0.20611870 0.07414156
-0.17283504 -0.15115742 0.04401409 -0.20441468 0.13995673 0.09108278 0.04374564 -0.19944531 0.16333887 -0.01418586 -0.08738558 0.11254870 0.01007929 -0.09355636 0.04267925 -0.14831905
0.21352002 0.20110635 0.09823507 0.11461679 -0.22960795 -0.12088632 -0.22169559 -0.11149088 -0.18816608 0.16555953 0.11744666 0.12927613 -0.09565074 0.17260833 -0.02429061 -0.05011174
0.11655910 0.14543098 -0.15891647 0.21702549 -0.01321465 0.05052928 -0.23002693 0.01086355 -0.10351390 -0.13829269 -0.08750756 -0.01646157 -0.05078258 -0.14931177 0.17630512 0.07761585
-0.21246450 0.02671283 0.03871549 -0.01341107 0.04394695 -0.00332511 0.09153470 -0.19992220 -0.11264942 0.15715608 -0.18205076 0.11022659 0.25536966 -0.25260383 -0.08810727 0.23678508
-0.02199874 0.02959726 0.05777292 0.08104894 -0.08581550 0.04562607 0.15134016 -0.03933559 -0.20766528 0.07106633 -0.04553239 -0.07011165 0.15197651 0.02544698 -0.12925835 -0.09436068
-0.02581699 -0.06351186 -0.03582283 -0.18235365 0.16259444 0.11636121 0.03414552 0.06837561 0.04477126 0.17528740 0.06877288 0.02123811 -0.12497503 0.09299756 -0.21769883 0.09023225
-0.19794379 -0.09119649 0.11176565 -0.13139835 0.18042150 -0.12003507 0.21794344 0.05588605 -0.09416596 0.13377579 -0.20328380 -0.14051403 -0.13526183 0.01249036 0.01763822 -0.19559953
0.22175510 -0.02279850 -0.11393423 -0.02143306 -0.08975280 0.08132388 0.07322755 -0.06565677 0.03459357 0.14656562 -0.14731829 -0.07676769 -0.01153769 -0.17638884 0.04506581 0.03485549
-0.18326905 0.03617055 0.21989438 0.11481179 -0.11756006 0.21002631 -0.15340760 -0.10915395 0.09289093 0.18023570 0.21976389 0.19641648 -0.11957517 0.04146172 -0.13858844 0.00243320
0.22091295 0.12895556 -0.25207967 -0.08551340 -0.19287412 0.09497036 -0.02148190 -0.19013923 -0.10423104 0.05316017 0.01075256 0.25902230 -0.02332831 0.08088133 -0.09744100 0.00885250
0.00257275 0.19549717 0.08681171 -0.12469683 -0.20335859 -0.21899831 -0.07361595 0.01655227 0.21618029 -0.01292553 0.07997420 0.10879827 -0.17206962 -0.18855628 0.07817832 0.09934665
-0.09307700 0.01091781 -0.27239540 -0.02385792 0.04275479 0.02054070 -0.02820370 0.07838386 -0.07491951 0.15134658 -0.24019730 -0.15820622 -0.18255320 -0.25087312 0.21142250 -0.03018250
-0.17166813 0.01982173 -0.21399377 -0.01385814 0.09906212 -0.02368877 0.10946690 0.02112771 -0.23290128 0.01629223 0.12685233 -0.06800266 0.05423457 0.00174515 0.04879281 0.07928174
-0.24487154 0.17464410 0.13090262 0.00830694 0.03432086 -0.18052445 -0.05457284 -0.01586181 0.08104245 -0.10481281 0.02813393 -0.09835138 0.20120831 -0.22696748 0.04827722 0.19023511
-0.17554969 -0.02204785 0.09350055 0.08093453 0.01657227 0.08368552 -0.15581323 0.18622419 -0.00872028 0.14299980 0.03494817 -0.02946911 0.11303051 0.21562828 0.23063532 -0.19003373
0.03292441 -0.16050309 0.12090769 0.20329295 -0.15710001 -0.03392116 0.15613209 0.17333114 -0.21046199 0.13594545 -0.05168727 -0.18652301 0.02733999 0.13391079 0.12626407 -0.19372837
-0.19685811 -0.14868137 0.16474506 -0.24443206 0.01303103 -0.05025885 0.09497318 0.06931983 -0.09971861 0.07285112 0.25119692 0.01470936 -0.13606401 0.02640909 -0.20369560 -0.13736725
-0.06145748 -0.17877807 0.23582932 0.02469789 0.17446268 -0.03205641 -0.03578527 0.04377602 -0.05001367 -0.05544224 -0.23755161 0.16227877 0.24980232 -0.26667023 -0.05880568 -0.16562475
