# Matrix shape: (64, 8)
0.10442763 -0.18472701 -0.19329038 0.02046724 -0.05953260 -0.09741198 -0.21064758 0.17467542
-0.02629262 -0.11628694 -0.08681011 0.08604134 -0.18532252 0.01075037 -0.02250776 0.07678849
0.10857115 -0.14498098 0.10176502 0.20920636 0.00653858 0.10720319 -0.09452179 0.05400740
0.08913328 -0.09773698 0.14707033 -0.25042492 -0.10110665 -0.15309234 -0.12638941 -0.13716945
-0.21457431 0.02829001 -0.03828426 -0.19092964 -0.00002371 -0.03112034 0.10206565 -0.17716171
-0.05565419 0.03610049 0.11364904 0.02590633 0.05142791 0.24090900 -0.06854898 0.15358828
0.19654368 -0.20237848 0.06867836 0.12363856 -0.02480541 0.11998823 0.01351014 0.17173502
0.02393712 -0.14172369 0.20039704 0.07816621 0.19395995 0.06523433 0.13872793 0.13754059
0.05343103 -0.04230561 0.05878277 -0.18176715 0.00218693 -0.07037739 0.03325520 -0.18423954
0.15574376 -0.21182881 0.12347542 0.16566464 -0.21030268 0.21604605 -0.15706469 -0.03395619
0.15484446 -0.06246912 0.24594811 -0.08368088 -0.02063430 -0.14189310 -0.08849119 0.22478268
0.20855407 0.00813457 0.04104421 -0.19217165 0.19391234 -0.02760398 -0.08236980 -0.18577935
0.20881860 0.10075861 0.17221285 0.04194764 -0.15128472 0.10935575 0.05165732 0.06771625
-0.08466486 -0.10020047 0.18391502 0.06880701 -0.08902995 0.01759754 -0.07752188 -0.03466564
0.12333215 -0.18033481 0.20587115 0.15114105 0.00002473 -0.10527313 0.03296889 -0.14709066
0.15058878 -0.11421265 0.03650038 -0.25883853 0.11285123 0.15787911 0.17588004 0.01776493
0.12993570 0.06823246 0.15084118 0.12324713 -0.19997527 0.01531160 -0.06742972 -0.10159157
0.16067018 -0.02198831 0.04980132 0.14203782 0.14993218 0.14388947 -0.04399507 -0.22857916
-0.21211696 0.06180090 0.02379923 -0.13116258 0.10718070 0.24664566 0.17296456 -0.02077368
0.05226415 -0.14114004 0.13569719 -0.19972992 0.17243020 -0.10382365 -0.08013326 -0.19724199
-0.03437423 -0.01239263 -0.08634297 0.18739311 0.12532832 -0.20118020 0.00045627 0.06708497
0.22225855 -0.04386755 0.12850417 -0.00744541 -0.07857539 0.13470447 -0.20647238 0.19074880
0.23079082 -0.05190149 0.08136733 0.23039293 0.05871151 0.08042064 0.07458486 -0.08481631
0.07995164 -0.11522653 0.23273177 -0.08711520 0.04065181 -0.05441270 0.14634788 0.00373092
0.16218784 -0.05136764 -0.12116328 0.12207512 -0.13245440 -0.18293002 0.12246519 -0.13740903
-0.06718216 -0.04636365 0.04332123 -0.06043390 -0.07211506 -0.03127528 0.20092556 0.05957294
-0.10433434 -0.15435836 0.02224223 0.06838057 0.00099047 0.16089579 0.22243202 0.06703342
0.10504352 0.12687182 -0.06324802 0.06427024 0.20579347 -0.10133908 0.04310435 -0.08305886
-0.17467713 0.11441241 0.21765853 -0.11625107 0.09360052 0.09438287 0.11706432 0.13318434
0.21575370 0.17116830 -0.23589990 -0.11371519 0.12048508 -0.15136284 0.03091446 -0.11841699
0.06490780 0.10413878 0.09487054 0.19037981 -0.01713910 0.12290940 0.09167957 -0.06312083
-0.19176061 0.20990510 -0.08973354 0.17157038 0.15231021 -0.02193076 -0.22313553 0.01663833
-0.12418306 0.04885524 -0.08836713 0.20621836 -0.20843416 -0.04645046 0.02156372 0.01782258
0.18274060 -0.06219472 -0.22199427 0.14226559 0.06660710 0.14342627 -0.17242597 -0.15559876
-0.09628923 0.00769879 0.06843082 -0.16268770 -0.02658101 -0.04929513 0.22045949 -0.07851133
0.22102393 -0.13506986 -0.12419227 -0.20725273 0.16897762 -0.19042875 0.08240134 -0.10677233
0.23015754 0.02154047 -0.19848153 0.02817579 0.01739071 -0.22292733 0.03487852 0.21964802
0.07513805 -0.00017807 -0.04874985 0.07444913 -0.09374098 0.23243827 0.21346730 0.10190160
-0.07822705 -0.21589473 -0.12991948 0.22402637 -0.21065493 -0.21948551 -0.01105377 0.06233838
-0.25401780 -0.21327403 -0.00440094 -0.08408541 0.15637287 0.06017474 -0.22580346 -0.20642889
0.18654099 -0.02957638 -0.10580510 0.08324184 -0.05451756 0.10880198 0.07690171 -0.09768970
-0.18195878 0.11728979 -0.14038078 -0.02544133 0.02060762 -0.12744288 0.11692306 -0.15737207
0.07288231 0.01440929 0.10668001 -0.23181345 0.00765584 0.12733206 -0.14453386 0.06028172
-0.01803533 0.19336218 -0.07130639 -0.01692649 -0.09215299 -0.07212702 0.05213074 -0.24995805
0.17503922 0.16126874 0.12012773 0.17522377 -0.06106810 0.05836950 0.02911035 -0.15442187
-0.10566256 -0.07163758 -0.08004958 -0.22780500 -0.15734985 -0.03537203 -0.05607100 -0.20815259
0.03829877 0.11806728 0.19190283 0.19173223 -0.15622643 -0.06334603 -0.10007942 0.03095845
0.04606026 0.03996989 0.11603528 0.11185008 -0.11616334 0.15028766 0.14210996 0.01963475
-0.19722864 -0.13506874 0.08451746 0.10000148 0.21409971 0.13350727 0.10597341 -0.00010208
0.19493724 -0.07381697 0.12357427 -0.09517632 -0.00669941 0.16211796 0.14031118 -0.05306020
0.01925173 -0.12069193 0.13801545 0.18793279 0.08992594 -0.22050065 -0.15577526 0.17757450
-0.02112731 0.13526727 0.19541135 -0.08782224 -0.14002278 -0.22354592 0.10988450 0.13918568
-0.01446240 -0.22382553 -0.14284691 0.01301313 0.09640723 -0.07482976 -0.13452615 -0.15555836
0.24829173 0.07336431 -0.18009022 -0.13055940 -0.19557209 0.06259062 -0.07786249 0.01207760
-0.02102861 -0.20007238 -0.20044830 -0.17732617 -0.08722752 0.04798404 -0.09450929 -0.00276069
-0.05252143 0.20982066 -0.13479009 0.22475648 -0.19668493 -0.19829044 0.05856152 -0.15757732
0.12512825 -0.12022651 0.20933853 0.22877105 0.00652228 0.05851480 0.23404312 0.13000260
-0.19137228 -0.00214634 -0.20243707 0.21508379 -0.04580910 0.02554698 -0.12842466 -0.12900257
0.06017435 0.18757704 -0.09568588 0.05476543 0.22425036 0.24591501 -0.02377188 0.22924793
0.11158487 0.20888115 0.02756888 -0.19469444 -0.05796178 0.07829560 0.15539795 -0.23520531
0.20031303 -0.20547691 0.16022772 0.24954090 0.04571493 -0.02965318 0.15026599 -0.05715220
-0.20843582 -0.15893427 0.09456062 0.16868578 0.00055125 -0.24348474 -0.26998696 -0.06889341
0.14469478 -0.14820458 0.05296745 -0.15694016 0.19687505 -0.07763929 -0.02949589 -0.20503215
-0.19992808 0.00710666 0.06392305 0.15789184 -0.20921846 0.06468498 -0.01094874 0.16004495
