# Matrix shape: (64, 8)
0.10229846 -0.18472703 -0.19579354 0.01782944 -0.07097012 -0.10386559 -0.21347772 0.16940346
-0.01723505 -0.11628633 -0.09191597 0.08225419 -0.18835568 0.00517886 -0.02075250 0.07709946
0.10843293 -0.14498101 0.10312688 0.20971434 0.01440520 0.11448345 -0.09130530 0.04935079
0.08929998 -0.09774160 0.14715411 -0.25125441 -0.10276312 -0.14600447 -0.12795556 -0.13784963
-0.20918912 0.02829001 -0.03233320 -0.18801571 -0.00008298 -0.02418092 0.11033013 -0.17715268
-0.05324072 0.03610049 0.11528041 0.02760992 0.05142893 0.24077483 -0.06550623 0.15290266
0.19615468 -0.20237848 0.07211111 0.12396424 -0.02480558 0.12050524 0.01592557 0.17173502
0.02624729 -0.14172369 0.20324095 0.08326559 0.19395633 0.05727702 0.14311476 0.13756490
0.05308804 -0.04230626 0.05995191 -0.18132940 0.00395017 -0.06887828 0.03356233 -0.18382928
0.16086011 -0.21182881 0.12414894 0.17094766 -0.21028867 0.21088959 -0.15580986 -0.03395987
0.15239818 -0.06246912 0.23928869 -0.09087778 -0.03683251 -0.15266198 -0.09071431 0.22452919
0.20750107 0.00813629 0.04045642 -0.19289292 0.19648221 -0.02839592 -0.08254787 -0.18481711
0.20822702 0.10075861 0.17431262 0.04410798 -0.15150635 0.11088806 0.05009551 0.06778646
-0.08619198 -0.10020045 0.18286091 0.07634718 -0.10363309 0.02388088 -0.07859440 -0.03402671
0.12328506 -0.18033481 0.20388670 0.15085164 0.00002414 -0.10526933 0.03179068 -0.14708737
0.15092091 -0.11421267 0.03729326 -0.25803325 0.11159229 0.16041794 0.17714076 0.02176693
0.13013147 0.06823246 0.15107520 0.12345260 -0.19999017 0.01506320 -0.06730601 -0.10161904
0.16537976 -0.02198831 0.05953936 0.15516108 0.14792828 0.14302495 -0.03421009 -0.20971002
-0.21304411 0.06180091 0.02193509 -0.13341181 0.11527561 0.24492182 0.17110269 -0.02107565
0.05347440 -0.14114355 0.13717930 -0.19158156 0.17198446 -0.10421100 -0.07933462 -0.19663037
-0.02999385 -0.01239263 -0.08246744 0.19342609 0.12533440 -0.20050257 0.00426346 0.06706449
0.22174929 -0.04386755 0.12423465 -0.01141935 -0.07857605 0.13444708 -0.21512370 0.19075018
0.23083684 -0.05190149 0.08242885 0.23039304 0.05871151 0.08045862 0.07477681 -0.08481631
0.08125467 -0.11522653 0.23397213 -0.08589389 0.05084297 -0.05398235 0.14781496 -0.00008655
0.16251558 -0.05136791 -0.12077975 0.12260529 -0.13255841 -0.18427387 0.12216009 -0.13773341
-0.06672055 -0.04636365 0.04409818 -0.05957981 -0.07548151 -0.03476438 0.20243892 0.06011241
-0.11144374 -0.15435834 0.00647731 0.06211801 0.00627742 0.14735521 0.21210635 0.06654662
0.10562467 0.12687173 -0.06270437 0.06494635 0.20936637 -0.10009912 0.04355028 -0.08210403
-0.17416182 0.11441243 0.21845922 -0.11543738 0.09866602 0.09194428 0.11770111 0.12631375
0.21437672 0.17116848 -0.23705538 -0.11379904 0.12332286 -0.15078947 0.02987950 -0.11719871
0.06440676 0.10413878 0.09412377 0.18948543 -0.01711754 0.12076958 0.09188227 -0.06237222
-0.19148821 0.20990515 -0.08922447 0.17141385 0.15016210 -0.01803189 -0.22206508 0.02236285
-0.12342922 0.04885524 -0.08939199 0.20467228 -0.20945264 -0.04745119 0.02869059 0.02412660
0.18119484 -0.06219489 -0.22328556 0.14077756 0.06756151 0.14522451 -0.17329064 -0.14757280
-0.09370517 0.00831221 0.07021600 -0.16099639 -0.02972674 -0.04290853 0.22319077 -0.07983606
0.21980056 -0.13506900 -0.12512536 -0.20819214 0.17657332 -0.19126312 0.08125134 -0.10589444
0.23018998 0.02154047 -0.19842373 0.02825366 0.01737380 -0.22292987 0.03503776 0.21964374
0.07459162 -0.00017807 -0.06264503 0.07862464 -0.09377328 0.22359517 0.20273376 0.10059652
-0.07593693 -0.21589473 -0.12752122 0.23036198 -0.21066232 -0.21930996 -0.00743592 0.06232309
-0.25395018 -0.21327403 -0.00225552 -0.08278044 0.16035581 0.06284835 -0.22405419 -0.20650503
0.19097973 -0.02957641 -0.11047667 0.07350593 -0.05705944 0.11014012 0.07966665 -0.09610634
-0.18232831 0.11728980 -0.14673175 -0.03039024 0.02060718 -0.12736826 0.11615039 -0.15737204
0.07466323 0.01440935 0.10690293 -0.23154959 0.01452323 0.12967783 -0.13796304 0.06848992
-0.01865903 0.19336218 -0.07233516 -0.01770199 -0.11272829 -0.07053418 0.05099840 -0.24910080
0.17485431 0.16126874 0.12138966 0.18362710 -0.06106788 0.05934063 0.03037744 -0.15442242
-0.10294352 -0.07163758 -0.07872842 -0.22713146 -0.15735282 -0.03280239 -0.05496326 -0.20814623
0.03978481 0.11806728 0.19278322 0.19175063 -0.15622643 -0.06630594 -0.09893743 0.03095830
0.04365980 0.03996989 0.11402903 0.11294085 -0.11618108 0.15094149 0.13862893 0.01962207
-0.19381769 -0.13506873 0.08675127 0.10177242 0.21413572 0.13167413 0.10617009 0.00037107
0.19683021 -0.07381698 0.11611126 -0.10361871 -0.00839249 0.14887588 0.13661364 -0.05592040
0.01875033 -0.12069319 0.13731977 0.18758954 0.09677200 -0.22148892 -0.15646884 0.17626360
-0.01977717 0.13526684 0.19366105 -0.08346274 -0.13596418 -0.22360303 0.11034256 0.13763984
-0.01024852 -0.22382553 -0.13571757 0.01329186 0.09644559 -0.06677295 -0.13042057 -0.15557453
0.24734388 0.07336437 -0.18009773 -0.13041009 -0.19876596 0.06189168 -0.07975275 0.01086022
-0.02221422 -0.20007238 -0.19807111 -0.17690715 -0.08720356 0.04683095 -0.09223926 -0.00320782
-0.05450764 0.20982726 -0.13626930 0.22446412 -0.19531821 -0.20329219 0.05745986 -0.15719619
0.12843867 -0.12022651 0.21047463 0.23619184 0.00651617 0.05787313 0.23912948 0.13000207
-0.19059627 -0.00214635 -0.20382974 0.21375670 -0.04343498 0.02392148 -0.12916099 -0.12990659
0.06168475 0.18757769 -0.09898085 0.05427815 0.23377556 0.23891479 -0.02518982 0.22843814
0.11212285 0.20888168 0.02868023 -0.19297554 -0.05795937 0.07856800 0.15716225 -0.23352566
0.19728021 -0.20547691 0.15910898 0.25043344 0.04610352 -0.03039169 0.14803106 -0.05705085
-0.20956329 -0.15893225 0.09365516 0.16778654 0.00054959 -0.24475421 -0.27073887 -0.06907861
0.14396907 -0.14820769 0.05361236 -0.15756194 0.19504225 -0.07354841 -0.03011209 -0.20624678
-0.19853641 0.00711648 0.06527812 0.15937357 -0.20804723 0.06245431 -0.00993771 0.16105489
