# Matrix shape: (64, 16)
-0.09599502 0.04869681 0.10277479 0.09932233 -0.06890364 0.06430805 -0.03405833 0.04889274 -0.16421802 -0.19277677 -0.20380495 -0.16954221 -0.08544040 0.01890501 -0.03312285 -0.11678015
0.02289867 -0.09953357 0.12574880 -0.18292294 -0.09195388 -0.17693885 0.01095708 -0.00460367 -0.04247979 0.22236285 -0.11403424 -0.00873498 0.07375094 0.18947482 0.16725017 0.01743210
-0.07760669 0.09099364 0.18006019 -0.01910166 0.11921694 0.18588865 -0.11591792 -0.03897340 -0.19416352 0.06302256 0.18643041 -0.05661715 0.03168630 0.08633672 0.00470408 0.18389855
0.01239128 -0.22820257 -0.18863218 -0.26929894 0.00987518 0.14963792 -0.02375307 0.23774470 -0.02134032 0.07929333 0.24533570 0.10203289 -0.01573761 0.25252953 -0.12750484 0.10977659
0.13957824 -0.13877545 -0.21695818 0.06261554 -0.07756567 -0.10823394 0.03450174 -0.16439158 0.20471348 -0.01231216 -0.06533565 0.19022037 0.06022077 0.02840965 -0.10093131 0.22005813
-0.05947131 0.18855362 0.00148607 0.10332590 0.15729998 -0.16755740 -0.14823769 -0.22850715 0.16031517 0.19626372 -0.07373638 -0.11260346 0.04615600 0.11428142 0.06244677 -0.03048470
-0.14069714 0.19510877 -0.14353654 -0.22269125 -0.08241035 0.03461727 0.07569001 0.07938907 -0.12665212 -0.07863143 -0.09348989 -0.10322015 -0.19189571 0.03593395 -0.05618735 -0.22177029
-0.12779896 -0.13194652 -0.09019364 -0.13629948 -0.02869595 0.07245170 -0.18366224 -0.01130305 -0.05561548 -0.10988064 -0.03987856 -0.08847319 0.00678638 -0.16208540 0.03280056 0.21078111
0.18071902 -0.10473853 0.10243948 -0.25949761 0.19006398 -0.23096505 -0.20784442 -0.21492605 -0.20903157 0.05412719 -0.05258939 0.03461966 -0.01663608 0.00091293 -0.06900812 -0.13140473
-0.19060472 0.10799626 -0.11112053 -0.03581028 0.10358647 -0.04588151 -0.04694071 -0.14855091 -0.19519630 0.10214369 -0.04098607 0.13883485 0.01124960 -0.00416082 -0.20682745 0.00349335
-0.04106682 -0.15504329 -0.03534973 -0.00930635 -0.16991112 0.02946551 0.15538406 0.02445618 0.21116608 0.09131946 -0.17823282 -0.11194467 -0.03597938 0.05050863 0.01436329 0.21239598
0.00699610 -0.17044319 -0.07219666 -0.22565095 -0.05574646 0.13209641 -0.01358743 -0.24824189 -0.19566016 0.10343489 -0.21033426 -0.21552745 -0.12997688 0.22113897 -0.05053654 -0.08247826
-0.15038908 0.14150204 -0.02550796 0.03221146 0.04381450 0.05405131 0.14169024 0.00274227 0.01238963 -0.00679916 -0.17566103 -0.04195250 0.21940473 -0.15903153 -0.13921092 -0.22901686
0.00942600 -0.22004509 -0.14804144 0.24932739 0.08596924 0.11441155 0.02814561 -0.21867490 -0.13615192 -0.19134554 -0.15938210 0.10252377 -0.09100184 0.24495360 -0.20327987 -0.23350306
0.22795172 -0.19721359 0.19401065 0.05099713 -0.20905246 0.19898763 -0.05171566 -0.08559071 -0.17640361 -0.19273925 0.04001538 -0.22667396 0.08525110 -0.04574443 0.07065825 -0.04521364
0.06199097 0.01017026 0.09663807 -0.10359910 -0.15064283 0.01957253 -0.13958400 -0.14020298 -0.21104795 -0.05016366 -0.14889698 0.16463299 0.16781554 0.07243218 0.20096622 0.11687501
-0.21665819 -0.01325951 -0.02628227 -0.13355657 0.05471535 -0.06126669 -0.10173926 -0.00102433 -0.14779757 0.18820950 0.13986434 0.21778619 -0.02935432 0.06472535 -0.00292763 -0.18817228
0.09549695 -0.18488102 -0.10623445 -0.09266874 -0.22503309 0.00370230 0.02655992 -0.04518630 0.15224893 -0.01307779 -0.06049441 -0.11431723 -0.12165314 -0.06196015 -0.13995802 -0.14529143
-0.03158516 -0.07459736 -0.13036077 0.12050807 0.19243182 -0.14438447 0.09092135 -0.14137854 -0.00184106 0.20021988 0.00509570 -0.26036546 0.25481364 -0.03445435 -0.09866609 -0.10627217
0.19124053 -0.01438206 0.15567324 0.14555182 -0.07533697 0.03372243 -0.14110166 0.20768528 -0.10689755 0.18147947 0.04982895 0.12911469 -0.15702882 -0.00220828 0.14788857 0.00871630
-0.00066500 0.10245267 -0.16832389 -0.04039910 0.09616204 0.10476344 0.21336237 -0.04017276 0.03947170 -0.10533238 -0.02842725 -0.10896507 0.16966936 -0.01291990 0.08668086 0.12114536
0.03164045 0.02042041 -0.01230278 -0.19218892 0.02594381 -0.03975362 -0.19141793 0.21521720 -0.01039388 -0.10684467 -0.22428274 -0.21078271 0.07471434 -0.09463980 -0.09255448 -0.12809773
0.18313882 -0.04420855 0.14368075 0.17982806 -0.17521523 0.16795316 -0.03267859 0.22056442 0.10975476 -0.22329363 0.03147046 0.07079083 -0.07348493 0.17098522 -0.18833423 -0.06251054
0.21935192 0.22361979 0.10819501 -0.15316370 -0.19636348 -0.18458578 -0.04644977 0.12242400 0.05915622 -0.02707212 0.20557487 0.17545839 -0.09695354 -0.12352443 0.01585271 0.06137430
-0.01624591 0.07299841 0.18907194 -0.06900426 0.10126583 0.04706411 0.07691514 0.07827227 -0.06596982 -0.12393992 0.10918765 -0.17714162 0.15730536 -0.18680349 0.19515428 0.11970560
-0.04350162 0.11042034 -0.10726722 0.02114481 0.05607651 0.01549289 0.03440450 -0.03127297 -0.07967199 0.10718737 0.06705224 0.06290135 0.19267417 -0.15437774 -0.02663486 0.02327245
0.18298496 -0.20713949 -0.16201092 -0.03997613 -0.19479643 -0.17723621 0.15280908 -0.01726804 -0.18395913 -0.05505288 -0.02995746 -0.06533775 -0.19746342 0.12500587 -0.03942740 0.22053322
-0.19138759 -0.15269931 0.00655239 -0.19242783 0.16339768 0.20347880 0.20688662 -0.17067342 0.19489142 0.18715939 -0.09062724 0.00402147 0.14039418 0.15963292 -0.21063700 0.26714069
-0.04658585 0.08072865 -0.16941808 -0.20931177 -0.15112022 0.12972896 -0.10575479 0.12738335 0.04812599 0.07196566 -0.07019382 -0.08846387 -0.09867929 -0.15717393 0.24734014 0.00211242
-0.08938742 -0.21738414 -0.00737231 -0.22844082 -0.00055156 0.13933086 -0.12582983 0.13944097 -0.09536938 -0.17500462 -0.23520158 0.13644765 -0.20850219 0.13433053 0.01656898 0.11731903
-0.16935481 0.19998455 -0.22965209 -0.17184274 0.13169655 0.00242643 -0.12227196 -0.03640067 -0.20335634 -0.19879921 -0.03773190 0.17170575 0.06022082 0.03207808 -0.04886499 0.20898178
-0.00095816 0.10058290 0.01877107 0.05158982 0.08616929 0.17007308 0.13889582 0.04600862 0.12338011 -0.04351411 0.18431592 0.07874347 0.17469327 -0.02557527 -0.21719007 0.03748226
0.08422341 0.18514554 0.07552535 0.09474188 0.18031159 -0.06897682 0.20196334 0.11173265 0.14280069 0.15936135 -0.18713486 0.13161865 0.21857174 -0.16898827 -0.02809886 -0.14515258
-0.04825240 0.06236237 0.15178630 -0.04706308 -0.21516109 0.11302908 0.13169259 -0.02216501 0.22748329 0.21077952 -0.02799681 0.02883929 0.01996350 -0.02563948 -0.08672769 -0.13777646
-0.16116217 0.13646983 -0.05576685 -0.14035287 0.20828453 0.04480140 0.17304872 0.24454549 -0.01005071 0.06477367 0.25263384 -0.19746982 -0.08521394 0.05140433 0.00195750 0.08328798
0.12826867 -0.08113784 -0.00579794 0.24335577 -0.12156724 -0.18126871 -0.17138527 0.16387533 -0.24450509 -0.11608643 0.15541342 -0.12502982 0.17884582 -0.09388696 0.01531182 0.00964904
-0.00141596 0.13742778 0.19361070 -0.13779992 0.12209873 0.05051177 -0.00093575 -0.15632753 0.05755719 0.16293976 -0.19584285 -0.21206592 -0.22688299 0.04199297 -0.05531685 -0.06091347
0.21399376 -0.03811370 -0.15213425 0.03445162 -0.11908497 -0.05673307 0.11409280 0.06366375 -0.14502728 0.21940020 0.15288934 -0.14603132 0.08180046 0.10643739 -0.17592949 -0.17233640
-0.18831077 0.09371667 0.02848986 0.08817080 -0.09218097 0.16941172 0.01868311 -0.18085252 -0.04704754 0.10964689 0.03933436 -0.02406868 -0.15620893 -0.13726740 0.19686846 -0.12510990
0.15867570 -0.06691277 -0.00763417 -0.22597861 -0.06438756 0.19202636 -0.20565601 0.11262824 -0.19160385 0.02292701 -0.20793609 -0.17906076 -0.19773687 -0.07181212 0.02034281 -0.17432603
0.03867210 0.17376810 0.22439975 0.20206961 0.15311082 -0.04820104 -0.00353698 0.23791237 0.15125929 -0.03343568 0.20738451 -0.23855886 0.21187115 0.15357943 -0.16407649 -0.18781847
0.17688474 0.22774076 0.01067013 -0.08030801 0.12421679 0.09510236 -0.01807575 0.18152398 0.14370336 0.04628018 0.11184748 -0.21532683 -0.09939592 0.01511417 0.05161321 -0.02067465
0.07158261 0.05540757 -0.20443511 0.05530110 -0.02250092 -0.14794274 -0.00902381 -0.06319016 -0.10592889 -0.20173113 0.22051622 -0.16929053 0.04999620 0.18119985 -0.00916308 -0.13966830
-0.22262236 0.05237044 -0.14003235 0.03641106 0.06311812 -0.07082384 0.15121879 -0.02057769 -0.11236282 -0.16312455 0.06948899 -0.13432145 0.03499446 -0.01571461 0.15304801 -0.13680333
-0.10529009 -0.01902893 -0.13444167 0.07801355 -0.07437909 0.08509739 0.12692349 0.12779805 -0.03100007 0.11837217 -0.11437996 -0.23017934 -0.01205167 -0.16275224 -0.17507143 0.04743433
0.19488922 -0.07054912 0.00531956 -0.15640086 0.02903719 0.05437339 -0.02425421 0.19374162 -0.17698435 -0.01553464 -0.11527000 0.21340115 0.18467058 0.24763103 0.20493810 0.07250061
-0.17283504 -0.15115747 0.04401403 -0.20441478 0.13995673 0.09108279 0.04374564 -0.19944538 0.16333912 -0.01418580 -0.08738548 0.11254852 0.01008106 -0.09355640 0.04267979 -0.14831907
0.21351500 0.20389748 0.10015961 0.11509793 -0.22960691 -0.12090539 -0.22169530 -0.10915449 -0.18770766 0.16587205 0.12017533 0.12966041 -0.10397812 0.17491750 -0.02894106 -0.05646529
0.11655196 0.14505410 -0.15777135 0.21595775 -0.01322117 0.05054330 -0.23002791 0.00950718 -0.10277776 -0.13833798 -0.08718095 -0.01688079 -0.04894996 -0.14972165 0.17669755 0.07800114
-0.21166149 0.03041551 0.03567038 -0.01914221 0.04159046 -0.00149332 0.09121691 -0.19852982 -0.11666825 0.15552120 -0.18433224 0.10062332 0.25567853 -0.24633099 -0.08330885 0.24096934
-0.02319923 0.02962789 0.05637892 0.08163722 -0.08635522 0.04557026 0.15115727 -0.03876847 -0.20813833 0.07421739 -0.05006006 -0.06895147 0.15143120 0.02570426 -0.12972330 -0.09543731
-0.02688533 -0.06403657 -0.03517544 -0.18211737 0.16264030 0.11486892 0.03427293 0.06617318 0.04512640 0.18459387 0.06801678 0.02007121 -0.12477282 0.09215318 -0.21634308 0.08934536
-0.19794099 -0.10066961 0.10867038 -0.13604851 0.18040188 -0.11999075 0.21793933 0.05098981 -0.10466083 0.13241173 -0.20548627 -0.14342678 -0.13070975 0.00681665 0.02685479 -0.19309758
0.22153726 -0.02106148 -0.10953204 -0.02115719 -0.08977959 0.08155914 0.07317990 -0.05533253 0.03710447 0.15172289 -0.14540534 -0.07716720 -0.01238560 -0.16961408 0.04421538 0.03455197
-0.18326816 0.03440459 0.21966198 0.11460062 -0.11755965 0.21002607 -0.15340742 -0.11026059 0.09372896 0.18019113 0.21961546 0.19628882 -0.11854874 0.03995278 -0.13838755 0.00342759
0.22186761 0.13369271 -0.25352433 -0.08325047 -0.19353409 0.09284237 -0.01939038 -0.18925288 -0.10519287 0.05201322 0.01173443 0.25966179 -0.02480530 0.07893100 -0.09941067 0.00711298
0.00258275 0.19521926 0.08653512 -0.12482093 -0.20335884 -0.21899742 -0.07361604 0.01506712 0.21606675 -0.01337942 0.07961082 0.10870670 -0.17158258 -0.18891448 0.07847803 0.09978167
-0.09193344 0.00865365 -0.27218965 -0.02356767 0.03923285 0.02044411 -0.03082515 0.07784019 -0.07396866 0.15120238 -0.24097438 -0.15951705 -0.18217346 -0.25146338 0.21181484 -0.03019490
-0.17073146 0.01876806 -0.21531861 -0.00886058 0.09603179 -0.02642358 0.10920341 0.02127832 -0.23268522 0.01520074 0.12812331 -0.06382290 0.05354410 0.00197081 0.04443572 0.07576244
-0.24859232 0.17355287 0.13043264 0.00656965 0.03984484 -0.17948985 -0.05453452 -0.01554750 0.08183176 -0.10502309 0.02906113 -0.09866145 0.20142221 -0.22644816 0.04994509 0.19064522
-0.17553733 -0.02152204 0.09338526 0.08173255 0.01655615 0.08372582 -0.15581340 0.18626799 -0.01776711 0.14267462 0.03495184 -0.02290079 0.11139403 0.21541272 0.23036963 -0.19004960
0.03375776 -0.15941757 0.11989036 0.20444967 -0.15683720 -0.03431814 0.15741687 0.17364676 -0.21200830 0.13667130 -0.04973171 -0.18535438 0.02643341 0.13416022 0.12513350 -0.19473352
-0.19760004 -0.14882627 0.16604578 -0.24618338 0.01806205 -0.04799984 0.09786379 0.07033119 -0.09838511 0.07366429 0.25037983 0.01335540 -0.13580967 0.02735769 -0.20195401 -0.13551876
-0.06186632 -0.18033104 0.23667228 0.02345553 0.17352535 -0.03115459 -0.03977315 0.04198739 -0.04908272 -0.05570024 -0.24085355 0.16135541 0.25098640 -0.26837423 -0.05757895 -0.16449212
